{"gamma":0.75,"epsilon":0.1,"alpha":0.01,"experienceAddEvery":25,"experienceSize":5000,"learningStepsPerIteration":10,"tdErrorClamp":1,"hiddenLayers":[16,16],"inputSize":16,"outputSize":24,"activation":"tanh","net":{"inputSize":16,"hiddenLayers":[16,16],"outputSize":24,"weights":[{"n":16,"d":16,"w":[0.01057502418931393,-0.002597036662355469,-0.005996547845532629,0.015178377720400813,0.0036916053661757457,-0.005630149847602691,0.004668674100163609,0.012301855406879164,-0.006464887392157357,-0.008176026813357986,-0.006933067888553037,0.002919297861427486,-0.009936489908504842,-0.005392948711315748,-0.003162391664680079,-0.003957884388355927,-0.00031560048183276826,-0.0192517129709889,-0.0024454375845127546,0.006100206255093947,0.01325578555458925,-0.010739085838490052,0.0062628394503199646,-0.010376717023130293,-0.010206199901370649,-0.00846122255279962,-0.0061137675059869875,-0.0038451661528906746,-0.020055781184701256,0.014180405730877125,-0.006940614404120329,-0.00207564583711528,-0.003630473441440245,0.006923009849066703,0.0037252807843340344,-0.0017644154008414385,0.003636654897876954,0.0029351819722277343,0.006772583934012495,0.0003605537997866443,0.010577477005338292,0.005562890303851438,0.003132874660784751,0.016100440681187825,-0.0016260186931677072,0.0030400467978983427,0.0006262716582681673,0.012104616517978081,0.009903423221025998,-0.0013345683773329335,-0.008686351958679197,0.00020717944387868486,-0.016799223657630265,0.012662703929897013,0.012656416804406491,0.013429044396075918,-0.004634313130050737,-0.0039929353086304645,-0.005251616011000311,-0.018296473715320494,-0.006678892714215763,0.008792229358606152,-0.012432286063075858,0.02068590402682303,-0.009837815406237271,-0.019160916825363992,0.004660813694631322,0.014963650101162481,-0.011040518317840548,-0.0026774565106816328,-0.010494407759349643,0.011769024443887246,0.01310570310544544,-0.017669022778780432,0.00016646171411086524,-0.0003407505701898231,0.005669721814203946,-0.00907821710343716,-0.00883345041786741,-0.0074968806908370725,-0.0012630328285342747,-0.017273250628146008,0.007507513204773592,-0.010401554716562705,-0.0026770665779967534,0.01656697539385252,0.0011034106069766102,-0.004779309779019012,0.0031567026553718396,0.012413599257285685,0.00467454143953301,-0.011431667012740626,0.006251784223609307,-0.0012085226334224233,-0.011807452590029412,-0.008167091151939847,0.014395143641769477,-0.0004381570119147051,0.001299846914294359,0.0018989756855593135,-0.014218683660427934,-0.005495718723179881,-0.010492544106628,0.0012823082156901235,0.010594612007801462,-0.016858797200102235,-0.006056536792567017,0.005515548153100165,-0.019403649942990663,0.002335178354858944,-0.011512708284928676,0.005411257400449596,0.007530694744880353,0.011161437694540704,0.019430667768193407,-0.01568405977143906,0.0020933584424892055,0.017454727595207623,-0.006170404378656477,-0.011608054498115705,-0.005195406537748369,0.011475273910896894,0.012780057347298592,-0.008847043411006237,0.0084550115819488,-0.003991736307390183,-0.005852002497038961,-0.0056449598892339735,-0.002145974828588866,-0.000807623201251604,0.0038639372969161067,0.002187628731790521,0.020383359060700212,-0.008950115972230163,0.018419561547242457,0.003086711912831465,0.0016922692850738486,-0.0037227806009344096,-0.00031289454464056494,-0.01227741162439452,-0.0021902172607895717,0.0019353412652357899,-0.005010548229336205,0.0019034057611242803,-0.011281212174438603,-0.006391281006981109,0.010984954115158665,-0.00031175025821984526,0.009390087335005208,-0.007671320484949508,0.01100741309107439,-0.000629885758185783,-0.002188462179062131,-0.008751231003538465,0.0033333867279475,0.0006319065029606658,0.0054201262703783915,-0.004515293174681819,-0.008849519490616764,0.0031963809734633338,-0.0030931967205591005,-0.01560296398632666,0.022764418345339835,0.02540569773400975,0.002683158702648748,0.011564046105100213,0.005188676119424534,-0.000633807397982737,-0.0016318130056835484,0.018919270161141838,0.004119779398883204,-0.024041374020762563,0.015714460951944457,-0.0019343964167072459,0.008331430754726522,0.006659937510922612,-0.005848443453708575,-0.0008285432755231018,-0.0008774681223776177,0.0034198121655905655,0.006504502668323727,-0.012308227595045315,-0.005215941012392051,-0.003019051960976243,0.0043105227326046365,0.020552164768257292,0.01066433414030909,-0.010807742826897265,0.017984053012568,-0.01045711935847411,-0.00212821048108402,-0.0055977717967089745,0.005871376096904633,-0.004733075447238617,0.004129543103056072,0.003222875437762178,0.009966789586499786,0.0014946027243054494,-0.0011430033394182971,-0.0023388196480144535,0.0026767726263572426,-0.010460686459831125,-0.0015465713491454756,-0.016091702871777868,0.004453302007310189,-0.0037621633560716876,0.0004194578193949135,-0.010241624105819132,-0.017622093416933035,0.0029834494556932097,-0.005387689638151491,0.0005627495275691591,-0.006821019975467928,-0.00443991667101796,0.00972119357384659,0.024128339168515617,-0.002055812150189508,0.000806575955597201,0.007955465297509023,0.003259031434941606,-0.014833276705996606,0.020429469036603125,0.0004199350435621873,0.006518116165110219,0.021586298996549392,0.0013657874205723858,0.00046999004671179783,0.002137961276583338,-0.01835348365334641,-0.0027128910721920052,-0.012890961812496759,0.015102121258150143,-0.00468024871997865,0.003980569146594217,0.014169353705110074,0.0029364035619832735,-0.008588197778708862,-0.012342699160130685,-0.0033688407180567075,-0.007067517864382712,0.0002270141306411902,-0.0004892287804892368,-0.005450554931022695,0.0034689363051792848,-0.023864371499752485,-0.005009691114414012,0.002589780801049386,0.0008768294975514239,0.0017950778958081828,0.012637803094090683,0.007973296026740725,0.01649320923045877,-0.009502993770795278,0.006726786124062859,0.02272872209604947,0.006872096156464149]},{"n":16,"d":16,"w":[-0.005621132901655719,0.0039279678938215195,0.008562991036966927,-0.003873356793400179,-0.007126169933685887,-0.017854019869155455,0.011564879185595792,-0.0009489676732330161,0.010722584100950793,0.004602008586718024,0.00013666360189639948,-0.005940938316724557,0.0006053102545837447,0.002009135569555049,0.0013059679742422816,-0.009191236140773978,-0.0035242666441923317,-0.002172065607861776,0.020331683398386643,-0.012568205721733845,-0.01772174422557257,-0.018952049878311745,0.004668554965508605,-0.006898058825506606,0.012676195223180137,-0.005048434400305535,0.012428761355165343,-0.0016401842520033748,-0.0000716245905552909,0.008181182064449236,0.008665955789476657,-0.009171773384046018,0.0071327460157856225,-0.008302777807176505,0.00115515269756197,-0.007494297695850051,0.002691540061256588,-0.004907588054635131,-0.006401782386504525,-0.0199797287162749,-0.00906197370666907,0.006857153277538918,0.005379828692077589,0.002732771113654701,0.012517251812719852,0.0034981759070899137,0.003934127037528929,0.00006293344116675816,0.006212984850713863,-0.0046524742928283945,-0.003608680262635161,0.0005547101528425925,0.006156626452774588,0.010661214762445003,-0.0005807961178107229,-0.002957113122148765,-0.003751529682126379,-0.0006442279582956938,0.010970391974648715,0.016613318547880666,-0.00010757736007514569,-0.005717120894680673,0.011803997491288696,0.001611583075456036,-0.015091097861200402,-0.013541552743893834,-0.0014137553814471424,-0.010318116941013273,-0.0076045727847537745,-0.01101234937104452,0.006153813364855503,-0.02000638601476648,0.00534468116034066,-0.009222689799055668,0.009996444384609237,0.007791069369398391,-0.006197723824818655,-0.0073553304024565214,0.0007426239050039676,0.01606947743588694,-0.003496069666117053,-0.015157586919130137,0.009916505128547222,-0.00002487705882174988,-0.0020890214320761617,0.02380956140974739,0.012794890714464841,0.008928689242236408,-0.015272890306422985,0.004357293348536706,0.006259984998447421,-0.013057152733882619,0.00786986718000899,0.020121427135712695,-0.010650986634115333,-0.027453531227321033,0.01162952327822539,0.014855034257841303,-0.0017385593783179193,-0.008053304869603676,0.006024707460753005,-0.005161410100121911,-0.003531704102959921,0.008003027336506747,-0.00875097855065477,0.0099017424199272,0.001291869981213798,-0.004316511902421146,0.0018493224873265958,-0.011094825349405781,0.0035629239472513004,0.016721863872860475,0.010067193471417305,0.001670741720418834,-0.004822278376363298,0.0011390447354411555,0.004034290074652542,-0.006391790305866137,-0.01764334205951283,-0.008926240287219049,0.01884710192696511,0.006124518632637567,0.015983765703096228,-0.0033753800160092008,0.0033080841649394655,-0.0032230801612479617,-0.0010025226145074582,-0.012796168260968216,0.011925391066865987,-0.0026949463559934185,0.001418768866402878,-0.0142064732755409,-0.0016158491947889323,0.009965460941824876,-0.009697126491351722,-0.005095033950811303,0.0147430567070542,-0.011778828552068767,0.00945537457274617,-0.0016857329670564723,0.012699072367574598,-0.001203745623815934,0.0004238213460622982,0.002048570652527807,-0.01413746535297419,0.004231125564868241,0.0004510431119851395,0.01658916898373685,0.005194769967348352,-0.012102184617039453,-0.0038518794223115476,0.006827162374909941,-0.021942232378240202,-0.000013448850621875585,-0.010649656887604792,0.006494564446377899,0.00977145262139222,0.011751943223475553,-0.0077850467803661505,-0.017109850472460258,-0.001358301972399328,-0.0007407034864214969,0.01388473755221386,0.0009700897755411909,-0.005745200479551071,0.005773380043491105,0.006974934915809508,0.012009042315057512,-0.004187042471384332,0.0014453621898471492,-0.01656467320918691,0.00739330352058146,-0.013719835349720827,0.005063421464224356,0.00637909556361986,-0.0268139959634886,-0.01906810157368474,-0.006451783435516038,0.002743739727136742,0.004855284089160257,0.019491604954047177,-0.005498819943573794,-0.0030387800082895553,0.004079315323265812,-0.0057764835214162875,-0.013741749850552144,0.009846359675181111,-0.009947527656788186,-0.010056642633808755,-0.0011909074206316109,-0.00429154728249718,-0.013596882075602284,-0.009107493913471305,0.006146772967456431,-0.02021448675147013,-0.014756767115914922,0.008188003349542502,0.002518794199093528,-0.013167876429890698,-0.0038229097412658597,0.004157462081286774,-0.012243181321341438,-0.008448420683414427,-0.0030455686976807845,0.004225683611639038,0.0043851850684418145,-0.021291980147863897,0.005128428283462547,0.00008778337487197799,-0.0020222923993779055,-0.003569683113342144,-0.003465799239095395,0.01144629864483585,-0.005132795357801699,-0.004715015015371968,0.00436616793063416,-0.0010106869272037597,-0.0014369370138571636,-0.008658933392545053,0.005341325431646563,-0.005411733315374967,0.022820149776138936,0.004872362201787886,-0.004741560858570992,-0.009298090036284058,0.0007925346745426126,0.007864111831242035,-0.008587655703671208,0.006062256314520956,0.01035174277996819,0.019967635918332907,-0.0035834310274657963,-0.008378246250222052,-0.008842094947546288,0.003926525684568094,0.0012662953031321155,-0.0003733839661981648,0.010198170362512924,-0.007164772455276343,0.00158476005300115,-0.0009148453707491132,-0.00727267672296618,-0.01170250142115516,-0.0041113591957319595,0.006056409899572902,-0.01607697794944981,-0.003019933241398528,-0.0051379653857827065,0.021454758553695844,-0.0030827079214810534,0.01044970576004024,-0.010753653412117956,-0.00002385410312886968,0.0059533042154595265,0.012608935787921202,-0.01351662386504774]},{"n":24,"d":16,"w":[0.0013461072830515662,-0.016749438806702602,-0.012100390277725677,-0.02370787534754306,0.019389400271200542,0.005468889413731309,-0.006399687824885364,0.006845436441248067,0.006509688688895287,-0.0023216838564355776,-0.012396148900274767,-0.005183705380204774,0.008311976912366442,0.005182579311862565,-0.026112230225096872,0.0013627975456409285,0.006565027358512024,0.0004607843168724656,0.008153493499505404,0.002531093674582848,-0.011708614593605397,0.005943274636707021,-0.0006626171248464238,0.0042028822222372674,-0.017336885431581288,-0.016977161149629074,-0.0016120308246678964,0.0007153642875373866,0.004826433318760569,0.010636219500248845,0.0037193642978246,-0.0020315657041607886,-0.018427421672436536,0.009548832931691899,0.019338062158863047,0.009826857887576685,0.0007266606145799705,-0.000507918576176171,0.005022830889987374,-0.009290897135580803,-0.013813169744997293,0.0008007189967460357,0.0033118269763357617,0.004573472494896892,0.0027327013038607865,0.009540735245178402,-0.018053111275723347,-0.005515187238220156,0.005059699787855114,0.0020826133963794367,-0.011558549857250466,-0.008074824711514316,0.005024619513803276,-0.002460822582480544,-0.001973802096412042,-0.01201847615430301,-0.01374140105513618,0.017062715454914095,-0.01973184154780462,0.007677321583301813,0.000340830119265833,-0.008395024243871011,0.0018410658938951161,0.005564012560907609,-0.01728389992006226,-0.0065136290628577355,-0.0022401073593504616,0.009973421473332491,-0.00045320227012198943,0.013056029347508864,0.012791219470105595,0.005352785001547979,0.00511144257624908,-0.015852547138608723,0.0139045412244907,0.0003178161635024648,-0.004294099662336381,-0.008191467093335058,0.0054999433238681434,0.007333460233345643,0.007764154407071157,0.0013240663983620422,-0.012503177910417265,-0.01795834474873339,0.004888579142824752,0.02278329975355297,0.004028400726625027,-0.0003467205197306339,0.0006032765670218072,0.004892434302086242,0.002159704552077047,0.020985434151068516,0.003183031713787544,0.008396945809072248,0.007528343005125678,-0.0010059990604512807,-0.016360096625878597,-0.0076003352442066555,0.006876600683551416,0.0008725663164053031,0.003126544655472707,-0.0039084711757808735,0.006795302344553521,-0.009747426056111815,0.007967565943695389,-0.002571009714287393,0.005785275977515025,-0.00017476829588191565,0.013327238241358154,-0.008133067980547533,0.010958527794083956,0.009675413738690176,-0.004506382285343913,-0.010431557257277391,-0.0049589804755867046,-0.02332201358416106,0.0016115367347903746,0.016048516890998694,0.005163499538526203,0.006138067650394337,-0.004617447411966233,0.015807937366626463,-0.00025099247933579676,0.0012362056938074737,-0.012812699386317147,-0.013333118257681471,-0.0027622604090454432,0.010474350008549375,0.0008996526342196543,-0.003093828625703351,-0.018089701390341374,-0.018593063330045904,0.006138938476263245,-0.0015845181703904893,0.013693729844663225,0.006449642440768791,0.005236705274752312,0.0002956627191999285,0.008018397427988187,0.0036073971812079736,0.01744438505809768,-0.009583959947133031,0.002088712715354461,0.009987811720481396,0.017363702506590594,0.004626671644031429,0.000663230908192958,-0.02013775174452993,0.0018900732590741043,0.014266514662886885,-0.007226800852321031,0.00431757493499926,-0.004953151152454364,-0.010136549885141772,-0.001829307890014754,-0.006340691309757894,0.012583268740419172,0.012195777545857118,0.009233868398501462,0.006285725109108463,-0.020596053300633087,-0.013213696855506645,-0.011850909403263913,-0.011057782344873326,0.0010782507775012934,-0.010487048376017162,-0.004834868811203698,-0.004592215744039404,0.028409368574451643,-0.012124042064023791,0.021447319165512832,-0.016357548914682003,-0.029061900372091245,-0.00911480530663828,0.012957328928607048,-0.008658738950108538,0.01226576904024335,-0.010826619942309424,-0.010589815371405216,0.0094449112254617,-0.0010880756205784148,0.004335901163495015,-0.011133449382936866,-0.012015050783590471,-0.008405618395746994,-0.012135639479546049,0.009200624418574353,0.00600508865858849,-0.006264608525557865,-0.00018421908127261972,-0.005750258326363165,0.00011158163940055726,-0.0017815118440720377,-0.00018288641190801111,0.005551811809215168,-0.00374258837715952,-0.0025064717735038063,0.00788866406505193,-0.011038691680558082,-0.0148441470075435,-0.004724428293586488,-0.005678336722821804,0.0037072134303315577,-0.012205930190713688,0.016743362222315584,-0.003916014015010876,-0.0031571281077851406,0.001070539640882155,0.01131348299578424,0.00804299611626606,0.0031272171291251965,-0.004923483747770589,-0.008234545270452455,0.017195875420522533,0.00012972529106548543,-0.007817889328628667,0.005558499841373212,-0.00006243095565017043,0.013125166569671238,0.0055536480290337914,0.00023052629036859096,0.001408632793919347,-0.013266572573227024,0.012762914057815213,-0.0055141639338545465,-0.010832579842513684,-0.0011914807554910154,0.015315257591125632,-0.006471363082183992,0.0007493117595049432,-0.006600234005373075,0.005882426522812885,-0.0010558718797911333,0.0008109741862117869,0.003972064219617015,-0.012797281318751371,-0.0001518672419416439,0.004272067524834934,0.009505448173542787,-0.007472147223736012,0.024422235900645073,0.010389531166336879,0.006999307632932308,0.003294313384676816,0.0044806702464861075,0.007757209351962586,0.015271709812886216,-0.0033845350346941544,0.0005702441611885941,0.0036259672967165557,0.003622812594154042,-0.008931518656736031,-0.009408579714250102,-0.004482801570617838,-0.028837657802776025,-0.010302266983932416,0.007224060344424582,0.0012906854433721749,-0.01366488776055191,0.007115311631862022,0.002239622676517093,0.012924398799395586,0.0009019644177131162,-0.004956767074921998,-0.013171431878148695,0.007005415859732718,-0.010615616320562892,0.0020404645091465063,-0.016592983841491344,0.006032605838136391,-0.003908407884606445,-0.003972941475462263,0.0068708200955838565,0.0047085885875179055,0.003294670913273239,0.0017484212211151568,0.015392513696331062,-0.0028361796507638537,-0.011133985271063029,-0.007271613672750827,-0.0012484405689450644,0.014970745075754629,0.007968585955255165,-0.0037626730784426814,-0.0030550189962479557,-0.005559047355156856,0.0018844519351058097,-0.002013463013961791,-0.0036045538019008226,-0.012779699646631544,0.01714775860882393,0.0074904486578214035,-0.006287618556244535,0.0014047901368320704,-0.0050012174780496915,-0.016228244050302768,-0.0010885078471107113,-0.008225749928458372,-0.0029006871764424087,-0.012521970650062914,0.009588850020128908,-0.0037665034006425903,0.0037954096175152542,0.009518847730398145,0.0018120644618752325,-0.000011722204010341161,0.003891035935617637,0.0014001468174164352,0.002082927501518192,-0.001593437705715519,-0.0016413452599263127,0.0002524689223350492,-0.0020991571068213408,0.007038224619051465,-0.006560661961495522,-0.015401665900204595,0.01644319154055235,-0.009784262450062768,0.00042304261060525846,0.0019394153809929083,-0.004129454606239969,0.008882361940391126,-0.016740167135845592,0.006640967182595723,-0.014400431621083447,-0.012167283642855645,-0.005433333020897195,0.0004801513436947752,-0.012744057019333833,-0.0016421097936737215,0.0004996294381568264,-0.013190620365952813,-0.005792176848645544,0.002768713159466359,0.007261391787651266,0.0054615731087018435,0.02024464347921007,-0.0017781889906418697,-0.012058083199443573,0.0044617658033314495,0.005490760727656923,0.015547099086554893,-0.014679564356976442,0.007348989882849084,0.007185274198395762,-0.0025570109956625535,-0.0013997089623570048,-0.0012365617066858018,0.006775610960110705,-0.008278409395731767,-0.007684717858873978,0.0032083507581974445,-0.011147255715671364,0.00930190068189109,0.015586729180034585,0.0150036671120125,0.00011661997429886273,-0.0036228399554093125,-0.021232620055370324,-0.0007795740198157631,0.012345513044394586,-0.003286775366711904,0.013413802770546445,-0.004002426593664249,0.005858373154476398,-0.010924707090670404,-0.0009728028486013934,0.0032108083761862964,-0.01435381014776817,-0.004204063235315373,0.003743222757766769,-0.015008696045222716,-0.006591146451306027,-0.0037749363230863337,-0.006920134441112909,-0.0036792277271278247,-0.0028105553734022147,-0.0007646238954007656,-0.00719610442918222,0.0038086711320905395,-0.000030360990102980303,-0.0028841422584495774,-0.020817470322758144,0.003933491522171852]}],"biases":[{"n":16,"d":1,"w":[2.3440927710245628e-8,6.75904107070728e-8,-1.8853891704306226e-7,-1.5486993180767183e-9,1.256770669305395e-7,1.142868563788268e-7,-4.4172502615984e-8,1.2772353892865674e-8,-7.485430918019674e-8,-1.0639933655884124e-8,-9.290865279119042e-8,6.388903350029617e-9,1.3353200050029546e-8,-1.7478934956413726e-8,-8.102291413333805e-8,1.5985803313927984e-7]},{"n":16,"d":1,"w":[-0.0000036315963601961902,-0.000003359739541801229,5.121581081038829e-7,-3.482092361594466e-7,-0.000001913593080379512,-0.000001450080736206167,6.215532254743794e-7,-0.000001314070571461123,-0.000002033708558646549,-7.867133373085599e-7,-0.0000011781483291896624,-0.000001460682140400419,0.0000031648417691927114,-3.535752973791139e-7,0.0000026010842465251814,0.0000016732635900692545]},{"n":24,"d":1,"w":[-1.425896874129418e-7,0.000020652974406185176,0.0000022107168284711086,0.000010403764542830756,-0.0000022004429168197017,-0.000012055790376398042,0.00004799121973800352,0.000023224153456539037,0.00003375022271362287,-0.00001841306927108454,-0.000017062025341333416,0.000016955817293749614,0.000036479572231684374,-0.000021400366754905012,0.000056516634152054225,-0.00005280056102159319,-0.000021354630606443755,-0.000029369225039066716,0.0000654458475950061,0.0000311002798920603,0.000017646219565454895,-0.000042153797596276996,-0.000049784491940336004,0.000020092122544179475]}],"std":0.01}}