{"gamma":0.75,"epsilon":0.1,"alpha":0.01,"experienceAddEvery":25,"experienceSize":5000,"learningStepsPerIteration":10,"tdErrorClamp":1,"hiddenLayers":[100],"inputSize":3,"outputSize":24,"activation":"tanh","net":{"inputSize":3,"hiddenLayers":[100],"outputSize":24,"weights":[{"n":100,"d":3,"w":[0.02197843301948458,0.010729427417615851,0.012060496933803665,-0.01573782510388912,0.013596638813627479,0.0012694296042654416,0.006112513705163887,-0.002132774338729125,0.0015987413875503172,0.017320053985794257,0.007429977598906788,-0.004357348797088633,0.008848903021514509,-0.0033204746678218108,-0.004231415805701658,0.008277806706680494,-0.007047290139576792,0.00006288208758392079,-0.007866696408683847,0.019480808713081603,-0.014322255204114656,0.00823355561244082,-0.011769277299623076,-0.0003523282031884134,0.0026465711115998486,0.0077308616967976165,0.019799406300906017,-0.012878740116364862,0.003975395301442016,0.017908413360268296,-0.009442537000730205,0.0143553189955231,0.004387969330407706,0.00523482961616873,0.0010923575690997194,-0.008132192953553212,0.018165657429078684,-0.0029520046164798366,0.007025377726773639,-0.0010236409591139564,0.0059837487390295725,-0.002703179610251129,0.020822231728958626,-0.008872068674757774,-0.005234976831898117,0.002474747696595598,-0.0038133345850778276,0.006399509963428687,0.0015770995031291403,-0.01437337990285079,-0.0053450756624744186,0.010199059272140855,-0.0012871717360021032,0.002728381678099299,0.012580045580491056,-0.012835430233145817,0.017936721098371838,-0.004675989969167668,0.010847093731174344,0.009011200308075121,0.008746852293073896,-0.020305713107493316,-0.008820857664161621,-0.0014057682738723844,-0.006976147263024129,0.0037844092288819736,-0.01880987517856502,-0.010034337629163352,-0.0019722259364216353,0.0022436458282554367,-0.0017006535842173786,-0.015019727464184566,0.004865108434256822,-0.0020262340140595973,-0.024037142803633834,-0.007931157487824787,-0.007078641753514819,0.006738553548054852,-0.01530366709979623,-0.0005654765717096164,0.01158864717639023,0.001441606705310912,-0.011053661839573027,-0.01193160439726558,-0.001320408591652391,-0.00204464463725524,0.00461406251946549,0.0005844640275637501,0.007672016210733768,0.008287975905795783,-0.0048806264729015,-0.0024101414018220173,-0.0024340221190880824,-0.014695330815490897,0.001190098986131781,0.009011632433982902,-0.007334294361231746,-0.013678749111664326,0.01187028244494023,0.009432933383059013,0.0036717378047930386,0.015337816347704817,0.01063195379557178,-0.003968994180438763,-0.01566453827365391,0.01729112441754999,-0.005008291974753411,0.0020237961315714248,0.009639612714143899,-0.008188238766234547,-0.0009223564704036699,-0.001518539058454287,-0.011010381031606177,0.004756271295871306,0.014565934308470927,0.007126400085721908,-0.0010991532413283452,0.00014783597178099457,0.009394938472312415,0.009579069060299681,-0.01384653115973368,0.017462750959990104,0.010393868698315935,-0.00168022383269892,-0.008873321371684197,-0.02448349884664543,-0.009168317115920002,-0.009913057670751508,0.008481644210783703,-0.008448266526718522,-0.011339190496875965,0.0007905020379807504,0.0004899343183286853,-0.01461053731648175,0.009343698472557626,0.010313024359243979,-0.0016273547538365875,-0.009800633196405938,0.00025278918219914245,-0.001193536070271679,-0.0042310789624843605,-0.012477937221466758,0.0061984720273486294,0.010709432243820212,0.0006001830845047911,0.007660373746256299,-0.011904940302363928,0.014775965307458918,0.007465646908271948,0.0005351428014247008,-0.0029175162575388017,-0.0012694464034000987,0.004793225582339929,0.014667486772882432,-0.0014227108522531326,0.018117773091722116,0.007852574381154727,0.01549281829324544,-0.010224905027589494,-0.004984670274506623,0.008301583492468985,-0.0024480356444958372,-0.007663390842252023,0.00010379623317308961,-0.01664905308168539,0.007799523603345249,0.0066666856890884845,0.005758133530478287,-0.0045685357398685495,0.0045931915844752095,0.01912598112430535,0.005574880666679531,0.002498950949070768,-0.008422241939888631,-0.010581021727979768,0.006891045369327465,0.006304523028278308,0.007597996355203409,-0.0074870688740963824,0.002518175836157692,0.005304278613291154,0.003925390321699557,-0.010137298682102747,-0.0039531706556262085,-0.013429541265125808,0.001577588950704825,0.038702138313393655,-0.0036984490477674488,0.02075160701897691,0.004830089826683746,-0.0068325379213058915,0.005145735521921567,-0.0005939916601750216,0.012142525736676095,-0.01730238562194483,0.0032109056679882875,0.006719849263928315,-0.0023448444992837177,-0.0052121092242050525,-0.012884916605613455,0.01397578567935403,-0.01888942729685852,-0.003810025090651525,-0.0015277420811102664,0.0006604188384069423,-0.005232092409144909,0.0017622456509382015,0.014222749450523806,0.0005719906283068606,0.002294232866673989,0.0050874070591190295,-0.0074766689688239,-0.00429457435779433,-0.0027677724853183688,0.010311117363033511,-0.0065768044322737015,-0.019953754273682435,-0.004346045468258228,-0.003674286354812404,-0.001952049356258325,-0.009475712594699223,-0.0065901023064241305,0.007287131766646125,-0.010355577814988783,-0.0071163702384764846,0.012532839256432756,-0.0018765122208784053,-0.014825124998845366,0.0044032142153578755,-0.0035193402139821767,-0.008208249142555461,0.008339610209364988,0.014539526434752436,-0.005716500034258459,0.004639231844210043,-0.003570521432108529,-0.0031295189100141152,0.00541059233678076,-0.011804534426135905,0.0012655326466054944,0.006368265488267146,-0.005590799283856157,0.009147508382933793,-0.01339773465026697,-0.0028966273435080295,0.00783591999699046,-0.005281989167262351,-0.005605798145810602,-0.011391658534697634,0.008305438202678353,-0.0005890913727624743,0.001371276455506057,0.007782371624297117,-0.007758892161994317,-0.0007639933855466549,-0.01240441149791796,-0.010260643668873113,0.006380008056899341,0.0057199796409472614,0.007048359414181828,-0.007261411752078435,-0.014779979775125882,0.022345734974066927,-0.00025602405156867277,-0.0003135689775944972,-0.006108217830890464,0.01592525177074321,0.0015971642308649527,0.000894744876988185,-0.020664114702510016,-0.01262732469212799,0.0072759630237736565,-0.003187900135095715,-0.003317669551804729,0.0006221565167157353,-0.0025750697043894558,-0.0045146358982154555,-0.0014608355269161099,0.01881919658227972,-0.005552160129354644,-0.0036562419874022465,-0.004050608514652702,0.021432762723049427,0.007230067250796099,-0.0040700703204373245,-0.003272265348046637,-0.0033362353051502465,0.010961841863616976,0.010076056703063274,0.023870313242154963,0.010993688155434833,0.015152803818842046,0.006685606458995367,-0.01092200321164685,-0.003935833682738895,-0.007455860855550975,-0.006491299704806299,0.0005472971082709071,0.01342119874203955,0.006276776265931226]},{"n":24,"d":100,"w":[-0.01592448337260687,-0.003659917868659191,0.006280162806267768,-0.004921618479015234,-0.003336910532427682,-0.007369873125116718,-0.01218657679672429,0.005738451293983974,-0.0013908748362276855,0.006190059149949534,-0.008502157117456196,-0.013472344068115807,-0.001219235298839808,-0.016501271111882543,0.006941561888703135,0.0036012662357120012,-0.0025746794719964574,-0.010583709877444471,-0.000159940783536708,0.000650132253733468,0.01341726026129635,0.0015649853545895928,-0.014211842590349884,0.010844368911193716,0.014043906784029602,-0.00884447478890757,0.010039240817921118,-0.003161258388387311,0.004107399029081027,-0.004355705732680224,-0.005479594086199186,-0.01040650235987723,-0.002827135877750968,-0.0056949618671173876,0.0020858223816205552,0.005129567563180638,-0.0037649572860526457,-0.00892389030997531,-0.004437093738236016,0.007538945832902544,-0.013617074291969768,-0.011262927531410087,0.0034263449544329984,0.013877512352916923,0.0009187816562040533,0.008182266183214137,-0.0016169770545572866,-0.015159102413246701,0.004491522519344697,0.01858156178096788,-0.010834585981808899,-0.012498243641009115,-0.006248082780214487,0.002294415453816898,-0.009484133591270774,-0.0023659543943375665,0.032810208056433185,0.0049554173702868595,-0.0013086191097602786,0.005002405182582651,0.02338834021727981,-0.02605834328674626,0.004566023694691804,0.005033956738402534,-0.001757369091851254,0.004989051346598899,-0.0029415879868317633,-0.014742089861383376,-0.0035788914993648705,0.0019918580498775587,0.01719263893485956,-0.0076953333586529385,0.02072797710460738,-0.008627519353975517,-0.004201404008502195,0.004922557645147319,-0.0015612219373679498,0.009008062706503835,-0.008857153861577151,0.002420353684874463,0.0063051032293858405,0.009146517550587875,0.004604603000707357,-0.006234744775510687,0.007775620478784395,0.009006651738497346,-0.007235372374434899,-0.0008378318973186718,-0.0019608047262432426,-0.001133421922796891,-0.008639909018498362,0.013152372558332685,0.007217350112451807,-0.00816685217004536,-0.006172696351029449,0.0059255442804664275,-0.014152306913859183,0.042570856241547425,0.01809388501829868,0.015799399882247347,0.012302973311354194,0.010203771591161556,0.006181983143981229,-0.0038113368336995974,-0.0036631267666049562,0.014905967167102217,0.027347859743062423,-0.0007638759209705742,0.006240329580899446,0.0017069386431208633,-0.003178512186407491,0.004224721539290894,-0.007900229840036932,-0.00011465679697491042,0.0048272199079644725,0.0015252283818980475,0.008920762555680637,0.005842882163556227,0.024366951695807947,0.019326093364838814,0.008059556393621782,-0.009086692443783094,0.01945702048225374,-0.016116302730213777,0.01210098348625693,-0.019874945310701286,-0.004707123951578502,0.014513872347335043,0.0016673038711491797,-0.006362059261118911,-0.016778204522444683,-0.004992777646834648,0.00937579893034992,0.00896034706952186,-0.002049123361300326,0.0009564924852205049,0.003415066448268803,0.017343813857362347,0.0009927141443614202,-0.014860126825136488,0.017875812801809367,-0.00233613513051209,0.00015410169528535953,0.011879339827513597,0.015465148453209768,-0.024831911371438555,-0.006664733432979238,0.0031038638788812786,-0.014734855510691628,-0.009586830308785996,0.0077580582317205845,-0.003089227763327444,0.015910022730015252,0.02594493622888241,-0.007489076431376648,0.004760321432551496,0.008575929036864487,0.006394983715569021,-0.017154359747615186,0.01740243325937442,0.007099442266206352,0.014577488079751589,0.016948892491859876,-0.013823908637123487,-0.015455991903607254,-0.005940131112733066,-0.006647669867656198,0.008290633785446457,-0.0008896398306610099,0.010062994454414656,0.006349197380632931,0.004524269207506819,0.018642796248824787,0.009310947843297007,0.00041519255010924526,-0.0022353406046187086,-0.007356569927923434,-0.011769121996423567,0.006267801976605129,-0.00352463071283893,-0.01581359451529605,-0.0002698717992919372,0.0018766802515411654,0.001935201150873245,0.007123429762403064,0.010602104340001034,0.007471778920987848,0.0003613489982417899,-0.0036105326676160467,0.007744986048536789,0.007016363153586252,0.00919534911148378,0.003566607169996479,-0.0005529557821382416,-0.005050445001945827,0.019503553290274304,-0.00059634606603341,-0.005296842962886438,-0.005886831903912705,0.006342625521923373,-0.006208972644692655,-0.013652236066366454,-0.025659535410201155,-0.00388805288298728,0.0108300523295426,0.0009146321196521923,-0.022045166676865426,-0.007172805764091093,-0.001048324496271901,0.004611358281538683,0.007981257690509988,-0.002872066803702672,0.0013488183492800755,-0.005453641973130458,-0.013040937324696722,0.010394357295187824,-0.0021109463935874945,-0.0005823458245298074,-0.012761075519204487,-0.00499822640648939,-0.006718176138094628,0.005230887926912863,-0.0017631703271666966,-0.004433678704258545,-0.0013281593131626906,0.003283361138976939,0.008883932761585254,0.0006330547136476063,-0.013693383678070109,0.0036006077232429707,0.0020251405579382537,-0.0012027217795202334,0.01459842448362867,-0.0017096239997643245,0.002918562983000809,-0.006342085563237928,0.011547784413308566,0.017584801423724237,0.00738237829879577,0.00848528968854006,0.0009215639399655674,-0.017311192703183802,0.005886685963922697,0.018380538250260606,0.015888840407261247,0.001987638462417797,-0.002057403653965806,0.014769007794250793,-0.00918183717260109,0.010283575464529916,0.010682426958228863,-0.011761201813627564,-0.016025319135357083,0.0007140071835313983,-0.007611990449652561,-0.0020088848051992205,-0.007360858796936754,0.01145844464544642,0.011132986536090187,0.010493469591902052,0.009770522532854674,-0.004198543970965253,-0.003704390543926975,-0.013155751470896909,0.011328065045306163,0.0012146994579173029,-0.002448394990426823,0.008490389956258433,-0.013350872651701332,0.015881967044043717,-0.0037542639306988317,0.015151048213201731,0.0008049685969872358,0.002741177416407029,-0.01032738218247893,-0.008910963836129012,0.009683193808729139,-0.003309108212213049,-0.003866441789464806,-0.000023257149450541424,-0.006378843190708655,-0.007917040164817436,0.005894046130379913,0.017400666303521703,0.010861725310642553,0.011023317832824881,0.010105662360430706,0.006707933862940357,0.005114448697404709,0.0021014495927469535,0.0020322870368078235,-0.0024903595589256308,-0.0044761984884533835,0.0023882870666652413,0.0030777794783249084,0.007407292044460225,0.0021528473543871093,0.0034655551530736878,0.009351505880885983,-0.0027720504090500623,-0.016140960475016196,0.012230808313475736,-0.006328422860334573,-0.023541380264578336,-0.0007577567972635689,0.008665358436065102,0.021858595637427262,-0.01241888474502031,0.0017465029451065185,-0.007758850557081853,-0.0001332803597944089,-0.00873339120013945,0.01745209966757365,-0.0005709519620161155,-0.004942609024137422,-0.00017841184105386014,-0.010230526172233306,0.028491465983901336,0.006371685945838091,-0.00008242236146902335,0.0075089685909063624,0.016085492676128698,0.015869204506578166,0.01672716447896756,-0.0018656610442434613,0.00827484758364035,0.01935532058882234,-0.006218728602010978,0.0164559109992637,0.0032282878451241146,-0.0024075392947424125,0.01618755668030258,0.003099938268061506,0.005185796143015862,-0.011311552816058616,-0.002479231711766248,0.00017067758994079955,-0.005827172948975091,0.012182387344490921,-0.0023357773026366504,0.001981145147937547,-0.001429809155597651,-0.00991446928150447,-0.006555222227371092,-0.012237856872057005,0.005863147103916779,0.0000928270519738073,-0.0035809863739410634,0.02595985347723751,-0.006884192484307207,-0.002714239631427142,-0.009909996608374733,0.014894954117110984,-0.007539842994368634,0.018876428131040148,0.007511249294491698,0.0069074228867198545,-0.008286768486890972,0.012702902690499614,-0.0028608060750825227,-0.021403416142271026,0.0029429464837239356,-0.00464025268056312,-0.00721773605189914,0.016190336244139836,-0.0013798090266264461,0.008748184966909331,0.004391430916107357,0.012631881343627152,-0.01138201285241358,0.006244850280528779,-0.011444355124997842,-0.006326898798435549,-0.0035408230910327315,-0.004459639219611444,0.0026121771208224686,0.008156279612510892,-0.00046948158710638033,-0.021525312473269175,-0.009104875830958798,0.0005187897897078528,0.000032669819546135235,0.011930408979544017,0.0008224828738192238,0.01013598624241681,-0.0018774800474710132,-0.011562376745252265,-0.0011114510968245903,0.003421379327041706,-0.004537798127624119,0.0033686772026738747,0.012257198626477126,0.0040425566279915824,-0.008912518504552294,-0.015611196999394757,0.007177505400142847,0.008236213274082181,0.018249714820808886,0.00840464473459782,-0.01260325063108767,-0.0212906234350983,-0.010646977569157444,0.00345806625936046,0.007712628678582417,-0.019757313483437042,0.013884832107596222,0.013507574618308132,0.020660126243904495,0.0034380516883426014,-0.006243849859089764,0.00039297005079824693,-0.005193890995460002,0.0014481857209249912,-0.009315162387668819,-0.010444435812341262,0.023876608567279762,-0.0030439499360169504,0.00014320880103565553,0.006527235137587209,0.013429971615044514,-0.003532446304780398,0.0000993622140627996,-0.00279458463256012,0.006512749153679439,-0.005557054710902952,0.003258389719131894,0.004122738159607914,-0.013146676593209002,0.004169881656843265,0.010457270137755185,-0.005615389188052933,-0.006279441334652563,0.0038278978941325356,-0.012667671323758881,-0.006824314041367301,-0.005959683954709021,0.013803306753714613,-0.01461303536343317,0.002133360082757342,-0.0020934787694305854,-0.0035514785180150127,0.003931525213978172,0.0012611326595676456,0.02019081586887735,-0.004848041510711695,-0.007848450458537975,-0.0112184776989462,-0.002844404554472893,-0.0075786531834381304,0.006564259279129465,0.006811503844281439,0.00006353222304705001,0.0041226761597450865,0.0012683245683272515,-0.0076277368279998835,-0.007658940774088724,0.001621905249813675,0.009384014944335073,-0.011021166210420999,-0.005950279109862566,0.00955480724722914,-0.022861448694759062,0.012317603599108362,0.0004545444203495607,-0.011406475297515414,-0.0038718423642753437,0.016422984250668786,-0.004818974731583731,0.0057334752305866574,0.012263962789342081,-0.003017628032727265,-0.008889260993466265,0.0005930728174373906,-0.008133958459670921,0.018764324760919715,0.004138627555540069,0.0163704318604203,-0.005658542741507512,0.006744950995894782,0.004704900121440429,0.01425897497501659,0.013801603987287428,-0.009345673499642122,0.008617611851194345,0.0068353848657047795,0.008388091648990239,0.022885932701606413,0.013321803213092457,0.009364381436299219,-0.00903232553134249,0.0005718765475745246,-0.006421396490298977,-0.006585646643675451,0.013882915684991197,0.005923454001563278,-0.018772626730407554,0.00688872551808603,-0.025403865142433688,0.013392196336939024,-0.0005809740248958156,-0.002228734841190419,0.013561545857634642,-0.0064224418124910355,0.011366215604327419,-0.024832922743300585,-0.01332558351028674,-0.007976138301780653,-0.0037237899933301706,-0.004316244351751617,-0.005092404319044,0.0029812276360306525,-0.000774511521134307,0.008096325133358158,0.00861236003769875,-0.005416807531953214,-0.023050284833453883,-0.006467939101100015,0.007691284977917437,-0.0037728859144130497,-0.011539932916183743,0.006623698621533964,-0.0013848169678940632,0.00919842663175604,-0.003536339413978456,0.00015403915120477892,0.013009022180519927,-0.006093531030460339,0.007874658640526515,-0.008627987613126921,-0.0066647707300649854,-0.012359639473433265,0.0038140022307400984,-0.002690499445231118,0.004166623992947298,-0.014271178050398988,0.005321484347598134,-0.0027153850919444176,0.013260571486898855,0.00889400289146909,-0.002488803159165367,-0.01902672269638599,-0.01133460976989299,0.006879924405962555,-0.0057770394801613025,-0.007931659486291093,0.00686341727533476,-0.0179392255148866,-0.004071481097306081,0.019817371869549988,0.013324724016537897,0.011312280816542501,-0.00851442930803864,-0.020521138147586302,-0.011618775113416748,-0.015257324307980448,0.004880178225536565,0.0010339293665841214,0.01943123803769825,0.008266380201990933,0.003899681649137095,-0.006725535362510945,-0.01545156474220411,0.00795218810903479,-0.01477371383333382,-0.0030875975378868593,0.013215608374848918,0.0009049650373737037,-0.0004125117355583325,-0.00022326743633155788,0.001943167005347613,-0.014494803887414675,0.009167552128232358,0.012651190028133197,0.016362267182384944,-0.0184556766187359,-0.004623405404985843,0.011620286900929342,0.005753758387795235,0.011406289058681261,-0.0013442761318592678,0.00486844626080564,-0.004522160724918549,0.010364562904059621,0.0011001897599108854,-0.0071322875660228355,-0.016849557469554258,0.0047471346622001065,-0.011071324499184947,0.00936286064142642,0.005117096207008223,0.007390789115330138,0.006935151131206828,0.0015374904944644339,0.006354762245650009,-0.004750136778332169,0.005665808196081692,-0.006683801885636737,0.0026794776420019186,0.0026132512809602286,0.009564977128799248,-0.008544023270525499,0.012017019892127717,-0.00981445978788011,-0.0027178374168235256,-0.00724021458560627,-0.007895082009656678,-0.008833411867874773,-0.0009215665299197693,-0.011361606473897895,0.0004952276379784564,-0.006919840317691547,-0.024194132256033146,0.002296352019639437,0.01229983947266277,-0.008642495804073516,-0.007723731434035623,0.017654839790932186,-0.009411234897938747,-0.006171714004653584,-0.018683213449323076,0.009107423610280914,-0.009836730734502018,0.01114986794595741,-0.003392970525535442,0.005666590882582615,0.01277326864761578,0.009176276692790563,-0.0162367902480774,0.0012380266297771527,0.013221625961307607,-0.004738442765382541,0.005118604529925305,0.0005299576182362501,0.017242157153323008,-0.000708312560036076,-0.0027358062965423522,-0.012078391168405004,0.00902705520141596,-0.009153755669243906,0.0019621470796975654,-0.01716931423603855,-0.008505850627556174,0.011332788660521037,0.0002959688372145524,0.021323410750504375,0.010052378211898201,0.0060447523247608515,-0.0068348850692828466,0.0019898614753279813,-0.005485968622007825,-0.004219554763348308,0.001995724169547674,-0.006126629575701442,-0.008102741880337539,0.008376634082013062,0.0012272504773773209,-0.012319901567601986,-0.008262352690527075,0.016263343432853097,-0.000791991460656166,0.006281624699883361,0.003677511002727531,-0.003171484155525264,-0.00018773399081509838,-0.0006967217285032747,-0.020265923101682244,-0.012724635673401418,-0.009774442699410156,0.002346606005599162,-0.005732627750441458,-0.013420124436863043,-0.01691617264951216,0.0022509916920145706,-0.009620439909133565,-0.0013430949076787733,0.009630591301722403,-0.01233431498970874,0.004030221538496083,-0.007407618393405025,0.0020008563418965953,0.011403198506593333,0.00047461415676829577,0.012537132951144662,0.005722582373574338,-0.012093781910946838,0.004517446104652938,0.011781464982449653,-0.002451553185504703,0.00124041163902616,-0.0025378925495615702,0.01590359179728362,-0.01339461786634457,0.010848948214886411,-0.0036434748892998432,0.005766494956891982,-0.007573763406008135,0.00019761567785096467,-0.01567939709067321,0.0064048256869978235,0.0005459710892234077,0.026623279929402742,0.004202524298436426,-0.00806527100363947,-0.0017957434035153735,0.002096497869655836,-0.02260739606692224,0.007740677064298201,0.005486120600413896,-0.006464883050529229,0.007095288546110262,0.011476342885599039,-0.003973277325551286,-0.01957585415396694,0.010143502291374526,-0.003496759368267019,-0.006448504059224463,0.005144029605622329,0.0025727537357553864,0.007493954328084774,-0.003308933772564321,0.001571918349824629,-0.005750724572902173,0.02185675159901336,0.0009242161884095822,-0.0036942617141892914,-0.010117332809847269,0.002325374759876574,-0.005764150123481096,0.012282469640980705,0.009564779834779706,-0.004770200408119128,0.005888503921556192,0.003603380251816191,0.006330150843459172,0.010705094526605018,0.007583331016077888,-0.004490921663643188,-0.0007584884324263572,0.012679271272258789,-0.0034438972682959484,-0.0010075664645149726,0.007093898148968,0.0003017442194025272,-0.010080526182430926,-0.010835174038800514,0.008969155055476699,0.0012536188381226127,-0.008134916610577256,0.0016073696832498761,-0.004774878497476831,0.000992841351265408,-0.010505153435580944,-0.008393684076958207,0.0004292880218274118,0.0085088575650611,0.008464481790603714,-0.009099524444757529,0.02120064472680544,0.004008012865904647,0.004729468435965857,-0.010446323325693405,-0.004861116006762893,-0.001545048348880991,0.0013019808448123328,-0.006175234625153853,-0.014777747906476848,-0.01028183567412294,0.006333839128858638,0.01046728320493305,-0.0021419471686488106,0.00831803554316984,-0.000664015684404652,-0.0003995322084851901,-0.00789805767460654,-0.007378031265664577,0.011502899525135122,-0.0037449484966349095,0.0017070133844405487,0.014820098225373864,-0.009647538339420138,0.004956705183869933,0.017757456972850513,0.01082652167899079,0.009845347442453628,-0.00046949252607947974,-0.007733299995265893,-0.0030220629297138682,-0.004305004074177249,0.0037238819553221817,0.009762842003675588,-0.018928445006206183,-0.0023295758542894725,0.014259223815686872,0.0010047455106994144,0.0038239711165408414,-0.006781010809089159,-0.0002466942368520585,0.010485250168449612,0.010479185287267254,0.007847697122976276,-0.0017061331278080307,0.008332292845980714,-0.014943913355484933,0.006815809301785445,-0.006252706394885756,-0.002262250206633907,0.010911184462499219,-0.013157191895039406,0.0006341631037606203,0.00688571214890463,0.0009121056511851847,0.012586157555966973,-0.02555337732565877,0.0022609717226378485,-0.00021636322163982982,-0.002745640406191054,0.006466841425865972,-0.01353503128658728,0.015021856664630536,0.004673499542351718,0.013896563385317624,0.015285875729815943,-0.005032215576725505,0.008900401900939723,0.002682386338028759,-0.005335711421440926,0.013181580793220907,-0.006863752454004767,-0.00892036218558712,0.004883497717196797,0.01177568676273663,0.002256831281855297,-0.0021884422309227072,-0.0039850166067009725,-0.008815206437146525,-0.010073328101584275,-0.008177290861611376,0.012778306064626122,0.0034864954459413277,0.006964023780263737,-0.008418299680682795,-0.011182200963606984,-0.011486935549845876,-0.024278467856483486,0.0023467198038512847,0.002972393583923993,-0.003988590370736668,0.003674564349872825,0.01828725131277702,0.003423876049662336,-0.02162982940209764,-0.010299584008995532,-0.0018503092817928307,-0.01548950234412269,-0.005532007480753987,0.012923917478610557,-0.018311812405448474,0.008108435012911561,-0.00171349979202829,0.003727799329753838,0.000585403556772349,-0.015197194678722433,0.008964259121350812,-0.026097640487156747,0.0007851729337652838,-0.006187742613658274,-0.0026783464636136083,-0.00582670023002009,0.0022346583410717026,0.008219765003869305,-0.0001572070674631282,-0.00007432486785646797,-0.007710785125182192,-0.006768851821983283,0.010600207018373484,0.003833529313555936,0.010446965809897067,0.004104602657565548,0.003749492642214817,-0.005102340482076685,-0.005303640152714503,-0.0051979760244048046,0.00466926024562392,0.013197640924292446,-0.011962450072292475,0.0006767446519337106,-0.010651835316277199,-0.010551677221541787,-0.017218060645624263,0.005965946894749044,-0.01674784507622216,-0.009998984880940667,0.013608450094190204,-0.012180029675877103,-0.000012177514311166305,0.016960531116677585,0.005684277640863903,-0.012825472951113673,0.01209479427712708,-0.015973711581182524,0.006611462202124474,0.0006675889763467031,0.006039114533258864,-0.0046600021919136125,0.011994284661070212,-0.013188478413788637,0.0033106121208284324,-0.00554151932744085,-0.0065772437316233565,-0.006047645439697633,0.0035814564077359078,-0.025747504710014888,0.01136136567710688,-0.009373624649296806,0.0004823358438888589,-0.0010152382970979152,-0.015808215597947855,-0.009505860796214757,-0.0049669692100006956,0.003605675761706258,0.009055103987968294,0.017026969477598346,-0.008295313721810119,-0.01010211831711446,0.007161362008042833,0.0023366128719707097,-0.012889614713571819,0.0029545356917504355,-0.003614686863501992,-0.0009615145811281907,-0.014353766890099384,-0.007355764626012725,-0.009422318060185142,0.0008770932238927959,-0.007848443606729595,0.007971291216374585,0.0017889455054862385,-0.0003279954088623346,-0.002878134013711907,0.003926549045117545,0.004247948900012131,0.0008137064525087966,0.008394910003136398,-0.021788498336625148,0.011713173421479421,0.0032300679502871264,-0.004163697532410225,-0.012086639489423678,0.0010146502212910248,-0.004362085232712151,-0.006486221601683658,-0.010387681225075654,-0.006707277601015979,0.012643928405440989,0.014669223887812355,-0.0047105497508709475,0.018392681163850785,-0.0005767653109965364,-0.012316779467831718,0.001112667746587423,0.0004606871664198337,0.0026677541128223114,0.001991262009699523,0.007676550809216043,-0.0001036154099902527,-0.0018658566483251194,-0.0022961247045014737,-0.011817693492669909,-0.0016584938005355875,-0.015632640997809925,-0.017759116644897845,0.00007349572031153787,0.006192885505300926,-0.01892507638476302,-0.0066341749738009674,-0.004851313589890004,-0.002504325978013445,0.0050495585552259225,-0.012389311595569911,-0.0019651049326089645,-0.0016415006994675472,0.013395064236764833,0.0070251328638830475,0.00013595784192300907,0.024673898886230648,0.0008655953450107818,-0.010181662756534803,0.009616882517808845,-0.0035712093104038377,-0.004489121455373484,0.0013449176016678624,-0.011472775527586035,-0.0017626349690543707,-0.018102825014029943,-0.01622520226231084,0.008643824654240899,0.012640405853949533,0.02059294817162901,0.012821434951229237,-0.0013640139228013376,0.0041639806712346775,0.00891629523692466,-0.00844528440787038,-0.007894260994692509,-0.007539385788950546,-0.00040512481775253917,-0.010190397083332695,-0.0014218814334989187,-0.002655299856192354,0.00701505873924315,-0.0018103388684040161,0.011914932916971441,-0.013720677566781928,-0.01298559679131844,-0.003285178883236459,-0.008089217409881545,-0.007665632153536676,0.018729728515942422,-0.004155624023061467,0.01639010069876323,0.0019241062656057527,0.02325517103728471,0.0007932009733123031,0.008304931912144774,-0.018216129767696695,0.014343447319952398,0.005622045313162384,0.0008013098227828211,0.002182464608458895,0.007019176444633239,0.001072571529638712,0.006015752965079652,0.0090307963600983,0.0013536027365206476,-0.00010621684111910073,0.0037659592790025135,0.0014368730098370881,0.005789460855644195,-0.0037984921839383156,0.004703184697220785,0.01591418907975617,0.007596945206205312,-0.007861457043328569,0.004899756114424488,0.003561904026897708,0.008033368909913989,0.002767247610636072,-0.0001752425574503798,-0.0009045877138127747,-0.016043263290866402,0.014541152810075704,0.012985935655279245,-0.004341417022939584,-0.014019843139812764,0.0070340120065943606,0.00021121346491977875,0.014997708251780276,0.009304921973508705,0.0027896414534564853,-0.0058306705029945475,0.01629620255745424,-0.0076774724058666696,0.010428721522618421,-0.005194632038621363,0.0030517872085189884,-0.008787340050790116,0.00765951591669709,-0.001328944696975935,-0.0009533099080662894,0.002982135110323675,-0.00783731434908383,0.0018098398125277301,0.0015686379690857302,-0.006393582138369717,-0.0019469884811257696,0.008684005621217069,-0.00020893523546484268,0.004102980386394956,-0.00750421895101616,-0.016571323444118782,0.0016697254880352651,-0.0017294902718970806,0.00013032112967092176,-0.01076951750386417,0.0055077205096439805,-0.007131803616872898,0.01232524444221722,-0.002405439924343307,-0.011078473708895718,0.002125919153483439,-0.0011228576269713727,0.002016109761295202,-0.011945466566658779,0.004003606110262869,-0.004167630639900583,-0.00122860061388234,-0.00895636399649143,-0.004587569916185752,0.000612029410028647,-0.012423408005557343,0.00663065240944121,0.008372704286499378,-0.0002665975137605771,0.012151334967888523,-0.009210919317604418,-0.0027450796943162517,0.01281293688630877,-0.006241856901883824,0.007151936681078109,-0.0005107065729663277,-0.003482279769887878,0.013360711121932597,-0.004402071790277025,0.003732623705956732,0.0005742293061672024,-0.01235619635834415,-0.007617908274499817,0.005042869927056794,0.000049308609590021124,0.0006764200466146695,0.0011368649762964946,-0.011805850473777644,0.006320945818517993,0.018734924514958826,-0.01279123687731004,0.0002001456524518622,0.015610455444748879,0.001629569857169102,-0.0015187917701365203,-0.010382093038497117,0.004368057262491224,-0.010487691440988368,-0.007239727069197987,-0.009681054135462577,0.003582502934887777,0.0012956299022734887,-0.009823468625222024,0.0027981929560616323,0.0053296155658393105,0.0026394470593754066,-0.01136236938784244,0.0009497928785390334,0.0061556250646551845,-0.011983405830345715,0.0022519866339300817,0.013686607676982111,0.0001934117756591227,0.0044457459369553285,0.009335865182305456,0.00866698160690639,-0.0014712508372487511,-0.00008037295700113473,-0.0027871611045265864,0.007060316980767573,-0.005987217219515355,-0.005368561715346735,0.004773585786369213,0.0029758992551714527,-0.003412688935737122,0.007571059934600855,-0.0020029804971777297,-0.0015417081112630026,-0.00022677541016937925,0.006948328888839291,-0.010343808619227346,0.012974178609417637,0.0027970263362488623,0.005745322708805112,0.008820757819960227,0.0009244131653074156,-0.011498331319058856,0.020015162051641857,0.01855097831216345,-0.0060443891983441465,0.011169326238338464,0.00977328896700643,0.003027334322049766,-0.008815013593768078,-0.0020278378200664967,0.002192939033014191,0.010948955451062933,0.013357329524034555,-0.0006340106470930876,-0.009526816624664052,-0.0015335314794552735,-0.009757913094707056,0.0008861324581565123,0.0006893182713229795,-0.007795838830254392,0.01015432803100945,-0.013620047418544147,0.002779589769982856,0.0024466730865222385,-0.020314516713881448,0.004780475876362214,0.012875037851523646,-0.0020903033449551234,-0.009031809437282788,0.006055131856644018,-0.0020674688527313047,-0.014688500075754089,-0.004001234235578932,-0.007767184884104837,-0.022098812899234307,-0.005121393622142354,0.000982866397180804,0.012639310077919604,0.014053981984617643,0.00613746874279501,0.000007257110649496318,0.01310930690015773,0.00005289591302380669,-0.0019085121420564517,0.00842473070047518,-0.0025865086956100083,0.025141311471325777,-0.009013175090108135,0.005409370853280898,0.007107058444744273,0.00552676769153865,0.00887741422399101,0.008246178283772936,0.01009271259313422,-0.00579120358926726,-0.009107190779120037,-0.011991272731758882,-0.0037244853003615573,-0.006463672043179324,-0.008352287668356388,0.009382571809035957,-0.0157775545621565,-0.0062307921500603745,-0.010804500218032512,0.01298823044787186,0.012977031345688015,0.0015600694835781375,-0.005891216326156921,-0.013351416965567095,-0.0028238866554236627,0.008192041978134952,0.01921246267059936,-0.0034813967405378328,-0.0057585785010014524,0.0078109656414066635,0.009551810889618262,0.01942360009860622,0.006124024856934298,-0.012276745354173255,-0.007402908628035709,0.002879333504274844,-0.015599483177133711,0.0009083868566339843,-0.007496511350923194,-0.007755348245924875,0.002467934486000165,-0.008196518900053169,0.0006084634201677176,0.018631944201227078,-0.004107588574340792,-0.00861284299743182,0.01627473735839154,0.013449385018944627,0.0005910293582817001,0.003087698776473898,-0.00832463425245169,-0.020375120616055738,0.006410758598903057,-0.00776307328042038,0.006329793695254247,0.015739130577869652,-0.0006971015432907138,-0.024222317274674412,0.00271958981266474,0.010091642942824134,-0.011655506447167858,-0.002476409009078406,0.007586772939688722,0.0011700160958094071,0.006796167244474358,0.011437110493770346,-0.002793922628218651,-0.005800757711000118,0.0009909316474781664,-0.0027866302861171426,-0.025659934923017894,-0.014386958262679989,0.016052892401393255,-0.0005207924604822942,-0.003374254547006722,0.008929026065157554,-0.00739026550375066,0.0020662350367975095,-0.009938391253198684,-0.0033638103903485483,0.007501531497012522,0.0014407256277480546,-0.0030016889142405715,-0.01036249845350411,-0.0008370238799958563,0.007617010828578313,0.007767093216882173,0.006014194669206268,0.00216696235024662,0.004225478026660805,-0.007264534296776135,0.015088258351219788,-0.021436524549089245,0.007006305950284977,0.0009051964416353025,-0.008494767947575317,-0.00317969036522662,-0.001055303479983434,-0.012710410058655261,-0.00846131925714176,-0.008937749299353696,-0.005461495392874017,0.015013035785532763,0.00022742233479254435,0.002494437825555718,0.00019976731991524837,0.0028666185559953878,0.018615667014301916,0.019400270303982406,-0.01551965749505254,0.0014891380575089883,-0.015695564093870712,-0.005414344892676224,-0.008932188524326758,0.0027192085565650405,-0.001871652175499225,-0.00364252962951195,0.013200686783548696,-0.00010562585775310843,-0.014115884885532946,0.0008594691502187537,-0.004717212564890511,0.0002850869163687853,-0.005737261640124565,0.004519835461354936,0.004499727448834425,0.01004606860821468,0.006920701410614863,0.012993395538663825,0.008327976074556202,0.0004974284476694711,0.017682616370081217,-0.009905247971705203,-0.008443607252578308,0.0087061141234095,-0.006678638220906144,0.0018917268964922882,0.003318985525125188,-0.004164268246778348,-0.013648657723509665,0.004031908352901354,0.008996041915362444,-0.007282644705709601,-0.00023253433537770955,0.00951862628547606,0.003852843086734196,0.016953729551186632,0.004687089168674236,0.015012835628837283,-0.008524505320474954,0.0000943426487496724,-0.00903686084717465,0.015321819660730667,-0.01320008095338429,-0.007059560728637507,0.005856909848812937,0.008184494893784264,0.008059957427386875,-0.010295130044077398,-0.010239568615841568,0.002837735368488612,-0.005335461064169658,0.006459228295171442,0.019112711661827795,-0.009953114640484472,0.00776635320505227,0.010404389166102307,0.002317723954905567,0.01700888004555282,-0.016149527645339813,-0.0018451925927101842,0.006193813201870209,-0.0070030217907160915,-0.0061151613475519985,-0.012060621834779963,-0.021678747569136493,-0.009668652345044243,-0.015477686335308632,-0.003259609218943741,-0.011026689954621182,0.0014359457383369917,-0.013827470174989292,-0.0029672575760987703,-0.021428496944307165,-0.010991197488469587,0.006934354770755055,0.012365822232084427,-0.010668276328347442,0.007751108580541502,-0.015918788490363534,0.013246546312623057,-0.0038534458803460236,0.0009218246126606121,-0.004992839202923817,0.003978078393456958,-0.005943757562954187,-0.001680076121637377,0.0043030878326773886,-0.004189064783782121,0.00627479357239306,0.004169299919998622,0.021221148731804244,0.021018831022241138,0.005163779431004878,-0.002169691133789904,0.004119441156171398,-0.009049443666792696,-0.0060207336633155036,0.01964323271965022,0.008391346975769893,-0.02941129825340788,-0.003325682583319434,-0.005725443711953758,0.013294584972978385,0.006702022398474318,0.007013046676285349,0.015031168478636909,0.012670321468639214,-0.00463806909679205,-0.002048643025505625,0.012109300814816712,-0.0012229554211130318,0.020780838888535817,0.0023039592170224776,0.015912532849191537,-0.00809896671848077,-0.0103588802906167,-0.005904061079500574,-0.02394469109182706,-0.012411799087796873,0.004720513039724887,0.006423517499010076,0.0010095839464808137,-0.031920272338701546,0.021709746443240273,0.0004599279209508807,-0.0006082878468919072,-0.008515125422745679,-0.001551962415746631,0.01760427823535755,-0.004664091803993901,-0.0012516059898449172,0.017376124978037966,-0.01138140013956246,-0.003503394048465979,0.023174015070252962,0.003282888516530506,0.011355344530407128,-0.005035491061279113,-0.007168334731683745,-0.015984718391347463,0.009973076159647433,-0.003830531996022729,-0.001396130806742639,0.015389252039185916,-0.00988538219932096,0.005830184192867506,0.00920818755767454,-0.008069859575442012,-0.006880317945769959,0.00843883997578078,0.0019378849024554938,0.006635597777455843,-0.010194240091620748,-0.01103746155989418,-0.01192626979158226,-0.0011410113135891476,-0.007878281358488807,-0.0063378326332671365,-0.01768311122719093,-0.0014166520647817208,0.009419763211852734,-0.008618387752304217,0.004129483603754235,-0.004045971346856563,0.0027338267125318803,-0.02033602625152048,-0.0010650102647424768,0.00030041143556502474,-0.011961133661822476,0.009400271518144383,0.005928722765709047,-0.005729961669213639,-0.0014526801017695108,-0.014668891791459035,0.01205793283996166,-0.017232567140004214,-0.010909816729474948,0.016744848275731843,0.0041353597169430335,0.025228269419584268,0.008134812251876403,0.013036653827643125,-0.02066727956941969,-0.0018415594469528103,-0.005904120942921056,0.005102236238583747,-0.006846790449518167,0.012419803132936898,0.019197676962102922,0.002405024541091176,0.010078473131468257,-0.012593708972083758,0.013778746062260256,0.014244466284229249,0.008179832942720922,0.004196983693394224,-0.001648815055290449,-0.01429123884634124,0.0027050227901884104,-0.008067541160258917,-0.006615955097791548,0.006924870013264829,0.006657726656901774,-0.004383225291611096,0.004040493361234566,-0.014993069700639053,-0.008281288952958772,0.007633077185832027,-0.008532216978666891,0.00995994603088524,0.00908025083561775,0.008889525325832799,0.00289880863424735,-0.007277197761400541,0.013600949664975158,-0.015538934592868528,0.014702896855302551,-0.00019956355021262737,0.005169839176882203,-0.00999127359052973,0.001539523377117705,-0.028257504696863056,0.0031346031635530224,-0.0003348740003443259,0.0008521968312192379,-0.005363007396292332,0.014315686854567636,0.007543956299243016,0.0011743576407754678,0.014582146613761887,0.00242556947091321,0.0024138647667450042,0.0005839944762510589,0.004914102046517673,-0.016966072082899245,-0.008180204826673804,-0.011036094620133226,0.002145718016964345,0.019062937129949904,0.005694533409478459,-0.005828141715042913,0.004214199109836763,0.013469923815835881,0.007067847083366741,0.025095411666012788,-0.007742250716449024,-0.010793607303456203,-0.013575628213716795,0.005891597177319332,0.010870422336020487,0.008552044148404372,-0.005443681783813219,0.02045796174376196,0.015028620055572576,0.0097802546435777,-0.020564014719182164,0.010636017956164864,-0.007687010144296291,0.0034735162766794604,0.007968430957858399,0.009124921065535125,-0.008701041508108352,0.005215663025356506,-0.01089460462470374,0.0033589342051110133,-0.002500146736960334,-0.01024617066617984,-0.005358718728607738,0.010743794863438343,0.0021035153037981774,0.0021603486986840528,-0.00617433218646175,0.0025098928544869947,-0.004601881967865006,-0.0001199178392852426,0.002025269775852712,0.0035322923257969244,0.0053519671632865804,0.006777493602979654,-0.0005601849802232963,-0.009025712786170176,-0.011484497039643275,-0.012643078294306175,0.0027668051394661823,-0.0022879651381231456,0.004881457883992739,-0.003431726082194406,-0.012943509750545248,-0.015029118386685698,-0.0012909670957792678,-0.00946482998511253,-0.01166961898907374,-0.016541242719377,0.004390838897950249,-0.004247014275737808,0.007519208033456865,0.006562393914608275,-0.004639931058877938,0.0074484031819188395,-0.006417169157733447,0.01738928921253036,-0.001469218824727606,0.004365719771971966,0.007132205776707077,-0.0041904999318157195,-0.001084368228936996,-0.00005056384710342586,-0.0039499420971902425,0.006277068563053543,-0.013583686811819347,-0.009547040566460272,-0.01072532629632577,0.005385848536898535,0.02091503226718075,-0.003151849960395654,-0.012740391145548055,-0.02750951871431543,-0.0040815219066212055,-0.007740028985897199,-0.008789583259723743,-0.005029189778532445,-0.010369897415347443,-0.006432952060622068,0.017372814979979806,-0.0032191192086929413,0.008222615683930156,0.008767662778065802,-0.01285906982566353,-0.00043437129292394884,-0.0011808883249308905,0.005660365450681948,-0.008645144782463438,-0.015623639578701175,0.009205675831877865,-0.0027907574860908707,0.0031638042925988493,-0.00998179086226268,-0.015776383188537278,-0.0031418269106269063,0.006641831039115623,-0.016234459050563362,-0.005020362805283896,-0.004040017214481137,0.016164383049654178,-0.00003114238855925183,-0.008301936666434504,-0.01593533658819924,-0.0030577081831116406,-0.00138863843985867,-0.007796667315698402,-0.011059842213611306,-0.0010333376658088443,0.011015756368999891,0.00491968854654634,0.011330425029499342,-0.0017757628117100626,0.0062239452173488445,-0.002983264271410242,0.0014212304271517683,0.000978636959738473,-0.016638336614657846,-0.011420343368270896,0.003991889268425739,-0.006750244988733356,-0.0052047261744865726,-0.006860467677211216,0.0007302423288933449,-0.00040692887613006046,0.0077674478448504225,-0.004750546960680718,-0.013176507331805129,0.000020777909904209322,-0.0020057242742166424,-0.01555948877986902,0.00993124614385655,0.006755523441849997,0.009240966796270083,-0.0004908754254767359,0.000023365453643695133,0.011943396229863557,-0.0070501783281023194,-0.0006094502903376398,-0.009759171258887561,0.02685694847396901,-0.016609518774931636,0.00044688563437387033,-0.021166230800681477,0.0036664350569202042,0.0285069330624277,-0.004542612787503968,0.011588492979585056,0.021784658484202725,0.0038627015529996054,0.0037288437633234443,-0.001876937423908191,0.00030400467709475296,0.0071665737040580565,0.016993487915016616,-0.01351346897425207,-0.00213401691096065,-0.005891240469392813,-0.01010148499980739,-0.0020286444174514944,-0.01187346563553876,0.009362952315778139,-0.019370372550299286,-0.004947478521250228,-0.009821949123054268,0.005317676823992894,-0.001080283715532755,0.02098559637818922,-0.024251320283227833,0.014649591595703062,0.009352689012750031,0.0019069537593785113,-0.008275449149495044,0.005815019968327325,0.0015912552021431336,0.0067237395505803975,0.01871448843474722,-0.0015275666036729059,0.0013849540873153454,0.01568049208059565,0.009684000869353206,0.019804441420468638,-0.0016075246013528368,0.009549689578405938,-0.00249958404628756,-0.008004899607341553,-0.005291122063104752,0.014414538824269007,0.006760091844365258,0.02113907052684423,0.0035897812110975763,0.007574715909697792,-0.011787614164820027,-0.0058697178383401594,-0.005128218259169718,0.002297462142429365,0.004183993551219238,0.006170706603180221,0.011855095474888729,0.024866687075353167,-0.003781637439419817,-0.005321639473351383,-0.012826708326741902,-0.0015557985000285823,0.006357026464185602,-0.011306840269506475,-0.01634688491321862,0.003085841413151153,-0.0038379630339880413,-0.00822551716784149,-0.014509705203634812,0.005759874667564569,-0.01148476899949392,0.0015973624335435112,0.0013604182484406363,-0.00032306152327132376,-0.013044893080465872,0.010005135260271115,-0.0035766382613476124,-0.007780837856952486,0.004048503856721955,-0.0005286381782408674,0.003818954573073333,0.0024980718116653063,0.013548040937688167,-0.01643396528515271,0.014717452189457851,0.007613143820456083,-0.00426931853436932,-0.005889880848685384,-0.0028593543577608398,0.016295335497838126,-0.007187918525227418,-0.003192917425102111,0.005615579635519495,-0.0008783789804395473,0.006570061463629179,0.008027399527147603,0.011770757908052485,-0.006756195347574231,0.014695976310451938,-0.015707366406324943,0.0039857901353795066,-0.006879958644050416,-0.0031195457678079917,0.0023322046898855957,-0.01143696049865454,-0.0035532264655405293,-0.012633043065936973,-0.005835073691835081,-0.007771371745909883,-0.00759386204753433,0.0012741973527624342,0.01656948921252768,0.00019834539381535557,-0.0018152979603021926,0.0016683508995517422,-0.008110758539567466,-0.008619206293144955,0.003113856015976102,0.00780310764933225,0.005748904772198253,-0.004377797408208212,0.000028263367440075955,0.005955265192217188,0.00300438568846541,-0.005321549899740681,0.002814960685463177,0.0004304054274253742,0.002760670385727825,0.0037927786624479816,0.003329510493671399,-0.0026236679040018375,-0.01048394981171964,-0.011772204037222326,-0.0013350945336975083,0.0023370572941182814,0.00041175518520820823,-0.00473917234138299,0.001217313227355025,0.016851640456495696,0.00958503323927611,-0.021380571461170974,-0.014788078052802807,0.0021253377544988624,0.004014720902923801,0.004656205102770606,-0.020828571124289364,-0.0002627406622757828,0.013094540859622045,-0.0005864288009740051,-0.010947059666165536,-0.001910966905598668,0.019728306318442534,-0.007817404777136211,-0.022420208477645667,0.027894854523648684,-0.0012372943929282126,-0.0021454898538622656,0.004866800073945593,-0.004507968981750472,-0.010060218154142837,0.01361244708459233,-0.005936905838463419,0.004725445682295526,0.00996014333764328,0.0034430843884842815,-0.01169198767798148,0.003963571631739284,-0.007360841096129428,0.008045804940690383,0.0012740415258949492,-0.0027130045879851673,0.010354784708001734,0.002020056625299561,0.008456783208288316,0.010141766493393045,-0.004933240291320072,-0.0051815188976260355,0.0014912669356511176,0.0044608935620415475,0.016142083070114072,-0.004183781106152324,-0.007513581166613149,-0.009692541156217989,-0.006021743577386596,0.009883298073262022,-0.017584549003315252,0.015172512411476817,0.006420645271366681,-0.008855529836501206,0.0022751521971431173,0.013155823993968838,0.007148714076511485,-0.005423603685119524,0.006378069225006656,-0.000879326926280698,0.0022276803162650824,-0.006010114823796435,0.003697129516946873,0.009171806058024543,-0.002290335108372634,0.008770533965592799,-0.007965705601886534,0.0001976726432547368,0.019025791965131537,-0.016439951651065498,0.00036554863797000505,-0.009548726828144425,-0.01671087376899207,0.0030019800161671223,-0.0029254326385084756,-0.00003825386033253753,0.001221019361372877,0.0006853244131259027,0.015685667007851237,0.010680832863017745,0.005155550484233045,0.004864184640231636,0.002703981118815367,0.0014165143750573292,-0.0030065489453999015,0.007418897075726447,0.013167793706897002,0.010903225544167986,0.008922164971680547,0.0048059202700719535,0.019787946062197376,0.016093195324106795,-0.009642702638394032,0.017978634756245837,0.011061106463872055,0.004485980484682712,-0.00910301444815596,-0.006920602076014513,-0.006453180204286289,-0.010563321579023139,-0.001696078129583877,-0.0016865339895386867,-0.0067237467090587675,-0.001327465307032323,-0.004161649650160344,-0.006552696292449545,-0.010334688849037887,0.012221031000843026,-0.00025185688072867164,0.009292919676314943,-0.003541739909349978,0.00044969939296255,0.0006305241879375926,-0.011709680631877025,0.009035300299672228,0.008064189907719344,0.003016087534491092,0.004257641606808525,-0.005674904642044738,-0.005167551372619607,0.00448502701156481,0.00801683316605448,-0.0021345864466179114,0.0022550724930559276,0.005403713083120498,0.006958029689848626,-0.01114838926543595,-0.01585383661506279,-0.0022915735299666624,0.009526000584138642,0.0039060618359191388,-0.00014226307316688868,-0.004201508299646505,0.005424231476305554,0.013618870047972938,-0.025839781944122966,-0.014875223143429879,0.013301651913744912,-0.0025141653179893845,0.013248077161711176,-0.011991330590155813,-0.017286185984742786,-0.003561269400149159,-0.016873849234610317,0.017404048690583207,-0.0030252539892749683,-0.008447800602996464,-0.013970939473226366,-0.008117375538971107,-0.004387379563015006,0.014823538837919868,0.023161835915680676,0.012492916851571839,0.01569240449169634,-0.011025975830114769,-0.010189210929160388,0.004719849653299786,-0.004832184718424964,-0.021126671019416798,-0.0029546461522090704,-0.012992419820335678,-0.01048279233635354,0.007122902222973699,0.01042856441103227,0.009337753156052217,-0.010146754350475764,0.009493608155817708,0.009989760493286755,-0.007009058452063617,-0.012911908169684828,0.01232387585058809,0.021537428554683543,0.004933513594328712,-0.002736766270550736,-0.008555309287569006,0.0018607444944189447,0.003174605470578096,0.006551769443863817,0.017129400073549583,0.011488397864018831,-0.00023891160053154037,-0.004092483766195536,0.013477978022451606,0.02740376189862355,0.00984320585514989,-0.0181258852129006,-0.012266568884004531,0.002645310013499928,-0.015011623748777769,0.0019272588738462161,-0.00265676390549278,-0.002307900980522614,-0.0022948554131032297,-0.003658050185043654,-0.0025930816131107147,-0.004549610964041393,-0.0011256203744803468,0.0046739285617744125,0.027259147540166742,0.005014464106055096,0.012494156111320306,-0.006457024819575086,0.013189614195289556,-0.005355428430856731,0.0008027311395142425,-0.0040397079634085144,0.0016139865746057234,0.01021395240921544,0.01711065879442411,0.0038702458837132745,0.004912163949079,0.0005669931769753834,-0.000042062927412723194,-0.0018980040729318535,-0.018719541209493745,-0.009300678139403327,0.010893911425910936,-0.007231441839689697,-0.00101468453221016,0.010054629668294846,0.012634810941849452,0.013723351827403899,0.015198855654522829,-0.005071323867532104,0.001859178693112264,-0.0051102551981892196,0.006098187466777892,-0.024488851795363555,-0.008429853614542127,-0.00436502364132794,0.005141218560495255,0.017885793880681834,-0.0016242919191359366,0.0030929122270117793,0.016441502998826976,0.014909736928710093,-0.007076398953538957,-0.0005354044908748097,0.017493431548868007,-0.006862466716140158,-0.0030615913701941906,-0.017442364320834097,-0.0021805256496278303,-0.008597087455362487,-0.0068392082361489045,-0.0010580800616629127,0.003305698614193886,-0.014499458275372289,0.0068385140335218315,-0.014294108835219747,-0.00841578768666657,0.004127402137534254,0.0032846764832513645,0.0053758476288326045,-0.006771503534517144,0.003112820935199351,0.017407546779455732,0.011945409267548515,0.02189573766094227,0.0035653122724059114,-0.005159165433805356,-0.00201803808933492,0.008625218735889227,0.001019925661358284,0.002241352362153886,0.023071388739448896,-0.01613386318638536,0.013768003782441892,-0.003641979773539278,0.019258127402817918,-0.0021316513244813116,0.011050774566990504,0.01195988084167394,0.00009126594511938353,0.0012848761453214225,0.005384394926562684,-0.01100038252784148,0.0032487639546626883,-0.007233833967288415,-0.0029645949788178775,0.0019313964374809563,-0.0019398009037240773,-0.0009405329799504369,-0.021121525055604124,0.010297918532342142,0.00013273024570327176,-0.0033812021900969384,-0.006304699472207497,0.01085948913447953,-0.01018268504730041,-0.008660936842047804,-0.0022656445778723084,0.008906916334675032,-0.0023847469616279054,0.003940153209208026,0.015015198276139178,-0.006196623325477808,-0.007313778160004106,-0.017995468906671044,-0.004030512211008499,-0.01381047183439554,0.010354874684156246,0.02701224228147638,0.01663204756894503,-0.010272744293000008,0.010111527401035814,-0.009659711314939801,-0.005488153225454366,-0.01229724340960086,-0.0011510550926760606,0.006291973175182811,0.02182877458212451,-0.0007585441160507464,-0.0007408009834486417,-0.009367950233430001,0.009458190831231872,0.011806885167930038,-0.004278849400614234,-0.0023196760415081816,0.0126160763260026,0.009861022207206858,0.009046514574088322,-0.0027193591928998087,-0.000017793875945707438,0.00970533073380203,-0.008556937576500829,-0.0022986449784804745,0.0006039611262768936,-0.01624787373798626,-0.0014985394377537368,-0.00044953652631413453,-0.009115155653315972,0.01277653742509236,-0.007804743779880745,-0.01483667806029583,-0.019537433135648683,0.0015923040756968443,0.01148696133301328,0.010584994110712932,-0.0005687644710290062,-0.01464986185585825,0.0031924459905954554,0.01622243247190479,0.00750467728038691,0.0038531904981212273,0.011413538253157482,-0.00525250634405831,-0.008586321088342785,-0.002768948305167857,0.007621743341899019,0.008064008048255206,-0.008065554041418217,-0.0006838713348357108,-0.010626420759772862,0.014193563634951603,0.001215323110678174,0.004235647821946688,0.009136853059742949,0.008055049562733715,0.006727081755811569,0.004513493451525398,-0.006261657075804935,-0.014889435734224757,-0.001096629227239856,0.0030393378998868153,-0.003362123134591685,0.005801802443457474,-0.0002827582795115238,0.012487604560525743,-0.008730425236078365,-0.00584738181311169,-0.00001820479366068654,-0.026763905781053386,0.006536713200101205,0.0009502128928467584,-0.011351533038235008,-0.007526780790258771,-0.015003550003505685,-0.008876677872842893,-0.015045901452048581,0.012684356513799972,0.005228805225388714,-0.0034441997990277144,0.016432457792835437,-0.015169295893576781,0.0036990998534724394,0.030929198762212538,0.008480071151753626,-0.005425733445622441,-0.0064886681735772484,-0.007982759870453243,-0.01719221008963571,0.004857198228428517,0.01109498741815486,-0.0037642566118859903,-0.0040451785309794566,0.0057437214937671255,0.005586140297670272,0.00884195121370339,-0.008768945226911948,0.011513568768044253,0.00003162844897131485,-0.000823792875695568,0.014083397535125068,0.015105461369164509,-0.006271282628214566,-0.00989911966978085,-0.009149210381978586,-0.008147431743674383,0.009844251494294902,0.013655880062619254,0.004408290107779317,-0.016574269615403436,0.02083275168140952,0.002902375038915779,0.00855550038627959,0.00865597374264204,0.004880159909899384,0.005670107457536264,-0.015401142901807545,-0.005948349199295561,-0.011206945565746165,0.011137167193112954,0.013905774081105491,0.019698417867075203,0.0025835359981017957,-0.009930874059117759,-0.0026952398627159996,-0.0062568283442648144,0.012681538383944854,0.006497566742904449,0.013305742685463886,-0.008744471231774378,0.01305943783296676,0.007629860244853923,-0.007232673431328538,0.002356450974368447,0.015284144126570885,-0.008032889057508095,0.002604887083365671,0.010112767511776383,-0.014685223870683432,0.003476441859755282,0.014499640436554696,-0.015576988591822044,0.005189719864673571,0.009615661810737143,0.004840008100570481,-0.004146736526289989,-0.01114452017556906,0.0009454289864210849,0.009661479285814685,-0.0038688021331352413,-0.0008825246446465131,0.000079211652663302,-0.0003346530470563364,0.009972063547898338,-0.005406743348945942,-0.0004864239831777159,0.0039536079406647905,0.0050024097493098834,0.002755071005794537,-0.002902248155848574,0.019275951544862835,-0.008031524134598057,0.018683040754505085,-0.007981111634373157,-0.008692814055069773,0.007185819591314347,0.00006494014387768677,0.012636581895655068,-0.01428239902258879,0.011033902226781696,0.0003483548696053629,-0.009581337193460437,-0.020569355661043166,-0.016641278109703922,0.01273670236683968,0.0052247031430255235,0.004643998864765198,0.0006744710200239183,0.005644868151397275,-0.003173052250264895,0.007017017780817856,0.004709035465844447,0.005003830320074333,0.015465659606100522,-0.0037999760748476173,0.016551448542019728,0.0016186970661654278,-0.0031688646905856043,0.003899881308552269,-0.00764293959414196,-0.005342289922329911,0.0049808917121761664,-0.009541670756359253,0.011727549259369774,-0.024888427444047113,0.0012391193969606164,0.010211974245831826,-0.002030147705647093,-0.0063960627158541165,0.011111830104718981,-0.0006518916980052424,0.024038838025091238,-0.0056872512733293825,0.016205825586661192,-0.007572490882313283,0.008685592215872602,0.0018935673864411903,-0.0007086198344139149,0.003249521021521731,-0.000405740428324166,-0.01608322234244123,-0.016862982618408063,-0.0033966168325781326,0.007982784519237925,-0.00134594725695174,-0.0028457433847814246,0.0005635453505536734,-0.011910491911361487,0.009896049695762903,-0.003702652150391138,0.013001084291841419,0.003937408182375822,0.0022516489805351745,0.006358493937217605,-0.008548905510813151,0.016312913879938412,-0.004485727771919168,0.004019812242957755,-0.019439711488912364,-0.005050726808817193,-0.0002049129033913977,-0.01969047654782669,0.0013488385198595898,-0.006109471658434649,-0.012409360795189322,0.004463831238452198,-0.010786334556520201,-0.003564353753378364,-0.005572552824198354,0.00658818735690968,0.010310860846569217,-0.010466056957542854,0.00423708588975495,0.004960767174253577,0.000977990886130215,-0.017283544691904823,0.008370787423476873,-0.010439498915427333,-0.0029493770130834566,-0.004176540818255483,-0.014059773743126029,0.0027860118955429585]}],"biases":[{"n":100,"d":1,"w":[-0.000015033945550362432,-0.000041085276822904094,-0.00001977084926249774,-0.00005849165563388279,-0.00003046729530989746,0.00001237817083113045,-0.0000017812814564721403,-8.756462224800216e-7,-0.00004077397145836482,0.000010881577258557507,-0.00007253574321619652,0.000058225077990468087,-0.00003061385733014749,-0.000055008544266103444,-0.00003490642286978687,-0.000029238884678485342,-0.00001251297835289194,-0.000012992834549336887,-0.00002113712644537384,0.000016049714120810346,0.000018337688039566328,0.00007325413582417146,-0.000014220834446959262,0.0000024537936433231194,-0.000011316773470169908,-0.00000776696824222773,-0.000006330089268732684,0.000001750407556912373,0.000049211913011809616,-0.000017500720919483854,-0.000002203262265999134,-0.0000073640264450997,0.00002049283798991026,-0.00005076246197687961,0.000007118539848840406,-0.00000854598077152035,0.000005455483349736795,-0.000008756672205869002,-0.000011015421558313578,-0.000018467538163502776,0.000008919767917810775,0.0000012373706364709217,0.00003871706596588973,0.000033344240076800777,0.000005918289364801096,0.000048997090704673216,-0.000004021180017249484,-0.00007218512668161302,-0.000018696318964757877,-0.0000269712581087318,-0.000013435406636199858,-0.000014542184810950571,0.000007258320017706116,0.000010196804173455583,0.000006401090323685484,-0.000032103880768450334,-0.000029222635891036498,0.000006929871308687215,0.00002499553898580316,0.000019381376184762312,0.000008362778038986843,-0.000007662361503082576,0.000020570234239891645,-0.000020600209495597413,-0.0000015361303450879276,-0.000014397012124174131,-0.00003009407870019306,-0.000015929832476150137,-0.000026633843531893712,-0.00003927637625346689,0.000024792457486677582,0.00001614713756739932,0.0000234771361190442,0.000008462316450155893,0.00000976234827606637,-0.000012697186728992202,0.00005202086768881344,-0.000012609433076985802,0.0000026905427779583915,0.00001829059611674363,0.00007625467398612943,0.00001955773887908628,-4.13596988038088e-7,-0.00002974234283190925,0.00002554381599751852,0.00002670831015333273,0.00001983558656703914,-0.00003162946851211192,-0.000020372871544056957,-0.000004826010914488265,-0.00003161600443821368,7.990988801392641e-7,-8.774167761240592e-7,0.00002215730258071425,-0.000031607358021481227,-0.000032343066127793805,0.000011480408619183593,0.0000012392724738207499,0.00002634676097343019,-0.00003915702518416981]},{"n":24,"d":1,"w":[0.00006551992380912138,0.0000194921421803442,0.00002087542596625113,0.00011197549265672002,0.0000059956011833941714,0.000019851754158746,0.000046066660914162376,0.000013523583378855615,0.000018280503919672704,0.00026628220293771065,0.0007318978452809291,0.0000654447804767783,0.00002197269541263236,0.0004206293218110231,0.00005762451446156403,-0.00039894047038133493,-0.0002975701435009232,-0.0007242712912126313,0.0007503569467309384,-0.0007882237529546405,0.00014066887635656397,-0.001733268303944004,0.0000019335853006007056,-0.0011262893880769744]}],"std":0.01}}