{"gamma":0.75,"epsilon":0.1,"alpha":0.01,"experienceAddEvery":25,"experienceSize":5000,"learningStepsPerIteration":10,"tdErrorClamp":1,"hiddenLayers":[100],"inputSize":3,"outputSize":24,"activation":"tanh","net":{"inputSize":3,"hiddenLayers":[100],"outputSize":24,"weights":[{"n":100,"d":3,"w":[0.0025005664615827144,0.009943843589610509,0.008046210547058107,-0.003903297078149387,-0.008939182592375559,-0.006410032286609967,-0.0019907592097640806,-0.010128667084523223,0.0023768108697512415,-0.0035315664933096517,-0.004713815022799661,-0.0036297675848273947,-0.0031944440436780333,0.004720676750039701,0.004292783217736895,-0.011045788775986734,0.008178515677435884,0.006950020211977109,0.009230580486845552,0.0021075366649233964,-0.018367184030219724,0.007492440413655389,0.01254488929732727,-0.002278090531699967,-0.020120850847177966,0.002874539837220606,-0.00574442085068561,-0.00919011588881778,0.011111439680136127,-0.0061715342828151075,0.0040291737319479454,-0.011523142616898484,-0.004802738100642321,-0.004578968260884044,-0.003258353905815349,0.009685338085648525,-0.007098438073908021,-0.0102875623456239,0.009201022391420274,-0.003962077018203115,0.013027463765442612,-0.00003322013478317509,-0.015989131728507456,-0.015940067395706907,0.014003302927479592,0.007508157872990353,-0.013005702693791327,-0.009405245378523405,-0.012790192262125374,-0.006537008975365995,0.008228083076256335,-0.0026876624853710103,0.0006625719425451677,0.008706107389393423,-0.005558722747632355,0.011719898127364665,-0.012877554100884803,-0.004117375248530667,-0.004797159927480612,0.0006218435540593869,0.00034740815511071806,0.018251130884616867,-0.0008323176254700668,0.017646049564641962,0.00040090687175613324,-0.0010951576119468684,-0.006958458880826406,0.0009315695480424169,-0.01915222046072907,-0.004041248745116808,0.008383407433724527,0.006561500704322898,-0.011994222526275005,-0.009249736002659974,-0.0008690796114340515,0.010303074484950377,0.004615015286606272,0.01433929385261555,0.009748743431391163,0.004984862776117308,-0.0061724060413576864,0.0013471815257346056,0.007168625771152457,-0.011018773042689613,-0.00026627263218840234,-0.012549249390558018,-0.005506500516718603,0.009558771594209365,0.005001534387483388,0.004273617283341375,0.01581758421562142,-0.013407461635211311,0.007388805197544511,-0.009129595029079849,0.019439840974588764,-0.007908922304190982,0.006272870974568513,0.010602816183157919,0.011996885901409567,-0.0010936865484038464,-0.007894184515592567,-0.03082714972504267,-0.006244328364841242,-0.011886508621931873,0.014409327084111434,-0.002566921945990608,0.008047739061286408,0.01710116303961804,0.005376582270216038,-0.012180717872465312,-0.005506194987660556,-0.003860010967316782,0.0014028869988449936,-0.008150525377600108,-0.0014592653022564611,-0.008633138983032536,0.003784339829975564,-0.01132131390927494,-0.01059996866899968,-0.002677323412859215,-0.006228784812810763,-0.00354862298225176,-0.006538529926406541,0.015261534453701006,-0.017824720235144476,-0.0030324533463794733,-0.0160348844665978,0.0076385221237429525,-0.002593756970145686,0.0029373936698026547,-0.007773511293902773,0.0069146035008893145,0.0023976224814506726,-0.0036995445772281606,-0.02359822867439323,0.004225432523471991,0.0037022033877239986,-0.011179531464862915,-0.00951638928369791,-0.00673000223652866,0.002929154285577587,0.00045037651502960897,-0.007197308916591536,-0.010656274076992092,0.015144073252812548,-0.008751807365380265,0.0007587536946321833,0.009030303778426934,-0.00249137001888294,-0.0049974102199565424,0.020616513532211063,-0.03587482616612101,-0.0074878025347221485,-0.0022691269073809948,-0.021465030485734393,0.0021476454781999155,-0.01619497059114237,-0.004580504710654179,0.003718867280631344,-0.00023141914880623344,-0.007524058572703074,0.000057988968386778604,0.008613617377151904,0.000812256252912887,0.013546873485595672,-0.019708488268147105,-0.01125106930702787,-0.013942875920711544,-0.0011829523317448225,-0.0019261415275923278,-0.00720975330780558,0.012108360780672192,-0.010910812355111913,0.00239679463342531,-0.003929300223534501,-0.015435336241699968,0.008231359382115227,0.004516564328883152,-0.00271879375467347,0.012211301725085381,0.009035459954586503,0.0007383061690280902,0.0021388220774416645,0.017485720284118992,0.0007517447350574465,0.01983948321869078,0.00532846414332627,0.013074270878129212,0.0009556984779936729,-0.013933698542520597,-0.011261438908768642,0.005587765288830128,-0.00010489059792601754,0.0015039105317995384,-0.016743270187965488,0.008874596720183647,-0.01106641237445977,0.0206547563232907,-0.001538914615480995,0.01101087149596843,-0.003567548745859816,-0.008077539938661324,-0.004682761219347616,0.0026849472938178056,0.001872904051432686,-0.004035394723705713,0.0012637913915796634,-0.0007049474761322033,0.011767540205927888,0.009839853436421702,-0.004594371200197628,-0.015022625644619193,0.009381604524095472,0.01858851624082647,-0.006362109010476344,0.005999432827646442,0.007210184834293723,-0.012212358301917262,0.007556452891904172,-0.015441779812311013,0.004417983268602372,0.008900932479526863,-0.0027055114108630774,-0.00930824836534262,-0.009985738350556885,-0.009410483057931825,0.007532605360463321,-0.0027518236374604235,0.008142401659274996,-0.006956424755223988,0.00651634621405518,-0.022218021916219115,-0.009322339306449495,0.009739268249207038,-0.011698212504325801,-0.00014324218412267245,-0.009872044863454561,-0.006851337759768789,-0.01409881329516664,0.0029488971863869265,0.018324408421223664,0.005678544002613109,-0.011484670220045151,-0.004671572890262914,-0.005157736758623653,-0.003944693955823536,0.012754543566966179,-0.021195475148699308,-0.005795460404877484,0.0024349616078918972,0.01369175803932207,0.007353697551897962,-0.01638951347385643,-0.012275714758093168,-0.011939578192109357,0.0007359753089637002,-0.004939019905094489,0.005765165006211314,-0.0038332653917177322,0.005460601564330144,0.00836537254132994,-0.008946531153300831,-0.015961145286951115,-0.005761759532652269,0.005401508846047143,0.003482460900098196,-0.00041825985224197706,-0.011874559280428243,0.005443125669077915,0.0013361723657305592,0.01380044349442406,0.005390641694547737,0.00658200914894932,-0.009471922158138718,-0.011712785718200624,-0.00900281691606559,0.00211168189919344,0.008165164616719128,-0.0014518943949916366,-0.0007509945312313822,-0.010385373961266896,-0.010704317955546742,0.025538869235530542,-0.0053541616623056934,-0.009106502756216854,-0.0044795869284538475,0.0036235550062321043,-0.012146934844295482,0.0025942946558181273,-0.00014709268210676767,-0.00430850076377568,0.00006877673914826322,0.008098884103966857,-0.004360897139415868,0.014003582938763222,-0.008338991207822373,-0.008953066821640343,0.011663489176552532,-0.0011727142809736194,0.011773075868057632]},{"n":24,"d":100,"w":[0.004804047371793514,-0.0004926546172403471,-0.016386001805320845,-0.000270934766519604,0.0054835158496166145,-0.0002707380264725302,-0.0034490353333446063,-0.0018519666788311506,-0.0011135532737792872,0.013158663165571564,0.020214317356715295,-0.025455273772451898,-0.01457991122503421,0.009307015011307143,-0.005662927058570439,0.016604015514561362,0.0003777833231936944,0.0018374227110294224,-0.0024406979670590187,0.0073660360206903195,0.005091458894575695,-0.014182674151619876,0.0004960796052193771,-0.014918148179742696,-0.0010618913759253173,-0.0053067937526370375,0.012511406680800759,0.014558219084413963,-0.007753886878221259,-0.0036800914264667967,0.013916016908257193,0.009455330894553944,0.0016065295039569632,-0.007498979433055526,-0.016970825346599702,-0.003669879495050628,-0.001409306020273464,0.001837259010937435,0.009877162529565114,-0.0038812082603557154,0.007877736771185797,-0.01452494653139468,-0.007005965262977364,-0.0016523120885389947,0.010894010762238747,-0.006933384045916733,0.0007418453173690758,0.0007778631694011791,-0.008858291862716942,-0.00460266535898942,0.0026396609314285192,-0.0008109224558777673,0.020080010258386908,-0.00171704596072168,0.011261035398717945,-0.0005510913282916579,-0.005946675244560436,-0.014224189024556026,-0.012750906739833576,0.0008067297907794727,-0.011061065961976037,-0.007851095648358565,0.007311674149947331,-0.0021377997849140653,-0.0029282257059243563,0.009246841417808729,-0.005625335556723399,-0.009216383819041246,-0.009360381850923201,0.01663023937988454,0.0031100103658909983,0.003548590655506467,0.015110933032200544,-0.0009398240203527079,0.0029567944355126906,-0.00342330050686041,-0.005608175627557467,0.005400986444749007,-0.003144286223847453,-0.007384387796898696,-0.002962997226223792,0.013126606336080808,0.008899056502125453,0.011018509295365981,-0.011164170881834787,-0.0076629572378656,0.0056798796294418655,-0.013606616878672366,0.009189469503680443,-0.011707836189768436,0.025455693702925462,0.0047106229827314165,0.00641945456079778,0.011946773798142704,0.004482537776437039,0.006894475080569048,0.005211559124249464,-0.011661080122856469,0.018542983906400502,0.005618157864589913,-0.000027818157156660366,0.004585918950285698,-0.007558191536179427,0.007754977248893768,0.010390820301165468,-0.006293019400782279,0.0048660377901421316,-0.0106554686825288,0.021619614295930532,0.011268554850895807,-0.016535161894688098,0.0009505896702376188,0.008219970366185327,0.005025775671053791,0.0075827183428590844,-0.0022924704966239863,0.008122076059021311,0.008635833940835759,0.007929432615063514,0.018531986023272922,-0.009702760152594593,0.016981959779644576,0.009757104175379226,-0.013913510019196532,0.007484871361374931,-0.0010052338418331459,-0.007709287093258341,0.018804413597073043,0.007005415943028891,0.006118016892933094,-0.00928322104480621,0.019895239865939975,-0.01705112070866369,-0.004631540150435101,0.012403161900845356,-0.001041356707134927,0.005226780445672475,-0.0033308720232907083,0.005630554077085923,-0.015624175673397392,-0.008670673130710996,0.0000037756484981864293,0.006209605074928078,0.010185616720808968,0.012921751485544225,0.005433339632591689,0.0007680389826292497,-0.02608484126549817,-0.003510881631061329,-0.003948182589834523,0.0001570703259034754,0.012088094467760305,-0.0027622002042169136,-0.0046659334036717615,-0.0017806312234856549,0.010672451891885133,0.002332141037284523,-0.005180634491477139,0.00787046548042002,-0.010652946880288007,0.01773576807642168,0.01482728865922451,0.006984191088691034,-0.0007489149379899974,0.0026975790414598983,-0.008058482095424738,-0.012879831743256501,-0.00021177430534327326,0.012674975917653908,-0.0002697571776329089,0.014195252413166713,0.002833451428326934,0.0024692635532990695,-0.011405307045087383,-0.01145394842989968,-0.005447631821447393,0.004640897176095032,0.005131660560210608,0.027893117485300177,0.009561363550269418,-0.012206508647936622,0.000027690953258578784,0.01959458529196172,-0.02136750613984095,-0.004106436843749888,-0.004806743275387148,-0.005850884399797086,-0.0024771667702978197,0.01990261503434193,-0.009034777255791082,0.0023724221033489443,0.002928486343262652,0.01575067582255891,-0.007748535855405916,0.012529313760387233,-0.006069253348312842,0.003276260649009368,-0.008591632304171738,-0.014022619365021345,-0.0005458588846830748,0.007460372495993245,-0.002652399629433438,-0.0066458741617725844,-0.004087109365343286,-0.005648994897863986,0.004773978656579535,0.020202685759938492,0.007235412681736245,-0.005075115756647564,0.005944095727396025,-0.011084542106413485,-0.01659187109176979,-0.007726037289928411,0.008326366290178305,0.011462923774558664,-0.002470000039615314,-0.006914320360858561,0.006318491937672227,0.0007230821562804612,-0.003461129872144904,0.005676290714623086,0.0030027776765478974,-0.0001902267975088994,0.0038801428902840735,-0.0016292419830692504,-0.007557109874616591,-0.004446403770074311,0.007113888564383393,0.014351960350858775,-0.00009254013631072062,-0.014075459516327252,-0.0020491278970396535,-0.0036994287985754404,-0.0016075013857218983,0.016080192218456132,0.006312164584920149,-0.015952231183111874,0.0010406579532492469,0.004333289083044947,-0.009119259506198123,-0.006762182624779231,0.0030016877974781897,0.01551417055890297,-0.026305883309575194,0.002477315322558277,-0.0015057240367724225,-0.011737697997236096,0.004402360549565987,0.00011271870333693368,0.0005496076735917749,-0.003626048994265529,0.007344255248988686,-0.0086552043899843,0.006101041801173543,-0.013469713258317154,0.010604843842936662,-0.003947122310834447,-0.006924613074476147,0.005001065995618554,-0.003764922296820725,-0.017590268017330497,0.0021970104117294276,0.021463065006443575,-0.003974179466546876,-0.017206945350053876,0.003470047417211078,0.011379918565215703,-0.004975186606092435,-0.0027773544505436325,-0.008979301410531949,0.023649042207221468,-0.003376500786160617,-0.007927096733200623,-0.01721129437354201,-0.005322336582842228,-0.010118384242437696,-0.007523824000734318,-0.005204483843040279,0.012408239681364652,-0.001577541152833419,-0.0015996012236700922,-0.009531008132832251,0.011127357136763863,0.016722967154424,0.014215525451317431,0.005646820945391289,-0.008756603483573067,-0.00746418876251892,0.008674090644726877,-0.0017789081865836832,0.010934397135577227,-0.00656587846390622,0.003870813810843819,-0.0027644841375319175,-0.00012350002968361689,-0.0006796522517414579,-0.010049234799525597,0.01212879919331143,0.012836731223652477,-0.018387156081641598,-0.012672801631472552,-0.006244671591757144,0.004216501310500056,-0.00710013171346425,0.006472546208542256,0.012983929072718373,-0.005486928781615047,-0.0007506384769275483,0.0032404603338325984,0.004346874398183178,-0.013580089827784888,-0.006420973197074136,0.003433383807783029,-0.005397473821272711,-0.00689419169666101,-0.013370828426314376,0.00015162376951744432,-0.007197700556669579,-0.015824123239786363,0.012685697865955208,-0.0002823647129042268,0.016727855820430407,-0.005429037845230566,-0.01361026899921372,-0.004526708988816525,0.029231967396464123,0.007171910144333812,0.016802430241708077,-0.004845758894116763,0.003066434415145265,0.015836934337801718,-0.01057230507119943,0.009185029954092533,0.006384164421833918,-0.014419585619453749,0.0004224467681093721,-0.0195226121837147,0.0160044828297747,-0.009249463428326693,0.004522979929270061,-0.0036672963494528243,0.008414215678188014,0.016736592113064008,-0.0010154456921306254,-0.014482350223591777,-0.0038021023216221568,-0.015532404521165876,-0.00443635374313286,-0.001216697908999135,0.004435276330055268,0.00729701152410799,-0.012090869797004876,0.0020201460393420604,-0.003181398692739798,0.0036592577623961674,-0.01516882285450533,0.007597758619276506,0.004045970064524892,0.005762754584927224,-0.0006202972368209951,-0.002535840844026552,-0.006820507003894062,-0.018484481077586743,-0.01763736930500831,-0.0012627319511102813,-0.022960001978741415,-0.005717779234341854,-0.0009757841932460307,-0.010713525343849513,-0.011638170069927957,-0.012449665776693798,-0.009305384283459334,0.014174279164245521,0.004676535146965229,0.006732058460350513,0.010320677236468371,0.010230478524249484,0.006706147803001061,0.007129682974815409,-0.019835369641204886,-0.007065323742654669,0.007330333274457065,0.013699583724066643,0.01577968896295787,0.00231852980683088,-0.003564054282178945,0.007711709358679069,-0.0024981960110739766,-0.0035791368249122814,-0.021528059401610577,-0.02345567488950516,-0.0042967711095805074,0.008315213286060642,-0.012924055489830954,-0.013727266611294977,0.008443817463292662,0.0027568394793752375,0.012098402593088484,-0.007820423455341704,0.008940623622219751,0.0047820108945307764,0.004806555466139858,0.002821673860104631,-0.015171802427420817,-0.00268552048582585,0.007739764086322104,0.004591156389319543,-0.0035292419696609763,0.0009746000908392008,-0.004759497168858247,-0.00041220119071843004,-0.020242324001826607,-0.011397734071228023,-0.0013401038371607561,0.005157688620231435,-0.0021681455568726537,0.020004191404255328,-0.004684631284867024,0.0023242826729169643,0.00710428895053189,-0.0077800347713042825,-0.004015092751295417,0.003392542389118305,0.002502538894576864,-0.003229944919503163,-0.016598791684475034,0.01648094644667627,-0.0017185225180810844,0.009140581722198867,-0.0027917249033345554,-0.006076862747951236,-0.0011386257466454942,0.000029239736722351746,0.017716424059185318,0.004332037279625075,0.007146890917028483,-0.012286290138418478,0.001405569586233698,0.0028931834508927647,-0.00397819776951242,-0.006446268753007578,-0.0017938249479868365,-0.004350954417853743,0.006319402560560758,-0.013537933916322343,-0.006549260330359699,-0.012734573379179309,-0.012960157157552403,0.008339349483041112,-0.011104805344141043,0.003656982373509432,-0.0110280600764254,0.006693611592835913,-0.004456305059648199,0.005509894997367833,0.0050109870720596,-0.0016096707814676355,-0.005874342599655786,-0.0045750800106244245,0.0020882975418095783,-0.0003400818184637104,0.0020520902140827263,-0.01127986014349522,-0.014919467045557244,0.02169391672224103,-0.004118499531428946,-0.0016080374034417692,0.00021131617965616426,0.0016624935558703074,-0.004109663570060285,0.005235971887357868,-0.0023554138567420642,-0.010775659961547663,0.0008710871185543776,0.008644161762247297,-0.0009756543109292455,-0.006911522015555212,-0.021246013186279784,-0.016391906187616302,-0.0011173249513261256,0.010715484330335071,0.007699716190544019,0.014566629802680954,0.014058974096580237,0.008740056677628597,-0.00857570481311326,0.006991811686121299,0.010586658874003792,-0.00011668089159050981,0.0039504811415052386,0.004144878647326742,0.0004139053656487666,0.013298471463159087,0.01313976834458838,0.001345247382597418,0.0001402122102274,-0.003323454194781799,-0.003986927603033107,0.007282426801959856,-0.00898697149626233,0.007404842411116214,-0.008573452830408926,0.0023189610629576855,0.007339511785460604,0.0021760510810406603,-0.003911884941556585,-0.0008808012699137149,-0.0005467287685118824,-0.012764828619411061,-0.01391154832987696,-0.0024207687045642214,0.0006545142158050682,-0.01999658979727845,0.006169012952170535,-0.007821618318887771,0.0016370951447272873,-0.005254745569347574,0.01456267979459601,0.004783283507195011,0.009719204803253279,0.002918116648361573,-0.009479447345467983,0.004828897199050692,-0.010079794099529504,0.01835705501142987,-0.004908891071614285,-0.0020572914444551903,-0.007352033864922261,0.00796707822665306,-0.003094288295593018,-0.01362051786446653,0.014735858314767888,-0.005092683361782788,0.0055671440267725655,0.01058354732421813,0.021604727786523593,0.011594090682541455,0.0012884327540390803,-0.005889739070886692,-0.003859895776857309,0.008987320529777432,-0.004891885724045631,0.005561348975281157,-0.006995186584282377,0.010518299477761863,-0.003693781380637835,-0.013413439585858491,0.008783309601773471,0.0035248424730917566,0.007987759905108254,-0.0029953446827280616,-0.010461620938563369,0.001681513606534886,0.011003596082279923,0.0013725497897595993,0.003220498131079723,0.009554200619538877,-0.017496830173324863,-0.0033975999271828334,0.011814524603301676,-0.010530247555722301,-0.006094755241485204,-0.0136094737128086,0.0021931614428170663,0.006491811818907409,-0.00014261308350546414,0.010363657146081827,0.01149769725527923,-0.0018737036256720368,0.00506776798867759,0.013147873580271616,0.006746875196052956,-0.008115345389226192,0.007193820405301235,-0.012089235432475167,-0.00960428566430111,0.00010890700275303412,0.016130154362268372,0.004368861485874561,0.006406149176730604,0.013015550503838786,-0.007303541604346674,-0.008697996908036439,0.007380022735615455,-0.013353847469661926,0.02701970190052256,0.014061359696614185,-0.017550559894865446,0.003777841629083951,-0.002444249244339728,0.0008109699873378986,0.0023731187711494724,-0.0036401915239462927,0.010040210785543822,0.004831736555068138,-0.010231845972791809,0.0018818632670422836,-0.008247667698293541,-0.0038339460091434516,0.00393768038409596,0.00311122526442113,-0.00305931515022154,0.011690026996153591,-0.0033758064926361804,0.017141164193032122,-0.012932180413605311,0.002332951672300385,-0.004847119840298095,0.0007753590103335511,0.021392658952500573,-0.0026757478651181733,0.005101606091167673,-0.0034836719979644717,0.011633067172629488,0.01956856057415435,0.007314454429926935,-0.013537972366015118,-0.009875175822509241,0.009279967976633472,-0.001999807694658239,-0.002565354154278107,0.0019935721086607482,-0.0057463968939401545,-0.006645342538778414,-0.0003780519411980222,0.0023176472056949406,-0.003133230740379887,-0.01915496715332628,-0.0022383714868723305,0.006067863382346721,-0.011620655134785288,0.010039433744970723,-0.002646553610547596,0.0017922730212693075,-0.002760486449782737,0.002333645659231033,0.02416845326218816,0.005439946456759265,-0.0033432441965574257,-0.007395331613632047,0.0007089454994389246,0.0013097919252562768,-0.0052929732526242135,0.014034960643503899,0.004600588579691413,-0.0010818923500489433,-0.007147123982618624,0.011382829392020552,-0.010298348950542864,0.0008571837018945984,0.028030024740917894,0.013584168892567,0.007791490449423272,-0.011930476753377219,0.009182395382890488,0.007199548009454478,-0.00976985208937424,0.014830330183677404,0.0067579440546729815,0.014876870981192634,0.00978458790933116,-0.002110981920252774,0.0009418478739094829,-0.013992430447469591,-0.0032616993748793882,0.007148666253063845,0.019881264782346326,-0.013038204913558095,-0.00008612253078439201,-0.0035744293791888987,0.0006706856237652476,-0.010115854079090558,0.008838838866924251,-0.0000032851869361554436,0.003859692567542336,0.0004235522467369282,0.011083232240850704,0.0043656566522493195,0.014934090356939413,-0.00012961075802314786,0.007621542317383915,-0.016457897454466346,0.004728690527590125,-0.006786775519293532,-0.005912218450801936,0.006959688409451781,0.00968996442274892,-0.0070939851761304285,0.008724772394096797,-0.004300657660002427,0.01512438209526153,0.008516641728888889,-0.0025144777111657185,0.014162625438849146,0.01140059871385897,0.013163762440679454,0.015010148626690032,-0.003802646198944419,0.003102232941527022,-0.006890707492931236,-0.0008480101578106598,-0.004725631034492551,-0.009355670918171721,0.005526225826087588,0.027366972981436453,-0.011305354769493643,0.0008973425884550514,-0.00019343708910221405,0.004692319385285685,0.008814738760368377,-0.011958730161108728,0.007459045907052053,-0.019983235538020516,0.0006541009480617897,0.012713040136724566,-0.012307350003602646,0.00003081539623995971,0.0011509743132342874,0.006910048887449226,-0.0008312277336395393,0.0001259620636504389,0.0022270902305771808,0.012947495725140028,-0.005456615195382881,0.017487891812907518,-0.011983403352751732,-0.00621636372383918,-0.013530083955904009,-0.007923528226821882,0.006728737424741647,-0.019598138646278337,-0.010794888071348983,0.0006520686698555773,-0.014133528785605481,0.0046250827754377956,0.003984913160477054,-0.008413094325664375,0.008070592266053401,-0.0009620774610371183,-0.007778343483520332,-0.009839257263305397,-0.002868813557901581,0.0006935691417831578,0.0072319996864013995,0.008534418952065019,-0.006283325204075739,-0.0017875794504937268,0.014037327903791356,-0.007214036531837123,0.0025279760032076415,-0.000011767222037216642,0.004150666348505991,-0.0025046343135884867,0.004165986211239268,0.00325605000485622,-0.009346938720791337,0.0043577172822484396,-0.004404726444638495,0.002498534712298272,0.012483985918191512,0.015591743893023449,-0.009389706031271197,-0.012330792117794273,-0.0023127639847055066,-0.010652568677455473,-0.007378769432475723,-0.0047569479053814435,0.0014202787902475107,0.0031554395127452698,0.00044197634080727044,-0.0014028150106172256,-0.01811730872646113,0.0029083363267842616,0.00847051101406802,-0.002981775920445014,0.0028747141992318016,-0.02046581525954249,0.01280521987791835,-0.004763315177813906,-0.0056058665551349755,-0.004203038411926251,0.008653963996817645,-0.010325282135332636,-0.024615571309027813,-0.006255818762583228,0.014468535877321644,-0.004388299497492311,-0.005621251548985863,-0.011853038880689833,0.005554096178597192,-0.007272546939688062,0.009038271297994543,0.010449112009239758,0.0009711224758025952,-0.004869580202603648,0.0037105245567352653,0.007677265524238348,-0.004195185870608996,0.011209617206712347,-0.008598851446279844,-0.011717283773601319,-0.01359236756339678,0.02024130470297886,0.002412976001262384,-0.010324036694534017,-0.004715525654739051,-0.006178648344570475,0.00029823340463579917,0.009372182292945022,-0.003059255858914698,0.007932679272613458,0.000872810308881831,-0.012093937599611979,-0.0003439666747953079,-0.0006227764505637713,0.02030796413482986,0.005137313334969939,-0.02259113053002549,-0.0009320188799352791,-0.011523133320218001,-0.0029012422622071627,0.01858066206050162,-0.006581453362147882,-0.02165233659383812,0.0011667034367765067,0.00575606468766767,-0.01214996000564423,0.001185330846188458,0.012262960731177797,0.002044869209299774,-0.0010979359721137638,0.009469674115568321,0.006082432019859675,-0.002544128398831305,0.010981900728592316,-0.00997162764293839,-0.0007146847126840701,0.005497752520235931,-0.002434888869228048,0.007577487008544795,-0.0013179886624225458,-0.015136248213679706,0.012480606907185441,-0.01875261273424734,0.00853494939653307,0.015787684909109246,0.0021922459413700815,-0.009416258432443333,-0.007469865918649946,0.005692741782957458,-0.011959967856118268,-0.007091484142750219,0.020912154488408073,0.0060150707606532365,-0.004005447727746262,0.005599624309647274,0.0037181502974581743,-0.015759581932391263,-0.018724303588085776,-0.010845604993588566,-0.004887639553058916,-0.00016417612339407462,0.014170327332425537,-0.002230105622291495,0.0038315664090596466,-0.008910992689333897,-0.014746167892222333,-0.0072170479555397436,0.005400373566429701,0.012840254750444096,0.009815908869767081,-0.014967409656426749,-0.016362606226806343,0.004301925579470683,-0.0004789559777460333,0.00557143837237681,-0.0058488804270949235,0.008793549269655527,-0.015662373047916987,0.013286749502939395,0.0012666641212056632,-0.008903760871198907,0.019988981572687484,-0.00821897594864118,0.015556572793674728,0.0010391803408122957,-0.012320656322750275,0.003543270526028872,0.009349325530294987,0.010653679478313862,0.0036147768101649947,-0.007714415335347955,-0.004701502420377108,0.010106902488298566,0.025422509537002615,0.0034026271707069213,-0.010746527569202401,0.0025898189645841676,0.009105104445778597,-0.0007490429364899291,-0.000988034736439064,0.007392408506937411,-0.006483228540552699,0.013785026588588515,-0.008093909516799096,0.009701339455216503,0.008393316811994065,0.00002261150393328917,0.004937954322524487,-0.002470266182909203,0.006433825191031527,0.017459146314340132,-0.003509232154426299,0.0021243388777360344,-0.013991742340966394,0.014121977765640004,0.0064416221471585095,0.010309202481278873,0.011602554724110006,-0.006431795739423141,0.004492072651143473,0.0031068721422447755,-0.004480963331929217,0.016876524445385392,-0.010816121934721583,0.009627020597294233,0.0068829150395651505,-0.014572981734032887,-0.01896767546240478,0.0025997423787968727,0.007565263555430949,-0.002363448837071773,0.017713165372852613,0.008578548034479298,0.0037820245901874637,-0.0034701721623110328,0.0066117126024967535,0.009739783583213243,0.00585368753103187,-0.004336707502400224,-0.014578730524781619,0.0005213175486754889,0.0021048642556981204,-0.006358110332738988,0.0016109511202797402,-0.00346935015722797,-0.008592977796147538,-0.00016050695424389144,0.017995129370328312,-0.0021358833842990426,0.0011711508110683571,0.0038583790202558785,0.008220825436524441,-0.01574025440298151,-0.009105918918162962,-0.0037107732912832862,0.017440543830233288,0.00940646945909066,-0.0016385066556258467,0.0007099888711479455,0.002648720611807928,-0.006557964034546752,-0.013089037336384354,0.021021683277079012,-0.007025862889323631,0.0023751890752788723,-0.013740462681015371,0.007407217465341568,-0.020801037673456917,-0.004700189796617814,0.008554303087078085,0.00347413445124885,0.00457122777877868,0.012675044101843431,0.009585947524546503,0.01310298865389282,0.01103681970360387,0.006634344407187218,-0.0020032035532213575,-0.00368773463072707,-0.016036821000991002,-0.01237229508274155,-0.006680191370466166,-0.001913312846792023,-0.009678784974062798,0.0011161176111666058,-0.0003366786265916151,-0.007683817056695154,0.001296005027523603,0.0024246844331351236,0.012793255475595688,0.00597059287073888,0.0167318738811895,-0.006900966347595387,0.01286498386281121,-0.00025582034000315413,0.02605927276204496,0.005795006054958041,-0.009304140975256576,0.008237663093605314,0.008223829973949057,0.0006042120436956618,-0.0007632701041898969,0.018178947891421608,-0.006214957341463373,0.0022592305366177434,-0.009710225239516763,0.004064700681428543,-0.0016301691846789623,0.009155092928741167,0.0008645388317938447,-0.024817560650933698,-0.010435063334919604,0.005723504495870749,0.0005044484339378799,0.00391056873327473,-0.0060426503380161915,0.006397936858454263,0.0181514405143204,-0.003935562605440583,-0.0009310596973117286,0.000505021635357312,0.0005154105160760772,0.0023705013504217915,0.001992007682647661,0.006204782584465768,0.014840152738533577,-0.015365889779088494,0.010576204892588958,0.006006775542037299,0.027406707368826246,0.008175097015420098,0.010833682454072475,0.000489900616079094,-0.0005889016543622545,-0.002753040551599922,0.005178629158956692,-0.0016674344025537702,0.0002679366509116015,0.004852092570568941,-0.012005440501063721,0.004824807736934058,-0.020524296830286136,-0.0030312081219821896,-0.008935138856216168,-0.0030533241313101638,-0.008480699490099011,-0.004514620047389369,0.007855035122001015,-0.009902462383780813,0.007162476378750887,0.0021197724588875653,0.007272147857872291,-0.019837082053062883,-0.0027118816036965504,0.010577884462284054,-0.004124789281667185,-0.021120652176023366,-0.020194654435473886,-0.025458981936597284,0.013212809545790937,-0.015823051782567075,-0.0020471342827049635,-0.01616537122033521,0.01594888412996326,-0.0030086070440149422,-0.009124559822120522,-0.0008873289923697377,-0.00016881000585847986,0.00646456001045262,0.011572529831555217,0.014572430272640456,0.006870641039310359,0.0016470931001211578,-0.002820838742348389,-0.004110576674365715,-0.004697467963945996,0.023801508233281688,-0.011794338016429177,0.0066339190353782015,-0.01120185605141404,-0.00872461075762726,-0.007890183339213746,-0.006226175563777377,-0.0021096041715199425,-0.013525413440043188,0.0053697146008531375,0.0029950757259584646,-0.009103498220014898,-0.008165562049281174,-0.0025735346734639016,0.015751305723880768,0.005368271199750003,-0.00945277800776426,0.002338658188725099,0.008139042382911391,0.014129534697193462,0.011446485463302502,0.008262676986221129,-0.023570189204352252,-0.01788434553087311,0.0037909839105612847,0.009417024898754015,0.011270339670261632,-0.009638280155391008,0.0028723047794086826,0.014799252217983734,-0.0038564566275932502,0.0061662387021982805,0.01111978881962531,-0.016729411575338412,-0.0030495293862331644,-0.003809729935952894,0.0015548364996771065,-0.014086971918848086,-0.018450826618514313,0.00130108251255729,-0.007523798098117028,0.0012420768126104567,0.006411623534616883,0.013277259388227504,0.00432214575904639,-0.012056262834954857,-0.0024052133940886096,0.019710158112300567,-0.003928851011020296,0.0006538725503792634,0.002900214122984733,0.001156299843044558,0.005324770335275279,0.0033729994099535865,-0.01660766592144867,0.003202240904449761,-0.007828698697912957,-0.004269015146915574,-0.008131100962743732,-0.005674398629099765,0.007722796076214853,0.004074446483962981,-0.0006766470387940193,-0.005922755920093284,0.007487719268562644,0.0033269066774783192,-0.018192968023686557,0.016899705635567752,0.012814280717229079,-0.0012440203811257277,-0.013245530169584909,-0.013992705198944171,-0.0076723036077247795,0.007377712327328313,0.0023650042719755822,-0.00658134731750171,0.0008354983045071112,-0.009762121807324595,-0.01121352283164036,0.0019092693705559047,0.0038042928679508942,-0.018412908291632803,-0.008014459454095943,-0.0012032347812472113,0.0005528597863466348,0.012634822563002697,0.0011906562542515588,-0.010707271561168788,0.016097573879378293,-0.0033089166425139265,-0.012315310307317012,-0.001203323297869543,-0.01682365819045476,-0.01302877765435605,-0.008697506640775302,0.003942274587810996,0.014384739520645508,-0.0156785172843603,-0.007217756485534447,-0.015537670978008233,0.004480718675228835,0.0004908180867923559,0.029970638459503436,-0.001936223886886466,-0.021127244249495112,0.010600460531850913,0.01675879411419843,0.004371345382677835,-0.024140726331912554,0.003541435424688469,0.0019294628041070015,-0.00631985423177783,0.006242622011784794,0.014332110864650992,0.019681501367825694,-0.0026362046562564806,-0.0026940036773593005,0.00151052297421656,0.013021019572392349,0.003292435206687012,0.009939921041752656,0.0031395800865124685,0.01570757699522298,0.005449133485807528,-0.005540693869557195,0.010092979761010994,0.013343562151351953,0.015315379963222329,-0.012595146487449579,-0.004066602488317701,-0.016287617997680255,-0.020460826994263166,-0.002233082213051222,0.0011507781400608148,-0.000013905595957079436,0.009727633503670754,-0.011983612151014428,-0.008323042631341399,-0.013740742709652594,0.01015116683261242,-0.0014691217261311315,0.010808058669744922,-0.003580615608902617,0.000800276675573145,-0.008003218759883975,-0.021608572080049578,0.008960447385839837,-0.009644048116365848,-0.0045976822357355705,-0.003816105330405329,0.018594945374990787,0.031311460951231204,0.0015045443591999467,0.007727551317831973,-0.025160262666232208,0.024467429389582622,-0.008510691487834456,0.007496188836760267,-0.005542029265584249,-0.001383120858322864,0.005809756307595791,-0.019970264970749038,-0.016176664513721545,-0.011899851508072734,0.011309454110759608,-0.0031543718813532803,0.00757328616704045,0.003656421372245959,0.014503726713954288,0.012116088257707377,0.012040447757816824,0.012619311556994377,0.0034058373814113514,-0.02010410051721882,0.00127653333095059,-0.01930581881549069,0.0031794403015448424,-0.0009217266493893559,0.005552979675376185,-0.0054518376125621704,0.02100667580438679,-0.00027345490756759753,0.012951422081551152,-0.0016995351171536657,-0.008595487326592481,-0.014246669172033296,-0.0056011226916054474,0.023487209231710954,-0.0017890146348626,-0.0060497344359078855,-0.0034015397196938226,0.0006735425195841952,0.00036207208746974955,-0.014457008025945847,-0.012582868621065007,0.024471690547593426,-0.004445424897433534,-0.004444802409324873,-0.003336383010338316,0.013034484514505285,0.0031872892497028195,0.0036365648324929323,0.012555056917132218,-0.007535502164087547,-0.0000745257523276015,-0.0065711593067101556,-0.0026834874020576936,-0.012378995327346681,0.01090965898515722,-0.00020800687025044687,-0.0027944654569781523,-0.01372539902587281,0.007581378122576359,-0.006706759167414858,-0.008035156120742648,-0.003396726827774104,0.01667430499121157,-0.0021603298010995785,-0.0024098045753364605,0.008528434020404308,-0.022139278398772028,0.014847411379357994,-0.02111230967008081,-0.00690648814419723,0.0034920466674863977,-0.014022914135191423,0.003411191609808564,-0.0038547424349510617,0.008117464590610024,0.006553480145351787,0.008998214396827527,-0.019915727951934543,-0.0070795351473588045,-0.005658021539027578,0.01097984592786316,-0.01279607474199428,0.011528628429614725,0.0028786502914587026,-0.01011606057983017,0.01094634232355613,0.002613762314413392,0.010010150617987499,-0.0009759461797242367,-0.01450541907906205,-0.01634166409315755,-0.008508987207838995,0.004692899967492349,0.007239454156444926,0.009682167726298459,-0.0032215706042504795,-0.00710228218695557,0.005537563432302123,0.0022527805000975556,-0.0029309656293774883,0.002664277663163433,-0.013239759666198059,-0.012062272247521582,0.009115629906845609,-0.0033523735651249166,-0.004334646390638889,-0.008923971363009153,-0.00008334637318643316,-0.005200815478253924,-0.0036867615006267165,-0.0008220715317890809,-0.03276691910844248,0.006679991371318318,0.0040542909612524,-0.004464383117242806,0.0055027503499780845,0.007585946590922921,-0.0022269020665525293,-0.0073436560306519546,0.0018628741093131436,0.005001366750178276,0.0038313839501546323,-0.008134591914942858,-0.0020623985094501474,-0.005164202529115675,0.007224134578469529,-0.0009328085441269815,-0.0032283003645287617,0.009864833358418826,-0.0073385912714963525,0.0011644838530030415,0.009349851208000016,-0.0030347013526259704,0.012071196209022316,0.005804530533123624,0.007789451777768792,-0.011711782109206183,0.004593879651816147,-0.007762424882292463,-0.008003825424224445,0.007239306959398857,0.012732401138980259,-0.006473101699053532,0.0015899255514315149,-0.02348395620031161,0.01200442873723678,-0.024171693511769565,-0.009557826105987202,-0.004696965336748526,0.001212265585516747,-0.006643571966730998,-0.013921840754125205,0.011228033948451272,0.008177546890921036,-0.014840285039400576,0.023089156315022303,0.0009749454452906731,-0.000586112042869428,-0.0027662347583638064,0.005742467974843652,0.020435515827070583,-0.007457549682731305,0.008442801893605498,0.014027723253795924,-0.0012779635775283424,-0.0005833642182050362,-0.003490141279429176,-0.005101569804979823,0.007052179089391985,0.002076995361595688,-0.002376109602766542,-0.012666325689057702,-0.01328557771840779,0.016629148365671944,-0.004564367795729095,0.008291654295753738,-0.008624683866309515,0.002428720996223231,0.010734227766857755,0.0013759438335408667,-0.0035196993093546784,-0.0009283225674846555,-0.016964764124122646,0.01878367703926266,0.008717569730413372,-0.003653488329350851,-0.007536171862187302,0.00044234471243223723,0.006433409242432176,-0.005710841398280499,0.004162879546966667,-0.01483803501129233,-0.006574886470270423,0.010030399956901562,-0.014457200931374902,-0.008889524366778976,0.008516108490115571,0.009740861106512953,0.004093493008595484,-0.010633407252110882,-0.011784669321178118,0.010052871988522396,0.002946258531547474,0.008896830450562962,-0.001988800157164415,0.0060816970127110246,-0.005605730460751802,0.006993115250935831,0.011289492437944184,0.003640100494906428,-0.017757255845907562,-0.013755761693026211,-0.004926171336531593,0.0018858744572789817,0.006621920833144223,0.011317324255077924,0.0026138884440129293,0.02265462766221853,0.02364848641372712,0.014022708959085889,-0.003528213903984024,0.01464774504254977,-0.004021934924033848,0.016856316639030144,0.008378801462118184,0.0077441484002092,-0.013888202284724588,0.00446072074468982,0.0045434878779111445,-0.013001913720647084,0.009347172513764724,0.004581087333769462,0.00040098919241508124,0.017746680683953353,-0.010425029485073541,-0.013749656662890675,0.008994415514207628,0.005783181539242383,0.003251512431311608,-0.012794753349034885,0.0110363654677571,-0.0005930493309041824,-0.007166769517776712,0.01606948191391167,-0.016742094947291192,-0.008067464830291433,-0.0021878537274678733,-0.0077968704398293535,-0.006210567239465024,-0.003931303082017114,-0.002477604693559492,0.01027783518650516,0.012628760703598153,0.01922672040022605,-0.007184782614907906,-0.02027405371540906,0.007724530473438513,-0.016228650513488634,-0.0019502718877993294,0.0010744552881053373,-0.004366786372768586,-0.009203081123628602,-0.013043087342690154,0.007605281128268961,-0.013994051488389931,-0.010228982339101867,0.012299495202497696,0.00642773535119136,-0.01481738014940385,0.009711406967158342,0.004133154298106832,0.006502601366354131,0.021828857054036678,0.0026635365426696304,0.01102680310884568,-0.009844306401330815,0.0026392971463207134,-0.0005414378166743855,0.015311057594836969,-0.0015744645294832713,-0.016473400380019664,0.008574468957924682,0.0065698961507126554,-0.0050548686527005695,-0.007854395522433038,0.00469377262760378,0.014717286359972425,-0.0013703519799214334,0.005275251823281744,0.010270532554577385,-0.0029173278581008356,-0.0036273308212727458,-0.009189303961186042,0.0034922777388621197,-0.021826391609179555,0.002904191646052679,0.003742815995366638,0.009466240830648152,-0.006893202216808126,0.013670423400233963,0.008439532661826853,0.018261045667929045,0.000902819014366511,0.020520697611113702,0.010527319811357063,-0.0057181758583126005,-0.0027762310676527867,0.010057213569817107,0.005367925947096477,0.012606534156244685,0.0031974996282412094,-0.004261576217734186,0.0026326826974350267,-0.001774505431448013,-0.006336359817891535,0.007372489135537514,-0.002231475755315,0.010109020115302387,0.002897223887810842,0.011443775627292718,0.002165140811557797,-0.00813885034033028,-0.002436523343721345,-0.011560003983831129,-0.005413500011539734,0.00005327225588495778,0.010423841718891132,-0.015710001553860695,-0.011947561086741226,-0.0074873700313282995,-0.009141949407485157,0.0034348833047157887,-0.0034265528698712673,0.007532152955051825,-0.005433587190874882,0.01687237282628133,-0.011761319441299399,0.0018505067605361105,0.0018538676604844839,0.0013737770170739916,-0.009967565351624387,0.006788574511638059,0.0021616151427739593,0.007485320454070571,-0.005378885801634449,0.0026776914490988196,-0.005465448697619739,0.006770726420990899,0.0020339344462513204,-0.0032369654557412057,-0.00944988915190364,-0.005490609168567629,-0.026068566533412357,0.001314225796492969,-0.0011026253104244898,-0.007782792971717154,-0.005398648050240283,0.005936628667052124,-0.013306852217156233,0.01707335142685794,-0.025398690943634582,0.006265929431513811,-0.018972083863932808,-0.008731077011313568,-0.0007369110063663581,-0.006024383655439876,-0.010273177255406806,0.0004187860628256283,0.02416884152511417,-0.004998548578059026,-0.009690988676567052,-0.004438660680155949,-0.0264132345283489,-0.00003065312596665591,-0.001141141899941101,-0.01580508776334748,-0.008836596770899523,-0.01282716489813751,0.004591425053371588,0.0032675384229975796,-0.01221197748775209,0.0029030923395987943,-0.006769705729339199,0.02737446828397697,0.007432402698174031,-0.003360763321549369,0.00231071188610229,-0.00018462278832941044,-0.006020011887689522,0.007602160296765616,-0.0127859805463049,0.00459000377369749,0.0001253793364135632,0.007804923754426486,0.004520648052454537,-0.016074172927225416,0.012967772261780731,-0.00854440498501218,-0.0003083104095910128,-0.0105650765755602,-0.0010111158280729786,0.008666240861498005,-0.00008489180659220236,-0.00786284716771373,0.011262468794595875,0.0032719889778755314,0.0017053990346363442,0.015054414347859717,-0.006966848119453314,-0.003660666413227717,0.006090213453551576,0.009974506944826043,0.003712123561859946,0.004168871585206627,0.005641354957953524,-0.01995651335312428,-0.02033079014390583,0.009795947858584633,0.00019883292268620952,-0.012901169109583794,-0.006363116885285727,0.011071890376193919,-0.005197096442708279,0.014483644086234254,-0.004300968353774999,0.0001749013427962357,-0.0022215972546790353,0.014657908227525229,-0.010980979373349837,0.0037648007362642635,-0.008387830199260612,0.006586796957778889,0.0033086562309519877,-0.024676132251510968,-0.00983568543518382,0.005412819111955021,0.000019231312378624923,-0.01842828054521005,0.0008706051078548774,0.020703020929997026,-0.0020055126161544357,0.006368333161510022,-0.0021948181683862263,-0.01298179710121271,-0.008929906537248981,0.005550946523400053,-0.003529477842865594,0.005958452095244273,0.008110148252462654,0.016196268446863223,-0.011880421072798707,-0.003044068318668506,0.001274339845995271,0.004112533609296641,0.0019404591020219532,-0.0010757573407705276,-0.0017735322002078071,-0.008244351663288397,-0.004625140813627099,0.006110318476414982,0.015961052298170166,-0.008691750011011419,-0.015254137874403393,0.011781149543279816,-0.0032631535043732085,-0.008275689187332137,0.014849796369008399,0.0025516507715877407,0.014327398620798161,-0.004541831629562543,-0.012728533959308085,-0.0017327021119841962,0.0024812146682081466,0.0019302844812419014,0.004323605722836074,-0.000619874212573521,0.016918026601539335,0.0013069937722159056,-0.003766798948282185,-0.009395343892045849,-0.0015142878108631282,-0.0006574770465515232,0.009367932411809738,0.0030320025014265416,-0.011520090295481313,0.011146753112730867,0.0036777508003029325,0.015485377476627139,0.014008594997653412,-0.0024112728851035017,-0.011075182484550692,0.01311157538907301,-0.004542162050236251,0.0036941671449424837,-0.01503694619234572,-0.007564902460093534,-0.0051818169824242935,0.01044853117617453,-0.009091982960239787,-0.004685269886184883,0.011159507791045976,-0.007213073819730518,-0.003401550543424179,0.0006338273649776449,-0.004349386698247235,0.002514415361820943,-0.007749764927825711,0.02485200229781789,-0.0005710636163402644,-0.01252335298528373,0.002913459248926734,-0.0074724788273323375,0.018584881663788085,-0.010401525165234488,0.004905994297933608,0.022795824540046097,0.02168819059225685,-0.012167451153477556,0.022012464428577933,0.019288680288973202,-0.015013816417557457,0.0020702045256597284,0.0032642486059309573,0.009193593811664092,0.003267188516162235,-0.0042750192140554415,-0.0034412605624117233,-0.007369430437720204,-0.007073988241761989,-0.0005833515634115493,-0.009041423675779047,-0.005997783191102758,-0.0014305675795850258,-0.01888310575486777,0.005860448156361113,0.004075183283688725,-0.017365319330061555,-0.014364813173385633,0.00043941003229143954,-0.008607986161421263,0.007228033687770323,-0.0014966755771490124,0.025463599590301082,0.019000045566271863,-0.01787135373898453,-0.007009103621631397,0.020723756795543575,-0.0042671368702945035,-0.0005627755405398235,0.003731931514295166,0.001009234200326218,-0.0005553810388012718,0.0001764068677820323,0.00853736454266449,0.012648607718271117,0.012995419236834085,0.014383935172896992,0.004351151820349394,-0.006593905056581093,-0.020797115718532874,0.005318803694984616,-0.007829359617120014,0.006815444820347245,-0.002714565437057636,0.005891011531741188,0.017077287254957794,-0.01060315618006153,-0.0038153819343113263,-0.0016104007078085274,0.015557311998387589,-0.010592771383905611,-0.0027588558583583086,0.00876287019972276,-0.004390701465327158,0.002853066297008881,0.009329949620308836,0.010089424768286998,-0.0069616242665389415,-0.00575584555092089,0.002250774555843644,0.0029929603118297758,0.011540316087714539,0.0012069137491123518,0.0022978438149541267,-0.003433778697815902,0.0009098035610566984,0.013077950318145534,0.0011558965997130626,0.007714800826425437,0.00005322778813450541,0.00345357794349746,-0.01726145427725123,-0.005984568825861963,-0.01301937821491861,0.022958407809801858,-0.012130855833310032,-0.014139629250060293,-0.0044461521367362465,-0.015200489552358962,0.016305618509891564,0.013173941125821405,-0.006302162504314235,0.007736590877378588,-0.0039694462740127836,-0.0076357996067578865,-0.0025462282857440966,-0.01229910846857188,-0.013216206965922345,0.004453641183857243,0.02060719554521831,-0.00418468084543971,-0.0055846748827158305,-0.002415388477264883,-0.006225570448735892,0.00306961117128821,-0.010507435860504491,0.0010600325898465453,-0.006310065934797529,-0.005888614980175809,-0.0057247547451058,0.00507091087479737,-0.013012210960393285,0.008870725757959734,-0.0020297672094916606,-0.005175789016762417,-0.01946062770607623,-0.01341971884139676,-0.010995319265497735,0.0006115866321950567,-0.008287799486287028,0.001377942189457059,0.0025512899683126956,0.017959746976527108,0.013134903016822906,-0.011529295362666113,-0.0048826659597972204,-0.007534595104975032,0.002885460837704203,-0.009780558150491702,0.01602523683840043,-0.010884866987358998,-0.0018975479396747795,-0.005115501453595787,-0.015295721726742473,-0.011735669230564969,-0.005091796226110778,0.00043322783602537995,-0.0011298154297688402,0.013587632212574283,-0.002772927253538507,0.005082444216414665,-0.0058952695637386554,0.007731161942205746,-0.02110329066334756,-0.0005607893649168746,-0.0011838826157147347,0.008940460229772277,-0.003054256065831567,0.00911952814806577,0.004623491756927648,0.02160974609134702,0.009259127293474327,0.009559027927817817,0.0006972278228378193,0.004408454504495201,0.005607883391900261,-0.002707650721437261,-0.0066518014195602205,0.0023475016845010055,-0.023354029793675343,0.0004428381649397918,0.012608200767681956,-0.008510333114731386,0.005021856979971078,-0.005607778954217738,0.006688109084223497,-0.0074930680715791865,0.008576000188327234,-0.003411457749119693,-0.007632946075912873,0.005947440472874179,0.0001443012152538532,-0.0010104602594112114,0.0037536691277130912,-0.0025984436701275686,-0.007110618782772399,-0.010354683147266798,-0.00018995907655534815,0.009084394647870092,-0.0022288374832728167,-0.0033125587596849583,0.007816849378986405,-0.022410412169611423,-0.003822092787551707,-0.008896766908472227,-0.011945084071860146,-0.000925553315258196,0.010953975179240218,-0.010671905992704242,0.016329611030811018,0.01929048249551393,-0.017412879697172937,-0.0019148196882383727,-0.003201223164544187,-0.0030501579620717985,0.00020209723856445344,0.00019833415178618907,-0.019320001856235794,-0.0007262124536789517,-0.015970918817277174,-0.008225471399694788,-0.012033118636669084,0.014421383324708137,0.0027949475460456136,0.002561732459005679,0.0161259270033384,-0.009021263908236368,-0.02121447103691466,0.016494405775184004,0.0004966487241417457,0.011449868506071704,-0.011432920098653028,0.002129242191126121,0.0038282686174343906,-0.008043643195608649,-0.0020014886908416604,-0.009483756645830984,0.005725433789043395,-0.02526632610522813,-0.018446872416535556,0.016202821376948957,0.0028373171327475623,-0.017251802135922544,0.002612678370742435,0.01745340264102144,-0.0021945150070852167,0.0030081881624799455,-0.008135963284199684,-0.008319599893689935,0.0030769931452053786,-0.015478235250689422,-0.0020769458335204534,0.018457334074767483,-0.0015330971015197709,0.0036784984151697654,0.0021824585196591113,0.004892973502600587,-0.002326894810284775,-0.0002907364505258668,-0.008390435484578206,-0.023069127430394205,-0.015554371103387405,-0.010402317843430148,-0.01745132007737833,-0.015400612397236477,0.01148331574743832,0.005560240055802047,0.008437799493281153,-0.00614467894026529,0.000862857999651683,-0.006163536807938787,-0.014729624777399506,-0.002564003453837652,-0.009572794756716251,-0.008853052044440719,-0.0017909400381027807,0.011770901494119813,0.0026407465475477643,-0.012281066833391084,-0.0029560022198452966,-0.0012261979619146491,0.000038238591051401516,-0.027217137050336085,-0.0008456125954188628,0.01397910890574647,-0.0011834652142548529,0.0004905813997570905,0.007940649652572572,-0.009311680034045844,0.0035457366586706543,-0.003263831542579842,-0.0095597076436845,0.0012009415633794976,0.0005292455836479992,0.0003169828219532992,-0.00018239857218419332,-0.012044565714301346,-0.0030794071505758475,0.011020202888911042,-0.015135067214576504,0.0254489962108683,0.008101840865978446,-0.015096179363296693,0.006383718091665289,0.006755917034501711,0.0011707982492410987,0.005920334927635832,-0.00468749014900065,-0.011991578968667878,-0.011725843816606442,0.002284717528471103,0.010852707379379352,-0.009073086421047632,-0.010593516782174996,0.00420131230137981,-0.021979009942361245,-0.010792876365726236,0.00560323916113635,-0.00020539668860012424,-0.0006897316888802746,-0.002125186474538402,-0.0017694750111538727,-0.006026566586311397,0.009869368863610749,0.013101918505088343,0.00487841981397245,0.006592446853978809,0.019344369504858436,-0.007282050532063168,0.0151947074820757,-0.01814136630112056,0.007851993761293299,0.0016445659060999177,-0.0021677275409097666,-0.0010170007232660307,0.001958332379257631,0.010913050717159279,-0.001381602028178694,0.008608851062821441,0.006987217611671844,-0.010873639456986169,0.016382861870636617,-0.013461783781090116,0.02224639530678407,-0.01985898085597963,0.011209419351997669,0.0012270446631171186,0.004185835934092159,0.01601568509912552,0.01640957033143409,0.004745868027176466,0.016696998406882768,0.001551675698905055,-0.0030237330903972117,-0.01710336463086876,-0.006055183234171649,0.009270956028147407,-0.009856786515443574,-0.0099134135607024,-0.02525279710449216,-0.016414829041125487,-0.003693000133070278,-0.00030606369018893283,-0.014994086707070559,-0.005936441988748745,0.004544051251926639,0.007593430199663235,0.015187303919704128,-0.017854662790201925,0.010008248078810646,0.00014273992510135074,-0.01645635756126167,0.004867716452249197,0.015017396651420828,-0.014263541551382947,-0.004628331956009763,-0.004501998874643952,-0.006195696857667783,0.0017461556304147338,-0.020346711846643894,0.009261839504903668,0.001527214687791741,-0.002946405247089151,0.0050583305896795255,-0.0061807404545254525,0.007755130646900717,0.003316935054666198,-0.006609529420008616,0.0035658776711168646,-0.011838002900918167,-0.0005053973737023529,-0.0004993187620901414,-0.007012225109066411,-0.014226973375832858,-0.008761347368852035,-0.0011231983398968587,-0.0006248863015127476,-0.0017631121037944343,0.017826789699197116,0.001553197427326589,0.023263324929091417,0.0051397309657239066,-0.00019272766844831006,-0.005363198548450525,0.025617065890692004,-0.008487433221430472,-0.0137005023182258,0.004977369764130964,-0.0014689002408907303,0.012260125039939253,0.011383623351175312,0.009227872574770712,0.004286713411570939,0.01859126907603287,-0.007366989234917847,-0.0037548133444177114,0.013361488011515758,-0.00189863349642586,-0.012878813796981354,-0.010252283000950652,-0.010966313362366273,0.010729551564824009,-0.005198347828327017,0.0038360693934341495,0.024318064169186793,0.00927520762575509,0.0047812782998912055,-0.004900779473331946,0.0017588831961270063,-0.00646205993612715,0.005845365783742188,-0.006305526810315521,-0.014606738656808612,-0.00642861422429881,-0.01036944413380728,-0.003652881699365859,-0.012197562916444374,0.00776265921149492,0.0070641136086962465,0.015827921160798036,-0.004658351344204729,0.0038650244729082016,-0.008773014179629205,-0.015621588253928452,0.020395598969488584,-0.009164757749159284,0.026722612280503846,0.0031521687722422284,0.010331246914703496,-0.009058020799671678,0.01173369291589739,0.005461660621449822,-0.0013044702031798053,0.008544817659870925,-0.013022507840704365,-0.0018862917575171254,0.006572097038398158,0.006751461641755958,-0.0071843816073544975,0.0009914599999142895,-0.02236961522812347,-0.008594617013794232,-0.0004098779466440724,0.0010026803893241555,-0.002985972989166008,0.005191146398503936,-0.0002337171980463157,0.00027328875539426293,-0.006270370945490201,0.006451775351552325,0.0036571139221783086,0.0013132630582446277,-0.011677049470557494,0.004848317881957195,-0.004529105028947338,0.0019827461323377498,0.0063035332558562685,-0.00163331019314979,0.014732068353614618,0.0044619631616189094,0.00645938059616583,-0.0006125231184525244,0.002673347027264309,0.000372579913509376,0.0003591732887620551,-0.02355454732580315,0.013554054797060535,0.0014031580153315982,0.008863794892619643,-0.007940930870055537,-0.015425028460152045,-0.007526482994247348,0.0005252063896029245,0.013175718051768247,-0.002598554306312236,0.014408026780174827,-0.001242950082088487,-0.0014174477125682855,0.007131182392454749,-0.005372772457941159,-0.00793026510255413,-0.012846483327636804,0.00426999132090087,-0.00771879713295369,0.002811889639584307,0.002786565864466734,-0.009833029562713461,-0.0029072250375635172,0.0025670832250955468,-0.009663799061176523,0.013658711553660887,0.005887448021471632,0.012818954280752099,-0.001837552455129859,0.016356455855358408,-0.0034124906942563015,-0.018693628565783563,0.0045284957005705525,-0.0012869331964730404,-0.008266715018622995,0.017079304614929482,-0.0024721865371561645,0.00001823936913436631,0.006938231620273954,0.000035113965711161484,0.004898033053487269,0.013104262020051133,-0.015980622822550746,-0.0039699225582097274,-0.007444116437364633,0.011133996630397503,-0.0014313718830015205,0.01738748772493269,0.0194482357178603,0.0019686908398686216,-0.004174916862870638,-0.012514668116795706,-0.0011845188750485942,0.002219803819059239,0.01150024006034843,0.016546966903986427,-0.00014433873084270372,0.004231067136110365,0.026274623037126948,-0.004491502262934117,-0.0054873184141098,-0.0025040501653382386,0.006971215137650218,0.0005921479785266838,0.013480381981770262,0.0018551620605805257,-0.015506680538005295,-0.016178243122226276,-0.006121586595691185,0.012698773135521663,0.0059733508965733725,-0.015684315088829788,-0.022270095413790398,0.012013718840335384,-0.004621959600730404,-0.007234228076851311,0.008892399264562539,0.019283023124490227,0.0012951211442136271,-0.0022469765804863403,-0.0032521627260994716,-0.010812349522966605,-0.005822356111372714,-0.006910936542506857,-0.008573963875660328,0.006308610461613949,-0.016174754128571323,0.008780642889747352,-0.0020000720396651803,0.008649057902839336,-0.005313236886706608,0.01333622243375818,-0.007684136491724672,0.008364940737136537,-0.012945945853161932,-0.013915153355171414,0.0088086918270074,-0.015449550555755183,-0.003138196091997439,-0.007377821090121217,0.006345741201374797,-0.014650475712102288,0.018151635276393806,0.005792955553410137,0.017293384793712927,-0.010110403936957595,0.009776567186290497,0.004726310253386466,-0.015331079520940571,-0.004531082794468237,-0.017300097667140347,0.01280858009922996,0.002745252547605579,-0.009339917924110522,0.010791122821812963,0.010337224143608239,0.014398720314814555,-0.0031289316798594714,0.017201699528885374,0.003124322888975913,-0.012812240476492357,0.009626375581689323,0.015241111491796284,-0.0004988357692159846,0.012185237875783086,-0.01568961975445029,0.019600860564449898,-0.00006787279484977132,-0.008090676331109475,0.0025806537148840474,0.0003906197758383819,0.00056548431122657,0.005543335387288372,0.004591925993273397,-0.010938017911668122,0.0003668166914318908,-0.0007994119988739505,-0.007496115650415331,0.011368779766322666,0.007413613574365813,-0.010596555842668809,0.004751698397433979,-0.005086447997133202,-0.0018362357575381653,-0.009806444119845045,-0.005563772528155251,-0.009456490244443207,-0.004184138770562522,-0.003339810854174801,-0.016297640201175797,0.00343888095017774,0.0050160571030110285,-0.004769902953119538,0.0037268865552489996,-0.001168331120481611,-0.01333448010054508,0.004751592632607976,-0.014912512629711019,-0.0034480201614532696,-0.004968068473275244,-0.00836957238141235,0.003938258545306966,-0.01729781608437246,-0.0022484624531659814,0.005774484558043209,-0.0009276953753016185,0.003038681745113351,0.0027576865731255866,-0.008643473356816195,0.015328032338882434,-0.0231838493340612,-0.008198505317800168,0.0008439703048806137,0.01055137666139713,-0.0026220216623659746,0.006355463540446858,-0.0010898937691065252,0.010439251526587623,0.022695642656740077,-0.0014749013584015032,0.001594509082454109,0.005371560464178172,-0.007565763420113921,-0.006977313543974001,-0.01007841781762563,0.0017475603787233745,0.004143774351874628,0.016022933578793426,-0.005378880390991042,0.000468067640230617,-0.004099698337391634,0.00767078106986359,-0.0044158299041128,-0.0020128691012046957]}],"biases":[{"n":100,"d":1,"w":[0.000022675138831212753,-0.00002846463348903581,0.000054096194172700215,0.000053150446942396,-0.000011614690885699397,-0.00003824351976758473,0.000010334079550354898,-0.000011145544084557496,0.00009884416658581595,-0.000010364510975250724,0.000004053885693475253,0.00003797129467655458,0.000032948336180311565,-0.000002039248951539263,0.000028574892421105084,0.000030272919717707013,-0.000002032798832559257,-0.000022659269812817844,0.00003927959822248165,-0.00003801308884607184,-0.000008972422002984542,-0.0000052188203916432485,0.00003295494543406138,-0.0000212922471969631,0.00002995002958914743,-0.00013864970320427608,-0.000019517140882112342,-0.000008440876873718248,0.00006047865570592981,0.000007963858033147068,-0.00003277566548509918,0.000010017680003460629,-0.0000630641010978781,0.000007968088352621467,0.000024262923343666133,-0.000028395959579048892,0.00007137934421596794,-0.00003265550181342077,0.000013082772122381275,0.00006505525340866828,-0.0000018203556365956954,-0.000014871801092879021,-0.00001824693284864597,0.00002850076327983703,-0.000024724538173652963,-0.000015091108238354179,0.00006252165669307319,-0.00002044839101294841,-0.000024074590272151595,0.0000659253786351288,0.000035564581473913805,-0.000004179622617851294,0.0000011838410877004775,0.00003726473932201456,-0.000003144208832540102,0.00007538417570624446,0.000002038610649620707,-0.000019363170126290213,-0.00004126939497670228,-0.00008313547878378444,-0.000014643179456787399,0.000046349738546987225,-0.000012918203040253687,0.00001922965222743984,0.00002190503628359171,-0.000012454767944910914,-0.00003324307144650984,-0.000038254641687348246,0.00003462015288530242,-0.000014069124555012543,-0.0000141978547140538,-0.000020831127197834972,-0.00010892634050678026,0.00005436017572611465,0.000022514072360769898,0.00004594651328918295,-0.000055956570049500934,0.00005397432050689866,-0.000015153313548039199,0.00006417821400151227,0.000007678173134426416,0.00004950156710463529,0.00004802032777125076,-0.00008934569741295312,0.000060474530860611746,0.000022899394960496683,-0.00006887890098577824,0.00006982280014532879,0.000004330497596846925,0.00007015956697248923,-0.00007879175764396548,-0.00005478579441280183,-0.0000017465575567718504,0.000017081535808877428,-0.00001913892821304173,0.0000012015188935175118,-0.000002388487533029291,-0.00001622383970430892,6.139604143981787e-7,-0.00010819806388668461]},{"n":24,"d":1,"w":[-0.0014293983265832664,0.0007390046390727335,-0.0004755553157560056,-0.0012364209113824311,0.00013072695482733347,-0.00020841951955201358,-0.00014231612128076164,0.000015021882519592343,0.0011041643599905711,-0.000490942152779889,0.0005141680702118423,0.000017501336926038807,-0.00041941027565645035,-0.0013902646800074301,0.0007866857041488119,-0.00010850278821278027,-0.0012231173791053549,0.001243949901443048,-0.0002786478629438301,0.0005115187267279356,-0.0009310718273527517,-0.0019534640218111074,-0.0005181484776111754,0.00017885387938758782]}],"std":0.01}}