{"gamma":0.75,"epsilon":0.1,"alpha":0.01,"experienceAddEvery":25,"experienceSize":5000,"learningStepsPerIteration":10,"tdErrorClamp":1,"hiddenLayers":[100],"inputSize":3,"outputSize":24,"activation":"tanh","net":{"inputSize":3,"hiddenLayers":[100],"outputSize":24,"weights":[{"n":100,"d":3,"w":[0.012413948468651124,0.009351951432058081,0.0061148939165773675,-0.020284807505249698,0.004359916378152565,-0.006756215860578777,-0.014765628145190939,0.00434907283474637,-0.0038464746088818654,-0.012172806545317034,0.005908726682123122,-0.008308534000718334,0.0051049572811177404,0.011468099525195098,0.0036610878760238706,-0.01671492696730772,-0.004593101439645277,0.0031759282992404343,0.00401979008712595,-0.012178722466141266,0.0060236833707727104,-0.005302867869995151,-0.002800830535070449,-0.009067782020895173,0.016273038688703875,-0.00011365146579900322,0.000011387113575672726,-0.01752556607892042,0.010338443619310404,0.002509773061156702,0.006193371968289543,-0.0005376239520165489,-0.0027868186396121297,0.013093081518478654,-0.000026595448011607242,-0.0043196699211560975,-0.009901720929830627,0.004696716037097626,0.014368211810332801,0.011024154183390993,-0.012379766859139907,-0.0014859429691938082,-0.0036702865916174374,0.0010401977020517215,-0.007462137905341947,0.0184300785283839,-0.004991880655879579,-0.006841181391075732,-0.0021084415257544226,-0.007499417239020233,-0.009262766289887439,-0.01026093818100205,0.0004301425112881881,0.005659468551755483,-0.006084935844248115,0.0009764795951643727,-0.0024305287061654425,0.022062362841060983,-0.0045127555180022655,-0.02010780957932058,0.002398019684994148,0.008083771192752458,0.005487607951330565,0.01151652813308893,0.0001165839677440073,0.0005770949829807963,0.012728032441838967,-0.0051022382487769516,0.00026223277808917826,-0.006947917751599606,-0.0037940598497188025,-0.008681190862007391,-0.013488378273433486,0.013294422096535845,0.010654951689847229,0.006641260009260371,-0.005526457588354512,0.00924466098720655,-0.00978058549153942,0.003969198401674499,0.00014275058703382812,-0.002806604950616358,-0.0043385715594717305,0.0009410656091280952,0.006524634096901646,0.004562549447957696,-0.0002139772898909198,0.001984924264431282,-0.001142808228221166,-0.001392223409496719,-0.01051715364068471,-0.006144876549037112,0.0057683255454566125,-0.009438718100984426,0.001246319487639375,-0.001744961067133643,0.00782382612137948,-0.010215881586350848,0.013017557759417903,-0.0013616372973196255,0.00617126213484647,0.008033595935248466,-0.0029046640926945087,-0.00013202990575355506,-0.006008147871774821,-0.005740234561550895,0.0007867895346613298,-0.0044556869221339945,0.006565106647458928,-0.016878809014754394,-0.0013320310217156909,-0.004170344292780346,0.006303528174036901,0.008490402235645287,0.004961104140595531,0.010180192324421055,0.006446548920214871,-0.0014587382121741643,-0.009382852173401759,-0.011067245025091167,0.004508634787309644,-0.02960416236282626,-0.0013425501503310383,0.011900997503372852,-0.01161193493247716,0.004019483865404594,-0.019361430406403764,0.014715452730988654,-0.00036058845156780904,0.014076690632788727,-0.015228095731355489,0.016814486888654945,-0.0029271007606560184,-0.004678773506054165,0.011578279040789093,-0.0005069519317810924,0.0033637447317525254,-0.002355312720362883,0.004178933027229469,0.0020109336903650584,-0.004762711137237052,-0.00024167493990000008,-0.007072072230523221,-0.0009782899483939617,0.010815657788061166,0.0011717581339195876,-0.004626585137231935,-0.0026667551016938905,0.02198987857600015,-0.0033119271341790126,-0.009823192088897242,-0.01706667714396253,0.001861776229711963,0.0016057608389690081,-0.00031564595654194654,-0.001372260225764756,-0.0005811760072836362,-0.000994321702843109,0.007032037494472303,-0.011571120738394516,-0.005113137669512302,0.0009167852661808603,-0.004151505309264439,-0.0011647200340826054,0.013236187220686101,0.004211704548684499,-0.0026500859665334157,0.006941473639264215,0.0031437070771001678,-0.004319734731254107,0.0010951390405565284,0.005001136189452266,-0.014126874610452936,0.011505581025351047,-0.01640537577930651,-0.007928878218467543,0.005361890685436389,0.00310082987592363,-0.006310240670990425,0.007468662312695773,-0.011186938434291159,0.007319552892070768,-0.0028438649248332653,-0.003479349352697139,0.012136118623175955,0.00013620359901837667,0.007600775979297536,0.003207401915873871,-0.025162455411323257,0.024878892844062857,0.008218003209630493,-0.004428115659415229,0.0008150748812452528,0.00908045733125735,-0.006201231012802999,-0.006476881132527773,-0.004028730614797302,-0.00017421451656615252,-0.004990582578705163,-0.006077277582971167,0.0007872937743113122,0.010823068774641615,-0.004076782578904694,0.0023422272644385072,0.014459757275536124,-0.008956610024857448,-0.012128780279433364,-0.004027957884994256,0.006120715675864111,0.010176157855123791,-0.0009199307900604666,-0.00883577172993492,0.006676252526516499,-0.0015807144766691154,-0.0074135946972951625,0.007499028083837526,0.014144965262534387,0.008980477258852733,-0.006225815748370122,-0.018663679855474614,0.005878643091973675,0.01770365986817563,0.014384826071732465,-0.011080987804598862,-0.008301726061116442,0.005349030395709253,0.014904391467214872,0.00782072201163073,-0.0017164885270277434,-0.007056263699679766,-0.001675167194999601,-0.005782474891661055,-0.01958605476887988,0.01003033454343642,-0.005001265818634248,-0.0029193334747183095,-0.005730701192819361,-0.0031931422913273623,-0.008792878499347586,-0.0034547874076946363,0.017776281065232387,-0.013110132571135457,0.0026457389747722576,0.01505894053339637,0.0061842902206066365,0.005074689114953214,-0.004312255138308123,-0.005837952335925621,0.015945217624172205,-0.0025691253896619167,0.0011556909820632278,-0.0013814975967484913,-0.0007781259822544902,0.010914252256715228,0.01625517952949442,-0.001443302726266143,-0.000635831513823446,0.0026449408876976685,0.005130552343381377,-0.012692779779458551,-0.016706102212699008,0.002481656869364003,0.011076795552855302,0.015583543561931635,0.0038681543717322656,0.011043632909975358,0.0031780953337537817,-0.003482992708687883,-0.014384794868841453,0.007294595249263052,0.008708462693352428,0.011137117898379217,0.00926221088495693,0.0010406502011704565,0.00831121398347245,0.0016571153453087725,-0.002072155037508567,0.0008192425084341392,0.002512749536990968,-0.0008520671086731061,-0.009583505632655712,0.01959453125802345,0.004453933473557386,-0.02418192548153981,-0.002333719147059029,-0.017147373259903915,-0.004704571870085894,0.002394310246673518,0.006810184258627382,-0.017987861100697666,-0.0017059898863513688,-0.008368712578169433,0.0021145507669830463,0.001167558767930539,-0.0009611279419045682,0.02990200523046561,-0.004177821261309244,-0.002878164704400035,-0.006780029462642346,-0.0036457320767547944]},{"n":24,"d":100,"w":[-0.00896200311473684,0.003343759493075033,-0.021751776455194632,0.008234456525457866,0.004662989199413237,0.0029250317261217715,0.015351194799278706,0.007702856680059625,-0.021354283263769386,0.0044375978129321415,-0.000346592412379126,0.0035102858522361104,0.011439512930186147,-0.0017027615598047636,0.006493890850260277,0.0011933923475043356,0.008445854645570261,0.006642818976450214,-0.004426615303781809,-0.011502435236201916,-0.006234677762609242,0.006419976759643172,-0.0005476856736724466,-0.004757668905308761,-0.013275296961037691,-0.012005614964816873,-0.018533632679846715,-0.005108073542800396,-0.0008121304356932983,-0.0009137965535268247,0.0049047399350676734,0.018734724866694703,-0.008628773666495173,-0.0026780084430094095,0.005700220843506626,-0.00190804675081256,-0.02440180318554033,-0.019125436770309246,-0.014676173960640573,-0.011594093374081968,-0.01175725847960343,-0.01451056303361215,0.0018269030310873614,-0.007897920319359616,0.010731348289869947,0.00015001591872328173,-0.013037935860985055,-0.005627605676762873,-0.007563049700674667,-0.0015494520332295994,-0.005438486506793575,0.021924579970754553,0.0037337544997978057,-0.0009059411057517022,-0.006657211886565253,-0.004586878220685362,-0.010449075590976518,-0.01356477965162773,0.006540101394534757,-0.0012870335438244613,0.015028678365324092,-0.01060539537088951,-0.02971404870903934,-0.017192318164233743,-0.011420241038113418,-0.0017249620673024017,-0.0101314548060743,0.002054250684204476,-0.0020523033236497317,-0.003805858810024327,-0.021661296714518566,0.0028904255636269085,0.01823780428202946,0.0009288021008437908,0.013413648303175865,-0.01993016330496411,-0.011893343949154141,-0.018050566722328767,0.022397983835443995,-0.002259844721293392,-0.0013953619687571035,-0.025012949678806597,0.01974400912241422,-0.006431102302736239,-0.004808225758034115,0.009209779985665226,-0.0017723064634645375,-0.005800753666379165,-0.007765840756312292,-0.006555122830887911,-0.020887838086659487,0.014555478295079896,0.00031224894758622465,-0.004437112433734265,-0.002088433714765895,-0.01847914178883629,-0.0077581582747452554,-0.008862742896783904,0.00032107480567838086,-0.00414134450401117,0.008542518902384678,0.011194537264784372,-0.014989291246651822,0.01083460333085381,0.008306414542378623,0.013863871665299867,-0.01669392211711439,0.02015787752322844,-0.0071465907091481234,-0.006694132371792214,0.004265225744962105,0.008550155185959949,0.0043655017095652225,0.009991878643879449,0.0021777745972234373,-0.007365610642174768,0.011451278667911267,0.010023815603823096,0.010869015090970128,0.007219208857860671,0.006297022507687052,-0.013940090733525699,0.005139289059661463,-0.02137054758591662,0.012710378781376415,0.005189512554611579,0.011776053096778174,-0.008827761152245551,-0.0038779737109958063,-0.007309289110721053,-0.006928276796548542,-0.01188897699543166,-0.006128867041690325,-0.005252620336239742,-0.00036014801329350423,0.009985650908691126,-0.0034389050695562665,-0.007094830163619996,-0.002619988280383826,0.006667246295894947,-0.0162555137236299,0.012591946825845262,0.019778542922280488,0.009315902908980706,-0.002176181497687191,0.014498944911881707,-0.0008205323527958385,0.0050508072881128505,-0.006017537607707001,0.0033819015436643385,0.010565322743690653,0.0032552335259310745,0.017450704643853395,-0.0058231216671352564,0.005044476277635156,-0.011601279352813442,-0.010174569799983157,-0.002732204721649938,-0.005876771830954498,-0.01391331613553745,0.0057727772491839805,0.002557849710666733,-0.009893095357346931,-0.004245012944883721,-0.00779907589115193,-0.004341051912428103,-0.0060317072737426135,0.0009418158440787375,-0.004095353921994856,0.001059016800318247,-0.0058125006095182735,-0.0019970515535193533,0.006921717078454165,0.0006035468809534161,-0.009307476386942098,0.008756993433725902,-0.00881945604975864,0.01289456265492129,0.0008108949188325469,-0.013166420939417374,0.004803056122979747,-0.0010467407185463403,-0.007581529763530431,0.006014745141383097,-0.022420216657438253,-0.012981456195338765,0.005527634500229774,0.006687428585893708,0.00786331888448353,-0.021404874447315,-0.0055777635391657246,-0.006887496145749678,0.0034493703052840816,-0.014515889483482581,-0.0021315760439367037,-0.000775553249588721,0.01576681191961878,-0.007648900253678969,-0.001165806672139152,0.01651085633089524,-0.007753573731398855,0.015521925246350219,-0.0028959329263188397,-0.00922796877677621,-0.0012046552243446837,-0.005565774521242846,0.008530563578042709,0.0003116212951410832,0.0008081652141786948,-0.010190107823555093,0.00417695401624387,0.007354947182223065,0.0049019830352581605,0.0005663199111112817,-0.007676902426155223,0.0008874671043674466,-0.006025179141894571,0.0036178398028088557,-0.0049889995200633735,-0.008101517418735524,0.008985846014430147,-0.005645063615053431,0.011160818576040383,0.0017171950428528158,-0.005122201284825102,-0.003074793506612264,0.016660988717711243,0.010384246271346393,0.006598417610725811,-0.003936738618983293,0.010638692702359863,0.00018624608870899283,0.009122316611621812,-0.00433165776516854,-0.008203878821655308,0.0009768410516378843,0.01006553949429243,0.011629347289185583,0.012392963770875797,-0.003050753956506562,-0.002992623539226652,0.00789704691353062,0.0011965598602208599,0.006511364700068747,0.004766908867131118,0.014680683505755687,-0.013622857470928815,0.009702155734260285,-0.0035364110876002224,-0.00532724148078723,-0.011853109034307058,0.00910249103461386,-0.0028806800763065115,0.008079619019141447,-0.014271199264348099,-0.009330389670821344,-0.017842330888759545,-0.01609204683640426,-0.011341314786948995,-0.011165062070794563,0.013450568751514175,-0.01312678123193499,0.0005077869530699842,-0.011065052933979356,-0.01557058814319567,0.01424807531254482,-0.00949292532425532,0.007433353884417166,0.004643410318360378,0.004046041008812031,0.0179383000422346,-0.0024496775401438146,-0.016423184781716227,0.013149277527621683,-0.004058004274474421,-0.0024665924079728925,0.003046146817151016,-0.0017470055617745772,0.003820816213471698,-0.013872004393579192,-0.001144313029638862,0.011642577584821703,-0.002036097396636071,0.008322571609238216,-0.013753723463740848,-0.005451425756277423,0.0027077562937740237,0.004091200883277832,0.0014649530405433586,0.005093192842911233,0.004099008288589313,-0.003387817374929922,0.011764298393743485,-0.0015008702229713173,-0.0043604366799160675,0.012074494996803463,0.008094347161059523,0.006957951094727015,-0.002945580502187124,0.0056915976797783695,0.014250998363341526,-0.0044067236946535495,0.0240249618079044,0.0038222893062075563,-0.02417524824863622,0.005866987023812782,0.009882925166789281,-0.0018303018545978067,-0.004333424496367394,0.0017444474590355696,-0.0034418939029818426,-0.015210223736388105,-0.02036966399525757,-0.006408010737250228,-0.007021985545794651,-0.021392943445349148,-0.0029337613699911167,0.01001830352881447,0.0027878454068278585,0.006723021196339329,0.0012194006931343431,-0.0029212928215939732,0.02148282809540499,-0.0013058306181863775,0.013913326956845728,0.0025639870403907075,0.0009468795032129872,0.006451915744758987,-0.009062494312257247,0.0006435789059572752,0.00689854748608023,0.018054762982921562,0.021077373208381725,-0.010205308123668565,0.010228230241919501,0.0011066850535717293,0.004680729790935397,-0.022973206356579783,-0.0015506503314285448,-0.0010074753713287257,0.005225292440577695,0.005748326065437527,-0.017024909702068085,-0.006501152811567022,0.0014090838103268377,-0.007118379365773042,0.009903102364754186,0.009574681713663859,-0.00513638171118429,-0.029315849579095592,-0.016952759130976214,-0.009920548704631708,-0.0026802447426191494,0.0048091202031394975,-0.004558155198174905,-0.002373998566386717,0.020834402044901786,0.00244432288731685,0.006176617707975176,-0.012128218666267893,0.0032609184022769446,0.013565605421989606,0.025148135433526723,0.0038010744537223325,0.013935624206255263,-0.01926443764862834,-0.0008754052707296392,-0.009176671938585328,-0.0141774802389702,0.008487518388546729,-0.0022575259511104138,-0.007163334048139254,0.02459030373799641,0.011692616395191997,-0.0059909475123063214,-0.01149635888129991,-0.011035700210364036,0.009211808139136145,0.005781184673627012,-0.00047750998062932827,-0.010247243470917267,-0.01126040442834358,-0.018504206028705485,-0.009141981206301912,-0.002991974721286745,0.0025658148591169746,-0.014273447642160498,-0.0030426677628558074,0.009351788365138851,-0.0018076128404478254,0.003950925294446761,0.019375394628563577,-0.018734662267528998,-0.004389418072968759,-0.00395898502236351,0.0030128936242126577,-0.008263095703840167,-0.0068699173560075235,-0.008487024843467151,-0.017370123884103302,0.0065092839295035594,0.004973476529520952,0.020130638856181257,-0.008726919409762769,0.007522124146229693,0.019690711358938365,0.007186057733134766,0.003898587088390958,-0.0051788362564130315,-0.015309136047541872,0.007075951315316432,0.0051751812584810266,0.00014725770116077094,-0.01032381028488368,-0.011465938709146046,-0.012419275938219001,0.0036287533454705855,0.01919262687923905,-0.002128101247581505,0.0016622641962105102,0.0016783218829303204,0.007513283202236342,0.015223735142316196,-0.021084059460067275,0.0018094445715783193,-0.010390766389436435,-0.022474498363764948,0.0006204822594850565,-0.015847269407164563,0.014981166969126922,0.014939620701451566,0.02588441980459957,-0.004203972965864128,-0.014457873437116504,0.009425819014547978,-0.003683972208393995,-0.017257684474484412,-0.0012992897524653165,0.003904628096990812,0.0019496438557077564,-0.015798436155819526,-0.0012714578557036455,-0.0005940278200259082,-0.0032059563734271475,-0.0023200834987402432,0.005490837756893879,-0.008771030656512151,-0.01306125975364129,-0.006060218534933394,0.005223217839542357,-0.008129560589207035,-0.015616803050207321,-0.0015504644984052382,-0.001796565698980664,0.003914385465564583,-0.0008310264738079251,0.004220151318490134,-0.01428190340958072,0.004405423029065994,-0.01579425426221364,0.007017691531372888,0.0024488613523432103,0.0087203011405416,-0.007345119767621999,0.006432255382595634,0.014434067658535023,0.0002326239288838026,-0.0019448919322337835,0.00011855905249465512,0.0006466660284347939,0.0006133794072273224,0.010965418044848215,0.008286731137853227,-0.001000573508071881,0.0018306644465627994,-0.006515446370328976,0.02050467615653552,-0.00047241910434986026,-0.016488445136684557,-0.0019158091893771894,0.002008305830778034,-0.002599397096976868,0.01210030973302352,0.0103522100319524,-0.009784064362857878,-0.0004606409736596994,-0.01431135953366953,-0.01122789742602841,0.0008036429679090097,0.019080411579923108,0.021543753445469074,-0.01106806001242957,-0.022356500291432248,-0.0036696864908989067,0.0034368002183921254,-0.0033533233924690586,0.014391471543577627,0.014026193251265893,-0.010684660413941225,-0.003307031071739861,-0.00023305250819224626,0.005014418310454219,-0.0021020029212600144,-0.004034604581762028,0.01995030349352065,0.013685164044763857,0.007073910536119159,0.018047339044617753,0.00957661045749415,-0.0019943917624765796,-0.004944437413761363,0.00577452943825196,0.007624700466099663,0.003718104720310872,0.00265028957962503,0.011870421548404805,0.012034492493279224,-0.0032059508056908994,-0.0010992869011110446,-0.0016747798482503122,-0.01521903679784285,-0.00013101820331883055,0.012092700416349663,-0.0010699571143084233,0.0025251070657409153,-0.010218336932469931,0.014602337153648545,-0.0011054434751998883,-0.0033292850333829964,0.0139231596540155,-0.0007337039621901813,0.01094522819420614,0.0034194970682101533,0.00606958446191158,-0.004702440821400982,0.010960494557845583,-0.014115221260487747,-0.0029671959759210343,-0.012097125364308943,-0.012359824612220944,-0.018632585371524974,0.005515580453769424,0.003774662629265982,0.005842753313395108,0.011478006468032093,-0.012298319027129152,0.002704319563041563,-0.009266444562629731,-0.021188430116254174,-0.013140276577454452,0.005126131238020825,-0.003377853327783273,-0.0050943965093916055,0.00003848768507639153,-0.0006097446247091045,-0.00043646531692868867,0.013991577378547913,-0.0001246679719180307,0.009438180188264035,0.011207869852576312,0.006391190616323908,0.002470383007599333,-0.026122560322251017,0.000891216669214391,-0.015130544009462251,-0.0023457090101813077,-0.004350924448294149,-0.00037113258098061224,0.0020305685574601184,0.0006157199343206862,0.02379554058598555,0.016122598395316975,-0.0012623159179186484,-0.001406029244167601,0.005191359412318123,-0.004290808392253459,-0.008411252400271648,-0.00008811632102974151,0.007284667457217052,-0.009670775407319372,-0.022904717001627918,0.008763871102834948,0.0006945164392730729,-0.004403817455524406,0.012671840950282039,0.005710659167421404,0.008169181920789763,-0.005927112911028272,-0.003681109196462441,0.012245080432221802,0.007523910651888438,-0.004479252708397687,0.004874556648955207,-0.007900358793674032,0.003948696774783249,-0.0007717279443130592,0.0025640154291302177,0.002263401361787569,-0.013106826463448306,-0.008226200588114544,0.005305976335810158,-0.009915387376831909,-0.01658499617963726,0.0013276328074906714,-0.008696709585767237,0.012100196797346745,0.0013983566963516093,-0.013033385848948966,0.008745567534798611,0.007022715664228566,0.0007025363716490047,-0.004071696786502359,0.004341709273405244,0.015332696872624072,-0.0030618098264827004,0.013958073844268419,-0.020292818171988407,-0.010005632783854175,-0.007291254407528531,0.002347498718481901,-0.003700091085581047,0.00010539730759213375,-0.0019264595709155654,-0.006579571344203117,-0.010228446059663863,0.005887236357037488,0.003787407858219091,0.009516231382116089,-0.0009313960507940713,0.0032443531430172206,-0.004690344501070514,0.008199914193250573,0.012461674214587059,-0.02630623925598302,0.009564675812641088,0.005881425789962029,-0.0025735036610560758,-0.009513298412869341,0.01297245389074706,0.01613577672262043,0.005995043388021558,0.010908971891210801,-0.00806841126224568,0.0015922620439762802,-0.0020093548683155927,-0.003847618026150507,-0.011462190550200885,-0.005095291576015038,0.0004777592590327853,-0.010387641236636188,0.0023943435919427923,-0.008600945575401562,-0.00007899891123827987,-0.0142866063583821,0.010634063449651988,0.00942166382903872,0.01287507359464553,-0.008632205875141163,-0.0005295437357022802,0.00026168344745326343,-0.019863941952069506,0.007235608035404198,-0.011327708374363397,-0.010869120998807706,-0.0031175620002510526,0.0015262367219173196,-0.0010785642907581786,0.009760177476674715,0.0009715513574950325,0.004069425523379417,-0.006512775035503463,0.02889896410957334,0.020856506229835103,-0.00228218551626959,0.01374957686042777,-0.010108501558456225,0.004205971313330016,-0.00034884162134959137,0.0008175967778344145,0.0032889660312022165,-0.0046774754484771785,0.0017339494268217802,-0.014203868936348353,0.0038171628910250136,0.008988097402811828,-0.002343341207043592,0.0031472332792468784,0.0037332146993088143,0.01049921416653657,0.003192231054941701,-0.005145524960538277,-0.007764432676053486,-0.009276684352463978,0.010998375029750334,-0.0023784299184367243,-0.008012342927360683,-0.0024636884409969017,0.009164413348701841,-0.008717345952491285,0.007914594632561013,-0.0003679951014926457,-0.008943846842908984,0.011649445394149631,0.011194106501327772,-0.015714490310476028,-0.011690203945486317,0.005940524768560724,0.0019173997258064505,-0.010870498257690934,0.0034091661954929802,-0.0024552902522340264,0.004869015914905913,0.010532062552867967,-0.004125573571670136,0.0002928446187551529,-0.007877729053232958,0.0033527780888152666,0.002818816172699208,-0.016116240182065613,0.006827762733288248,0.01150389061000635,-0.009627721093562623,-0.003245599529421745,0.018108503068452464,-0.0008427439287408514,0.012561697240796017,0.0038150735401645875,-0.006221567513711235,0.010786797743572225,0.011088390690948576,0.0006101767306566487,0.012552713570619165,0.00008805261971883578,-0.0025804233020522167,0.009111640418432081,-0.009943233778782097,-0.02033221710207206,0.009617704916797174,0.003926119127107053,0.0040174984611454755,-0.005237412615134748,-0.008528657735914779,0.0038040131668173687,0.011278917134717919,0.014253529913662097,-0.0030161981162542275,0.002088723983806039,0.008763395916207188,0.01614471906940267,0.00027919429501239437,0.020814641901414126,0.0038204550221503947,-0.017320418440462795,0.01199813431277537,0.02202557088649159,0.002753964895955655,-0.0028002307505139365,-0.0013520305766026933,-0.010890352671816777,-0.018351701333967418,-0.004048552687795723,-0.0014381500530335624,-0.009966315486696712,-0.005596829255182104,0.0032814313551835965,0.015692689163533655,0.019829399395297383,0.0013420805870709737,0.00009108283959470102,0.015888581017523846,0.00477948560389453,0.0019543634271193527,-0.004129392027884293,0.014330864256863349,0.005283084984626169,0.011849040814254664,0.0009956516249177596,0.0020918882865591792,0.020581358437504225,0.0013120760140034886,-0.0049963739861720305,0.02166982182451474,0.0080281515890749,-0.01335504691388175,0.0008436351949630542,-0.015994893082744883,-0.007717602935879802,-0.0005355892430247859,-0.01561258428612755,-0.0339070256144501,0.0004260316730909115,-0.0061203120592650696,0.01111542234123507,-0.0015839056572335064,-0.00299319029097704,-0.012267385192160744,0.0092060795696024,-0.012390685086304238,-0.014585079765914095,0.0017740240023000696,0.0016630469687642364,-0.008876415731972084,0.007484260327196767,-0.011571981668423284,-0.006877748441537953,0.008016700517092728,-0.0041822834402739815,0.0007562498982080904,-0.01109354199280141,-0.0010958566831649995,-0.007575146023187111,-0.020270223148321775,-0.009899267438106771,0.010631862847181626,-0.0190663954342602,0.020318053625190378,-0.010199749376399564,0.01792559512799187,-0.005898325651279802,-0.006655008968707281,0.0075439701655765036,0.008498992596465138,0.015530096011630025,0.002168856955641007,0.004435520857067458,-0.010073360681492852,0.0032699522064234816,0.012262182745752364,-0.009042727610652975,-0.009247387116959242,0.001871898767054436,0.006872286151548086,0.017998421144062006,0.009931460079544874,-0.009019646491322541,0.002334012795919936,0.0028832274417930214,-0.013717565591209284,-0.006677629889135898,0.0011691369944568293,0.013777083429502852,-0.0094462322626828,-0.008250359477418357,0.01845468708894674,-0.002579421426658573,0.0019978330682821634,-0.00018552001359476087,-0.003794004650398973,-0.011187598529666344,-0.007847409041168927,0.014834087407277435,0.0011803824977909784,0.024731162775457276,-0.0036155842723668364,0.003907592352122795,0.007456553988889446,0.016963442252106442,0.0008804341837234053,-0.025859921308198686,-0.018350338194272644,0.000017829086341766983,-0.006888124372521,-0.005399767007840221,-0.01368527066129579,0.007974364444470076,0.005995315385873352,-0.002155826995131198,0.0040628797368705925,-0.006527916488228261,0.001999843631989181,0.021473883131472766,-0.0020451224625605466,0.007677308342437856,-0.011053264634040235,0.01083965871323185,-0.00545892166952505,0.02722740818595274,0.0028196448333176944,-0.0053070061930791754,0.010929775779854699,-0.002151879884987485,-0.004945592915189072,0.012722403966667843,-0.003462921506489341,0.0009578456795782484,-0.000027243475297599855,-0.0038545954674972685,-0.009155973893572639,-0.0020960987429908583,0.012919092904725912,-0.004910105867588583,-0.009442500193500777,0.012719786490431035,-0.00025992616779237906,-0.006828706085046062,0.018690489579785485,0.0010844036658214417,0.0012494867322859408,0.009549040707617563,0.014864293627825048,0.004378705873469723,-0.005005925736710726,0.010070289534939793,-0.01157396992882164,0.015810781371666312,-0.00829294565228296,-0.0034106087530179074,0.0032268818978284488,0.008163161558501336,-0.0016343495207005317,-0.003366676838583029,-0.005473572800632964,-0.002225555288509161,-0.006208742473862295,-0.0003730116406742135,0.0024919077402372663,-0.01733402407703052,0.019009316737440673,0.0014736272062965054,-0.006802932048413086,0.009033130523863711,-0.007844619692834051,0.003397328370295942,-0.011216635826010218,-0.00016892743488685117,-0.01356179982672436,-0.0055547744677686564,-0.011661761669701915,-0.005015158765350385,0.013298428283062857,-0.000405294826769001,-0.020172809778806845,0.006764828003280029,-0.005330414147497599,-0.011217159831629618,0.00435879839587948,-0.0025349876607387383,0.02409347310684826,-0.007762865715094399,-0.01281352892107828,-0.00007646884977021853,0.007414086371183531,-0.0003609605333417597,0.004639503414583116,0.010084966081616019,-0.00638577411276148,0.014489421975800703,-0.006431916963522724,-0.0026476025131239706,-0.0012711034331052272,-0.0018436142206203624,-0.005020254033998459,0.004841744857642729,-0.01715753741349152,0.0007829940267896894,0.0029574988760202874,-0.007147666754414025,0.02082637605327296,-0.01553969762951688,-0.0016263854333101442,-0.004961957806474853,-0.008034620239097508,0.004977352500336518,0.010461079633834329,-0.016101714035449886,-0.003815139952483698,-0.005513806206581172,0.0056861054293484295,0.0006604195423087794,-0.004780053603107881,0.01605917683298278,-0.0011525627435817149,0.004220250287036134,0.006196207124860417,-0.0003491439069899079,0.002565577857130064,0.009813178067023778,0.005593934874210807,-0.005373120052621217,0.004221290686166712,0.001809529125248699,0.0040557016934812526,-0.0006468343390514761,0.007464764682017836,0.00821014928843871,0.010496855392229505,-0.030877886744544836,-0.0005005611182901602,0.003423905605124717,-0.013036586677678309,0.005288591164268211,-0.005403949254784497,0.003685406499264986,0.008437863465367604,0.0024641469455656323,-0.008329541573509432,-0.007397605598516417,-0.010171980124413374,-0.01103359045091586,-0.0007202200357728721,0.019482183010731277,0.017299035770251363,-0.002305812907119857,0.0017995970293239291,-0.009363696300651146,-0.0014737989188615395,-0.00021394130016837357,-0.011835848006607084,0.004246211438808108,0.0030119562925450933,-0.007506586905383865,0.007007720916196204,0.026198684993602138,0.004459115583701543,0.021906806864983835,0.019991654873792786,0.008482900794358149,-0.00011413709730080009,-0.0005207404948699456,0.0012423688832218737,-0.00925990840722934,0.004005815652840887,0.007316703102580705,0.01043679290564795,-0.011493427899081775,-0.010341235192060231,0.0019510455321388692,0.007395181647712031,0.007378927383049298,-0.00816211925917809,0.002059896573081669,0.00855262810552441,-0.007395616130498499,-0.026272767684666933,0.0032534764816611597,0.0002874037782435838,-0.025768512089972294,0.012060604280051701,0.012994772231208925,0.005382212618427609,0.0024912063395102746,0.0020930734170074216,-0.0055290476347801395,-0.0033741447964184667,-0.0033618890261861234,-0.003226710935724502,-0.004310017819939772,0.009067566146694767,-0.01512220649393043,-0.0073886341956646414,-0.028569586123395746,0.010146967072649029,-0.010021786548960205,-0.012131547639841218,0.013036270051043191,-0.000601449353857121,0.0013039919017555194,-0.008760032608574482,-0.0011336667055526213,0.00042847615476198487,-0.0038238356606280634,-0.01430039590923196,0.012645842511063776,0.0033019926694550293,0.018467551246823182,0.015248796313079412,0.014082797009890445,0.0014776674141565847,-0.009424153188675415,0.00614581509033203,-0.0069292049920659056,0.005636504569298744,0.007150603700537239,0.01932229391067217,0.01059822519874868,-0.00622018569193969,0.003020230256228321,0.002029966113952869,-0.0024543299777081903,-0.006693822986465763,-0.00016234065578327555,-0.00038002356189067765,-0.003102071203504546,-0.0010284718853327277,-0.015162875254400581,0.0031012110488490394,0.009510264862209544,0.0013591284613016638,0.014943374629269918,-0.018474507374618834,-0.02444846426621907,0.0016658287507254144,0.0012784232468737518,-0.007076374740993505,0.01246376532482978,-0.018648184123612972,-0.006821227783954365,0.007118048572310837,-0.003222472425300835,-0.0012027988574229783,-0.024764529771110984,0.008199520330827848,0.0028022262462453255,0.020453275976868298,0.00031139071899325527,0.00783995612532175,-0.013263807567245512,-0.0006196239985994437,0.003957641350722137,0.0242919001757104,0.0066098693283267885,-0.006430209894315883,-0.0016361782584361632,-0.0012970655630681243,0.0045835521201668065,-0.00707119613481034,-0.006128596379172365,-0.0040121795543893385,-0.02046309096200964,0.0020248460654592937,-0.02460056211096156,0.0032278232652761733,-0.0072057177466434115,-0.007989537784365949,-0.018904660695356127,0.012788588872774525,-0.0015416913923352318,-0.0013532214558615444,0.006558798502843278,-0.017494376112693305,-0.00911850044330788,-0.010103082123971922,-0.009830516429585821,0.018962468165625548,-0.00008401975830838121,0.018171806435298365,-0.0017685016383861515,0.013136600977343052,-0.016895106937518296,0.012613744425630114,0.006834042626402391,-0.006519656671153758,-0.018882019220669618,0.008547219441379829,0.001128279092811765,0.007400887188211429,-0.013964936741536597,0.0044614131494434455,-0.0016484100306462422,0.0014161533423385064,-0.009376276386879889,-0.012851482830255632,-0.004335645736251737,0.008951721129385318,0.014297693797624432,0.0036934886636852166,-0.0062685586922274494,-0.00868173342278315,0.01585312837168749,0.0050463162328203675,-0.004923088861442536,0.004485755871526957,0.01615332501256923,-0.0038744496596985816,-0.009325361866867627,-0.0034431835624764593,-0.004597621552324585,-0.0006293904868289566,-0.005379395476744476,0.007190695991666764,-0.0019782275925530495,-0.00890502182532175,-0.00026438054865411247,0.00774602164817273,-0.001280917279080327,-0.010403245217097864,0.006598821023546861,-0.003897922749010661,-0.00046111302601142763,0.01027038947275432,-0.008923141295282232,0.00780502295952089,0.0027545021632607567,-0.0028286603744175054,-0.01732987772380784,0.0052236970571093435,0.009361419667357174,-0.0028952791388307704,0.009697860966022352,-0.0008308938751372823,-0.008118570661352093,0.017453902177267475,-0.010044672365661552,-0.002613271540685591,-0.00594810262036562,0.004536843790451306,0.012743274844318605,-0.003547855190786238,-0.00710011858847729,-0.014153345580897043,0.0023708285237440006,0.020891594262025196,0.008979894314617848,0.006450013097047569,0.012898746817920078,0.005986156239178265,-0.011489089602717231,0.007347305069663021,0.00441569808077882,-0.012860331832909066,0.0005803689610174516,-0.006856909652878985,-0.004946893627482571,-0.014898881668627689,0.0005685748701119075,-0.008657116704737117,0.000005670827866901412,-0.0007932181049144046,0.0003040602507607746,0.02869507033949211,-0.0021641190270170582,0.024799430296383276,-0.002170714799256555,0.009296995277340691,-0.016726172450426888,-0.007335195708230887,-0.003964633254995813,0.007137681824296368,0.01734544705256743,0.0039011686915212886,0.009386526013703551,0.00038536132273651115,0.01344228510703525,-0.003952718220022793,0.010626353831260604,-0.012493306244257634,-0.005585194386742054,-0.006966646303032131,-0.005515282775373437,0.01084778679042354,0.002033675027080495,0.010442849154525877,-0.012392414377380919,-0.004176285710241632,-0.011806914480169718,-0.005505025154057173,0.003609787094293917,-0.02245123184645823,-0.006068917475777176,-0.014759321299822326,0.009951513657860516,0.01380231431485766,0.00551792958923462,0.0017304924571487988,0.004254444888681815,0.020756210159173175,0.0001993599001744684,-0.0002942209893978431,0.007428064290794328,0.007103230364687478,-0.0017502672873117068,-0.00042866825452104166,0.017807867944794373,-0.009304564779549947,-0.0011894787145298857,0.008328558212045178,0.0023212619524715537,0.017899690676799272,-0.011019320581528791,-0.00491760528589632,-0.00584994265674995,-0.028660767592853877,-0.0009006928543624916,0.018762530317353813,0.0005787670538227728,0.0016764453368249008,0.0036391674469862306,-0.008104970056314132,-0.005652401237595715,0.011584032483307905,0.011273434024062392,0.007803120407614262,0.01296110801954292,-0.01010867748939071,-0.011253891248555572,0.009869047448694468,-0.009706870094137236,-0.008992297556902245,0.0018414140609064275,-0.014907947997933817,-0.016078195674125835,0.001817496363566278,-0.0022479081573190726,-0.0007811987663342613,-0.019064497337529313,-0.012676578206211911,0.018400515157103205,-0.013586573256631027,-0.0018391650335813508,0.00877228533306481,0.00558852149925001,0.004489173606739524,-0.019640663145801512,-0.018955239960660036,0.001608665895775619,-0.004111354828060975,-0.0008062248185360224,0.00009944204296688008,-0.011354629670950574,-0.003283880010551774,-0.01781771560836468,-0.0006897085564072153,0.011358323340290351,-0.010291710779320768,-0.0025701344987092626,-0.004210756098150611,-0.002489609259463135,-0.005964174356094536,0.00114389835136362,-0.006945738688869097,-0.0017390815372771613,0.001029348730374671,-0.004577263216136711,0.015223270286945919,0.0001509498769301434,0.0004892751920107992,-0.00695924966434144,0.007757065594960649,0.008648690502423789,0.014170812505277852,-0.004990801096171669,-0.01697536164270766,-0.0030123696486584416,0.01836390605638771,-0.004306495588140238,-0.014384290904912205,-0.018325766400627188,0.009581135682966318,-0.002872894070521992,0.0041302560712453305,-0.005621602362824309,-0.0010968452336983369,0.022789849846695426,-0.0024245231675562896,0.01109318755577057,0.008344036026937883,-0.007829762251941591,0.010035786940976095,-0.004453754963603415,-0.02332804459642889,0.01099305010037245,-0.016290944852159865,0.00228085120285763,0.0032620852245149497,-0.007691540573356232,0.011694518276426796,-0.006701481868293205,0.005102546397766284,-0.0017123194661837389,0.009706770995523153,0.017522756201216405,-0.0061303489994872385,-0.0118379045408886,-0.002967500782591747,0.0035945469456634257,0.004019462391638502,-0.008040149429133414,-0.014502291404166767,0.014688341080791648,0.006132734357995791,-0.012341911369011992,0.020950164329318236,0.015045892453830036,0.004781188122029766,0.002965274075050911,0.01772490487636052,-0.0139395052230001,-0.007704813423752735,-0.004468143002590485,-0.009214399376625569,-0.0007788624213814868,-0.009672800689139156,0.016432901361570367,-0.010629259531190208,0.021332270332983093,0.010710074991113436,-0.002682701684540962,0.013356836551781279,-0.0018973838703895843,0.008735933139534113,-0.005866810730301506,0.005226913052293043,0.0035061176014826397,0.004124443773618254,-0.00018948166841775924,-0.0004171119524097625,-0.0048162852974085665,-0.014208893634298541,0.003819868005397633,0.004488287188913892,0.005931219176160405,-0.02070176977900369,0.0013697156095709337,-0.005125607441728063,0.009759045802268896,-0.005794064817716142,-0.008689981807124752,-0.017857634669600293,0.0005753808688835985,-0.0008752771943596924,0.0028340380776178307,0.02282226078941999,0.025556988412710317,-0.004261206919941477,-0.010290513472128348,0.0038035280452720964,0.00030898401927066904,0.0007075219367308402,-0.00129038230869385,0.00018326385457004068,0.016633851564255887,0.015272556566285381,-0.018912453510311625,-0.009714471834509493,0.008000293273810638,0.0016818005515869896,-0.0016044413038733885,0.009563894846777837,-0.002565916170298941,0.004370282445040309,0.014790746780717026,0.006042788291974409,0.0007722956043933395,0.015418059795379278,0.008762673739322826,0.015387969602337168,0.012675487783022308,0.013324628372351308,0.007879364517622405,0.004676623320359995,0.0092293669838645,-0.02626922393160028,-0.004168045972407635,-0.00518155343427076,-0.004263284932613036,0.0030668828895319368,-0.012615407938726819,0.0020873662060990664,-0.006042037764179578,-0.009711239126807653,-0.01097324077285002,0.008394821756207635,-0.0017821272138249039,-0.006019211536543298,-0.009707970337052705,-0.012307897111853637,-0.00018574661730472655,-0.018214814864356832,0.015507161789636046,-0.014603292551266687,0.0025702092558774507,-0.016335425124385964,-0.0010505264490531076,0.004055128342585985,-0.02562521507681596,-0.012304889675283398,0.002052217823659261,0.006334471974762935,0.008350814746148117,0.011429300290750349,0.009589956418628389,0.023031381022762972,7.469535482772546e-7,0.0001603208533468124,-0.007091538577206734,-0.0009014939320664115,-0.003337514047782219,-0.00514842554188258,0.006270803673988395,-0.0028266387253170263,-0.011334549313792474,0.0076807295676574175,0.017602171961520786,-0.013534265871064101,-0.019237263193524364,0.012403295838810937,-0.00048634018864580854,-0.021264013403969936,0.007193717919013611,0.023049086276286823,0.005693789670017253,0.00039131925439092624,-0.001823404557794696,0.00808131613419115,-0.006377842277867759,0.003986985779061966,0.0012079890323521524,0.0035049660771221103,0.005482952637821464,0.005333136191583943,-0.0044969404804553696,-0.0005297966683298718,0.005864569622541463,-0.0039898049409695015,0.007385388709101779,-0.008312372104986528,0.0031594471827427173,-0.016967323083700615,-0.007292560598318804,0.013588539611936089,0.0022361489427317246,-0.01634165730308016,-0.0039815571361114755,0.0008743089209540128,-0.002285738996124274,-0.015433703334697492,-0.00143160168606735,-0.0018000495896113692,-0.004682991247329631,-0.002284725439407511,-0.011241726292085008,0.0018763924897916046,-0.0004966484007674994,0.011369769124351769,0.01414576018286171,0.003914126493664255,0.021251868995911912,-0.021488736285505797,0.0031727689901994214,-0.0036052590264456412,-0.00668870195263038,-0.0053028253991519335,0.010002219725849162,0.0052665714680180786,0.014906498474734143,-0.015141187599489575,-0.02821906275200337,0.010811020154148664,0.02377078901319664,0.0028274346970128075,0.0034891408888636385,-0.0065276806859668945,0.004174595213098568,-0.013365685572755023,0.012939269027391969,0.006658830495786578,-0.015494572539947103,-0.0021013936033282363,0.010710664135552519,-0.004245131681299406,0.008561630768627367,0.015515995939295191,0.0037250953307051858,-0.027035636967709335,0.006008638147185767,0.011685163093241097,-0.006208674952753394,0.011487620447207027,-0.010984334112691613,-0.0014459231710538373,-0.005895997315014086,-0.009381338054627967,-0.013405020414927124,-0.01229548017455477,-0.003730575820474517,0.0017131701732474509,-0.008184216552617635,0.004379180798435414,0.0083925961781453,0.00594368082444333,-0.0026570974127517895,-0.0008697557735516371,0.004134045539611675,-0.0003788708056056016,0.017875676047460456,0.0005205353794755838,0.01296542964096257,0.001789171169827668,0.0025065907058345925,-0.0014516812986332945,-0.0032919554883087724,0.011100227626647549,-0.016799590321996006,-0.0050938504084856295,0.00444004031752104,-0.003446891957824601,-0.007992954330448289,-0.01230121019490677,-0.00787058817258291,-0.00863889610370907,0.00858608037023987,-0.00988171084727145,0.0016758267075777844,0.018554134927081058,0.003619462924794442,-0.0011055428396309845,0.008282753813803327,-0.006750624595706747,-0.00785312210292221,-0.02248656600720462,-0.0009656338310278805,0.010338364905301963,-0.0020728943206983056,0.008202472389734709,0.004049881950214471,0.014470500075617175,0.005409709714880533,-0.003632526413904217,0.0004326909471036794,0.010264042040311646,-0.0035705316855083285,-0.0053467076552393975,0.004383194402551229,-0.010030018194394492,-0.0004175834818613403,0.00045795633641408613,-0.0008684657949651946,-0.006876643940612511,-0.005207423864455864,0.007625519560141965,-0.015480187465053129,0.00007318212210117091,0.00818123579167459,0.00870301321927489,-0.003128290678219252,-0.016789954642349166,-0.012677190243242861,-0.005451711473565715,-0.015750086651530364,0.014353728131682321,-0.003967267005828124,-0.0063121573439415555,0.0009283065228040413,0.014728633311823572,-0.012858184256192607,0.005154063305023672,0.011451488112973642,-0.004208531329201699,-0.01358903971673113,0.008691567263203191,0.0033183030490238573,-0.0009651315832345444,-0.00714428242123915,0.004595723278148919,0.013158008389331162,0.01103444481749366,-0.01104385290736109,0.0037296713833423764,0.023015125863594894,0.006851817181274078,-0.004769516859156223,0.010377965618440923,0.02083634251199949,0.0018240407583079415,-0.0010540979159332675,-0.007370663160897569,0.02041322846034461,0.00281035410556049,-0.012991209319774145,0.004014200410837897,0.021458959628675132,0.010627986389202688,0.01025448827674476,0.016729734872059417,-0.001447768380126343,-0.0047001895630687405,-0.016017504157011777,-0.016303720347813175,-0.005718643897281262,0.005688009376381274,0.008484041772554952,0.0011251701955057604,-0.012256702481892801,0.006485378890922539,-0.0043645143208217016,-0.005161727689605299,0.004854442014787498,0.0004937487193460786,-0.011311029614556151,0.014774769780594646,0.013686829770799542,0.011734246858668064,-0.006943749354259706,0.0015825841513114453,0.015224995076996475,-0.0005259930799133275,-0.007270352438999192,0.005208106590919865,-0.003368357598147572,-0.006129979815706016,-0.02025607119313737,0.005006048363754318,0.0034120406896471465,-0.0033413171381799288,-0.007790238513919077,-0.005742156407434641,0.004839176536614129,0.008583267370293062,0.008342029721942668,-0.0030722221119888426,-0.00950519636070795,0.00798356958807723,-0.004490874487346348,-0.019177032020830525,0.0015388666836626235,-0.002927961510895621,-0.000833656890049849,-0.00864321003690767,0.01492854137185394,0.008282636505729857,0.008329256708611038,-0.009836310990193931,0.008268110692811869,-0.011208138111582368,0.005535848312780981,-0.010600076724715088,0.0033834823536785935,-0.00849730484353311,-0.002103409052874161,-0.004295683035315504,0.0015907956578661544,0.018815706803081093,0.00658385120896808,-0.008128552513556363,0.002452088251223518,0.007587643837587743,-0.00018567746584457914,0.006518268428008036,-0.013361346123937625,-0.008652353750958321,0.009017416629021158,-0.0014356550603478351,-0.010452064300574514,0.0036968286563109818,-0.0038728466891074387,-0.010780995233128041,0.001413837389618923,0.01512629311985533,-0.0019326784656725849,0.0047077076105656755,-0.011190568427009785,0.011945001660261141,-0.003679809209548574,-0.0093653411786898,-0.01764862620197054,-0.01027112760224581,-0.018175556147320547,0.017484886160586043,-0.0038981470677975395,-0.009764288042256188,-0.005885100805536901,0.0017805542765283373,-0.005174051362479118,-0.0017429993319141442,0.008492972884963703,0.004544509274689906,0.005147139382984001,-0.004430772342340052,0.009824504764972682,-0.0017422744549434198,-0.017241287201096182,0.008590510143408966,0.010689676085450356,-0.016316855903848255,0.012902201084364672,-0.003736853338720022,-0.0013044444474144103,-0.0002141059890165291,0.004159040291264686,0.013288048015990147,0.001239679041366557,-0.015504079001902836,0.009342526197448305,0.014638049854750328,-0.011218640152491037,-0.0021103720067475705,-0.009315686437451995,-0.014098528982567917,-0.004602368649992596,-0.021812066271198645,-0.010086404643468274,-0.011954926006262724,-0.004641187097836726,-0.01803027054097201,0.012119250771793554,0.0026629448311272772,0.001081740748181754,-0.009152953983630857,0.013251921294294528,0.0012235797271311852,0.017663990939738965,0.009474293805945416,-0.013141676262936244,-0.009425614974991814,-0.005727326941785559,-0.0144066039855097,-0.0004946380234575232,-0.0023957546719499743,-0.013394562083459806,0.001041809428545128,-0.013039506117587637,-0.027494418605957638,-0.003411283353608555,0.008942404691449156,0.011106286612050516,0.002783315469872932,-0.012147171130321705,0.0129448248000005,0.0005596428650327279,0.010569141537554184,0.001525745682552192,-0.018708234143149097,0.013536091848252088,-0.018928864374998362,0.0011740577422504144,-0.006257813582271212,0.0061436602554206235,0.03960113543241528,0.0007460765271619938,-0.00983815997644441,0.01251428096574797,0.0008064582881708213,-0.011150750254331746,-0.007372008446183087,-0.01227804084326869,0.0007373055918529288,-0.002548511495552764,0.011644984766047447,0.0022225790315232564,-0.003665432064494078,-0.0024954915172243322,0.0004947599598191574,-0.004940992146800847,-0.008879555173981814,0.017100897445318015,-0.0026559316276564713,0.019533103420031804,-0.0022768071239101834,-0.006310960732171062,0.009409511380209006,0.016768825985887942,0.012407659087714313,-0.01044752624327261,-0.0023795934440987657,0.00023893663751655938,-0.015644760989864857,0.006005265895084182,-0.01767525307887879,-0.021346490699383977,-0.010354653922840927,0.00792075128863603,-0.0067188461832011406,-0.014997988853834769,-0.00562807544597532,0.008832168769726052,-0.008487351037964962,-0.010621330268888056,0.008534533950782665,0.01618295340274095,0.010215275587203546,0.021352054305697196,-0.01346052495078103,0.013059340442483826,0.006233695195913042,0.026318139795620768,0.012336977299716272,0.01107909958379997,0.007146528910891222,0.007757411841637871,0.018114746498191007,-0.021334816740510798,0.012824437538326976,0.0021021400541003095,-0.003184529687221904,0.001505657354390448,0.006931844998582735,0.00010261479973384733,0.0027048689141570864,0.0009662356088270646,-0.008671466581481787,0.00039656300067459954,0.017785744821605522,0.011684400613910328,0.009179561715455633,-0.004717957797100065,0.0009673880981956113,-0.004839967032218995,0.006465800374582209,0.018810797968342854,0.00990585387475035,0.011146547037623366,-0.0016345061465559746,-0.003373548062041775,0.0008615546032415941,-0.011421589655629947,-0.016897532629696305,-0.007301006808805138,-0.010369037922264476,-0.006469194946392442,0.0007001030790278855,0.011645701544669358,-0.012185402021252798,-0.007068010279646408,-0.005602932207100074,-0.0014565104267653148,0.022799692143918887,-0.0021073168309823933,-0.005059684680541119,-0.01527689692027495,0.002053648625781725,-0.001814789663281526,0.007617695233576867,0.0058115201724018946,-0.01160544353881947,-0.005317431608322834,0.00728646855415175,0.009590332369285795,-0.0051451917909235406,-0.0021034060493789245,-0.0019964019960874544,0.0034448412150111974,-0.0001029962196086711,-0.015108544420944696,-0.0041873937354858426,0.0001685231196641999,-0.008769443347882327,-0.0070740026737391715,-0.00022105719026987175,0.020340914684976168,-0.010238291910978812,0.008977396730425163,-0.006395008852982907,-0.009146564649285547,0.0023572081948985447,-0.004941061136173187,0.015895286532551317,-0.007429119320008093,0.0018821904096274536,0.011076078816623553,-0.006841089288095085,-0.00010285366266159058,-0.02041396978717584,0.007172949607880127,0.0040003077354757955,0.002460986079420049,-0.007008157039104611,-0.011370810603530027,0.0061016262326755895,0.00032817664938548496,0.018714252146915397,0.009909255595807909,-0.008609812025214004,-0.008927140782850944,-0.002562016802531162,0.007337301470537559,0.010567144649902053,0.009650496459426719,0.0046492822145042054,-0.019034625747070932,-0.004128495559866233,-0.000006225576841459183,0.017005991897637178,0.0004588349262045355,-0.0022555987270102486,0.00048031195840354677,-0.014785759311407794,0.0013458249646861804,0.008251275928491062,0.002364629419353259,0.007157946288650779,0.0038264648225978053,-0.004859464733297044,-0.004366784885298173,0.002697597236310888,-0.019905540794225053,-0.01254006632837651,0.01116312128495914,-0.01028974734185228,0.009116740401954582,-0.004631057198952043,-0.0026873956461181524,-0.009551362236769707,0.0007091847040246186,-0.013337589145499719,-0.011359638553360779,-0.0007028502491881685,-0.010520120381421671,0.01590375661614471,0.013726207800707178,-0.0024997143937838403,0.003924840865272874,-0.011537043240612355,-0.009206999681113798,-0.00010707851858592398,0.0037086638464452837,0.01415672809221375,0.005012772486622718,0.006519951493727221,-0.012219540929278608,0.016693186732371957,-0.010012344308816475,0.009519766879105579,0.027021768265845094,0.008217751034534142,0.0027346849650148755,0.008624550717987763,0.00458771184979402,0.002255630328184643,-0.019722916040148714,-0.004730843328493919,0.003105796985831589,0.010428657074833921,-0.002972724942972356,-0.004655070889227476,-0.014510873859473595,0.003506178245218395,0.01129205655688461,-0.005311075876230983,0.007042100319070372,-0.018069944982277368,0.005674157308064138,0.015522653757904443,0.009114898783060314,-0.0005986705472151744,-0.007228314551550829,0.011735189591027708,0.01219000271863008,-0.019790658419824147,0.00268416428617678,-0.013016832789738583,-0.01823276406619368,-0.0022896277627017,0.002903808943515228,-0.001161061827862124,-0.0038762698762589078,0.002374847731215148,0.0040843986264517676,0.0019952580630363953,0.0005977062568051787,0.005594284688319402,-0.00017182396816821044,-0.00022854247980263687,-0.011138313023660619,0.008604257107459727,0.003914998369445322,0.010434640117465182,-0.0020420802184741393,-0.003752886875621674,0.011907064896719612,-0.002061971665593079,0.025272832241068365,-0.018381831079073662,-0.013991824629548713,-0.013065865944641207,-0.0129619295260906,-0.00851418630613166,-0.012760913333790203,-0.004042927678610538,-0.0069283311142293545,0.01702826350387402,0.00468146834637817,0.0066154445461332504,0.004590763755582643,-0.0011403501825598139,0.005127668555969267,0.004852390904758136,-0.004021451491525506,0.02735057307978557,-0.002709024965396313,0.005496978189141741,-0.003616357513434102,-0.009171601813467354,-0.00791899914568291,-0.003502102385566079,-0.0023132821214508735,0.017343191902547683,-0.005743947426887547,-0.00931904619451254,0.005767553855930351,0.007994718151510628,-0.01259480714946538,-0.012411733947040692,-0.0037016448363873192,0.0021782776664903453,-0.013990409891445421,-0.0025555943172192014,0.002281557692495998,-0.017294874844566228,-0.015201133553758805,0.0024528236622777424,0.011189358866231304,-0.0008638089982959305,-0.007658380541786374,0.00871645289765475,-0.013529729779508408,0.014403595105517553,-0.004940242240126408,-0.012277256186578494,-0.00423562496175984,-0.008075401957501272,0.008976693959584964,-0.006630121795720813,0.009473386025859561,0.020042895627913455,0.006140665181938,-0.01048493490457735,0.009514471145085511,0.014012724563176916,0.00341679091305552,-0.011087959339882757,-0.0020330365199505685,-0.01102235435153314,0.0015129770669729892,0.003228211114266242,-0.0007321832411345577,-0.027327917362115123,-0.0016577475717072317,0.024866014339287302,-0.01774306424969011,-0.0024537827855091628,-0.008529207914126478,0.008720409305358457,-0.005016465925426351,0.005183554613323394,0.006160240979203844,0.0078116756584656975,-0.012576189132205965,0.005074547087309115,0.009004626541188245,0.003392845515205226,0.002694440486211227,0.0015096538122950616,-0.018374972048919132,0.009805072098867022,-0.018150146844774187,-0.017243298620719785,-0.008712313742397984,0.014948795993807875,-0.013942872291586137,-0.00015284842210728017,-0.008127277886803348,-0.0035357300903089642,0.004221702867655643,0.007829799038519525,-0.004534078738026041,-0.0006682156165017088,0.015589744198160317,-0.014288942201402059,-0.003656665091306574,-0.0012470036024162868,0.0013280755812674545,-0.008169646078279311,0.009603766307085818,-0.014049817640404395,0.009826130266987955,0.0018190430755613914,-0.0026378415007873852,0.005236002538742306,-0.00966674180215294,0.0024368900866497717,0.008372440317320576,0.019704836227465876,-0.0003898541627127671,-0.010816241015711603,-0.009419557858264573,-0.01782298270101399,-0.005424165825840898,-0.0031063112750222294,-0.01622097117266954,-0.012271851616970067,0.024785815901321524,-0.009305497141082131,-0.010574987292111926,0.015163646087004093,0.010025492484255345,0.010674593701636299,0.01138340952777472,0.004986390375222082,0.006079807083125419,0.016840473773522293,0.006856287097528993,-0.006282460400574803,-0.008158545929948953,-0.010897591903618086,0.0001457470576050225,-0.00900385022898735,0.0044408687329559595,-0.0010275112803070393,0.005219080396275942,0.0014350219638298873,-0.0008189257701555114,0.003718994065273854,0.004609352276165192,-0.00467722001489455,-0.010905108352798077,0.004051813942212969,-0.0008417160201296273,-0.012179304781186465,0.002854168810881376,-0.006021299351777251,-0.006871543664619171,0.0056093902284592686,-0.0001483744861199547,-0.0020172606777016607,-0.015010787585948837,-0.0007575640694275096,-0.007824883548076884,0.016845028137986665,-0.0006683710171637721,0.0157161400653736,-0.000088273337194376,-0.006464812712620169,-0.010109631155633719,-0.01012441890372124,0.013209667829678702,-0.005807710562004476,-0.004737228948473234,0.014377395895065731,0.006042118573537245,-0.004167600379121323,-0.020760013167233776,0.004443508110114638,-0.008960038875207327,-0.017827275454321084,-0.006058265855732688,-0.011843710432663376,0.004129611309434179,0.0191546227773675,-0.008904167519519854,-0.013434265499714706,0.006125040848230528,-0.004393185217714476,-0.00022987775812350665,0.00822740748434046,0.009819683057945564,-0.005880750081183836,-0.001843909502857361,-0.0021252819002815673,-0.006829391616147841,0.0011198896908517463,-0.011127348821093288,0.00045972354388533655,0.008825567689612462,-0.00922196514556554,0.007698261419053204,-0.005734117509302786,0.018693036533551706,-0.022951040941600415,0.006682906473169476,-0.006037205660928332,0.010194414553932241,-0.01795296635744589,-0.0056820095039658396,-0.010023772049441165,0.01136423999611024,-0.004515832077773705,-0.00759353028395998,-0.004050808648392132,0.017542758345909622,-0.002197321132467771,0.007813728222186553,-0.003862307404343821,-0.012613191604403348,0.006342913412561083,0.0037925803092754553,-0.009445178911303226,-0.005136230396405017,-0.007238578766896464,-0.012477506377919594,0.009197791542003354,0.004416202773263742,-0.0016582507542231989,0.01431910210611027,-0.0020118871437716473,0.00022045644286049085,0.006090197289894372,0.006547446054537075,-0.018348495200531036,0.002251359024013423,0.0025375127416407753,-0.014112185175989405,-0.007711812927333416,0.0037081406691187803,0.0020336322989550227,0.0017290232753334417,-0.014126668873764995,-0.0020953629239276864,-0.015834668088201193,-0.0034423768022710786,-0.004369173464505226,-0.00035264557628014574,-0.0055935181471334,0.005865850358916914,0.0022041226017180163,0.003288237799368149,-0.009236267995514904,-0.01304854092724257,0.0037534413238929165,0.007365808217658274,-0.013187122264444946,-0.003942394471169727,0.010944952256622845,-0.01806436320613948,-0.009249079347276444,-0.0018354468976634352,-0.008626419640520739,0.0060359233234557755,0.006080960185228214,0.0012279917224096327,0.0033297112189379216,0.009395153172534152,0.025988472960613233,0.0013007246896758215,-0.0007284821293304896,-0.003794512560132985,0.007159304081034598,-0.015352461843905112,0.014019013916322817,0.009716312001466963,0.006682514094155614,-0.00838095263040122,-0.004228663264019664,0.013732703830422138,0.015139619581338649,0.0004547973574996877,0.004057585568807824,0.013277642284165135,0.004293511018860393,-0.011913477620489292,-0.010787817627545559,0.003664356144100234,0.005862564803891971,0.0009062419037435309,0.008153511209573831,0.004705723483256509,-0.017893590846334222,0.010262894007473745,-0.0028624252068931814,-0.00362345738599601,0.006230229560982589,-0.002451859853873547,0.005274440831645008,-0.00014133134115587776,-0.001456916622696967,0.023862019407469272,-0.01697879645954376,0.009238660905529696,-0.0057333438226206,-0.008148972735098665,0.007009019544820586,0.00886817038719381,0.018751795007280303,0.0068837977583765374,-0.002368484063278425,0.001955286241808046,-0.01761225875341855,-0.00016862620639336,-0.0028694908733727644,0.012264721469137202,-0.003496371939016498,-0.007440885382657225,-0.011784684494515309,0.001038523715996963,0.00201981861738084,-0.000757887605011297,0.0017069080399730353,-0.0005030355750069874,0.0053593730754558895,-0.003682055284700383,-0.010297366584150867,-0.008287728914513784,0.0027870387085525243,0.008752131569300488,-0.00994008747120397,-0.009225008621532658,-0.007483674684236852,-0.008695283349439857,-0.0005021962532741958,-0.006158293793715131,0.007106237177342168,-0.006945617328585228,-0.00602199323081691,-0.004087332320069345,-0.003244300695459489,-0.0014169721101175922,-0.01485425313347451,0.015591820157203605,-0.0020192696822561207,-0.0011668237226404548,-0.01193357694312056,0.001606860558358348,-0.00830628622259781,-0.015328988725637236,-0.007026993269141447,-0.004245902618077176,-0.007687497507047678,0.0050293315276159975,0.013657904617430256,0.01448026639374851,-0.0030279527143600915]}],"biases":[{"n":100,"d":1,"w":[0.0006701309616789706,-0.0005793661221178217,-0.0017634393184243547,-0.0004123320776607768,-0.0002187239573081861,-0.0005696873794983631,-0.0003903584264418757,-0.00008076063426023599,0.001350624940788476,0.0003245194037216502,-0.00018889112517939035,-0.0007299366720580077,0.00011760044675530891,0.0003056332817566005,0.0010676833588223033,-0.00026231026098835086,-0.0006594737019035541,0.00033467823518541935,-0.0004818883302227477,0.0013724069570075672,-0.0003908062920751342,-0.0010983995228263026,-0.0006482655943919698,0.00004756740016639353,0.0004968042743845996,-0.0009000847269243779,-0.000856071458249076,0.0013922286012811008,-0.00017366212712369709,0.000893489112493819,0.0012654258956564762,0.00027961973933528147,-0.00031957513837396393,0.000030397065066636643,0.00032227880069408905,-0.00006771624178314307,-0.0002850756481520463,-0.00026243129196710504,-0.00006195850220785829,-0.0003720852919142646,-0.00006759026793939141,-0.00007357808574363358,0.0007959962302246358,-0.0007389208062987542,-0.00043285722597142536,-0.0006532339774042212,0.00016137623296211804,0.00025910730041743123,-0.0008178112180758965,0.0002604458181392353,-0.0018995004496794785,0.0013058333957337018,0.0009181809496138906,0.0010170052956823613,0.0008037432690571433,0.0005107372984368929,0.0008875799881741041,0.00009742540902540428,0.000481211539225156,-0.0012892473908765226,-0.00021816428788055427,-0.0003992447306643775,-0.00012960537932559814,0.00010976398263190872,-0.0002653850471341938,-0.0003204348921323141,0.0002956139383970715,-0.001975148762047449,0.00018097578424235624,-0.00041407084080202316,0.0002024725865426445,0.0005141683880051866,0.0005216997281801072,0.00018292914632847334,0.00015021656657855442,-0.0012497143912456707,0.0004012765145126047,0.0005694744080246706,-0.0003562767099751184,-0.0005758654372305953,0.0008395321753419694,0.0008752834166023386,0.00018275835880302818,-0.00010167365870625298,0.000819421256333952,0.00015671707963307413,-0.0000644236886793818,0.0011429536990088557,0.0010628671199831585,-0.00019698382701402643,-0.0008238107745671281,0.00011864260609950117,0.0005503900271032157,-0.0008038166667387733,0.0008894159004750812,-0.0009649502304404703,0.0003319861550820019,0.0008975463843602211,0.0004203368250318826,0.0005682765888900996]},{"n":24,"d":1,"w":[0.00013826914124298,0.00020679374909039977,0.0008090845231769404,0.0005956823070563727,0.0007009308727183823,0.00017438471695672576,-0.0015645246194646073,-0.00003523874478861904,0.0001605325656873186,-0.0025145515459375173,0.00005914298130321211,0.000248586914353419,0.00014256034827166538,-0.00183539960442054,-0.00008733478371587314,-0.0009697367597765701,0.000052657625822449406,-0.000800982808026868,0.00010980062055465092,-0.0004949089640458264,-0.0701758322097826,-0.00035653420050360416,-0.0002131874691216177,-0.0018767361966736812]}],"std":0.01}}