{"gamma":0.75,"epsilon":0.1,"alpha":0.01,"experienceAddEvery":25,"experienceSize":5000,"learningStepsPerIteration":10,"tdErrorClamp":1,"hiddenLayers":[16,16],"inputSize":22,"outputSize":10,"activation":"tanh","net":{"inputSize":22,"hiddenLayers":[16,16],"outputSize":10,"weights":[{"n":16,"d":22,"w":[-0.5298840703139224,0.003993459923817912,-0.38204516886049794,0.6074837404707889,0.448277539029645,0.7204748635348773,0.9536364575807577,-0.17852984425621207,-0.20326452722985947,-0.12485927390635403,0.06370192735263902,0.12437163480206055,-0.06709763473477637,-0.30015567575943525,0.17868516597318185,1.140145852912069,-1.0280069840787747,-0.35039745847225556,-1.4796012212397256,-0.6353970181131576,0.2231302947267351,0.5507839995671756,0.2650787253841227,-0.1354833090655397,0.6173583645011523,-0.08984096694139518,-0.47944200879726184,0.10596518745037949,0.1351907051606156,-0.1344709888868586,0.22774510538973008,0.5680193811331359,0.33363095519675934,-1.0343033531241759,0.34890580397535964,-0.025485586222097987,0.03039649952655429,-0.16385277823072628,-0.16608602709924192,0.10941482615162533,0.32596485376319384,-0.1002423144031957,0.013651369450773528,-0.0301365508512269,0.42663598457301316,-1.2843255567115943,-0.9257797150637468,-0.12681030570357923,0.1645891666773954,1.214856662289227,1.9489374132966912,-1.1802205841312747,0.5793879894593383,-0.19530698572819594,0.8965238925194325,-0.8576237416345325,-0.019311237310639065,0.7109031181487535,0.4082833757338462,-0.13673110663480884,0.6088482534857911,0.2457818354313899,0.5622174335842725,0.5347470486894331,0.11951386526942338,0.33442293137649776,0.1929741244556982,0.19272891100932452,-0.4192370342465445,0.3637893840510369,-0.2325479346492087,0.4997419479430013,-0.40552616309151435,0.4349541274960673,-0.03576052659877811,0.12465308601522761,0.026266357226084204,0.06970732624680515,0.9427460083249527,-0.10057112910608734,-0.13720692579590915,0.5763347601160212,0.020249995754646703,-0.16603796360829207,0.24780185579588349,-0.04370341555963154,-0.032739664480184706,0.10409617407048966,0.6387188930304204,0.03448544680632302,0.19964822969146903,0.3642642955033272,0.9522948823918973,-0.4710295992140333,0.20585257371167942,0.30563060289692356,-0.13097438354177127,0.6928340327741582,0.5431040456641789,0.1993045209935974,-1.5052616717101555,-0.6058423146534377,-0.35167250433097685,0.09020702738662123,-1.2373697699232828,-0.22779100938102512,-1.2460597829721822,-0.39841200658906284,-0.19342676613775447,0.12142981919119016,-0.22823983130319145,0.338785940062515,-0.40806852121965825,0.583382539252755,-0.8960402398894569,-0.8086675211890664,0.7622757239213896,-0.21206125309880008,0.2610623556529693,0.7412028874837371,0.3411146048901945,-0.4222635268353404,-0.14799413333795067,-0.4688820550815517,-0.5508075805216309,0.550006915365639,0.47756985860280654,-0.036064283272484086,0.7523626395933117,0.3979896371625458,-0.22177907163925129,-0.05349000379593774,0.2417157120434693,-0.8610947843823087,0.7934579745656837,0.4345140421613104,0.7211494627581437,0.4023960567141663,0.4402008079585314,-0.2272402179324149,0.314645092928416,0.41594371474903064,-0.3347363560905827,-1.0122468678448662,-1.0029126207231602,-0.037566564228750904,-0.19998847963361654,0.6259819846035201,-1.7001882096544707,-0.8174959990412937,-1.0267052154051006,-0.5099225994454367,-0.5870434976117387,-0.29225121373627666,0.14398842416000654,0.017879204150863654,0.6651351502554581,0.9589290571739686,-0.3430837969687529,0.3980555862949944,0.7054845735863046,-0.44538841532617746,-0.28333084287058535,-0.451136667593523,0.646346696747865,0.1306494065513296,0.05944800249399542,-0.6377538500714366,0.07888719304635856,0.21931743534402046,-0.9009483311053731,-0.05450157858499996,-1.1279884639234095,-0.25772139988264064,-0.8739074078592294,0.05469738620432211,-0.06651808483556333,0.5293967180183354,-0.179821913189765,-0.21638982064805742,0.12084198365644153,0.05715486192128236,0.16761579045163202,-0.1800489959821351,-0.19600358933011203,-0.23533190399276419,-0.20273620141117182,-0.10239809391396497,-1.1677680574748674,-0.4250873373615212,0.04620404232894718,-0.15491582301204598,0.6847731460925438,0.07074345848554302,0.7335224633240057,0.1254679639107752,0.026179250853309115,0.26706914982580043,-0.34463012365321155,0.24744623770576726,0.3396771889934272,0.26856884123635877,-0.1806934703589918,-1.111495315696838,-0.18000005041358175,0.34162518772390366,0.4782862722130818,0.3407989497355406,-0.8593805711843125,0.21455302427646236,-0.5177871512663347,-0.09266496590590338,-0.46554124381924894,0.020173228007242503,-0.13669553999036,0.18976242866975387,-0.41606697065602394,-0.024811137013682462,-0.04087492106347063,0.032675305373272547,-0.9569817545929252,-0.047683479266027416,-0.7412267930123929,-0.486538102025787,-1.5438284765470915,0.2280232156737937,0.5222831872542442,-0.28267560792502444,-0.022372249783979916,0.0649629838530262,0.9032262356251823,-1.4916751858653972,-0.631285558349032,-0.16652720982200397,-0.9657955146399264,0.09810029679948946,0.27902352983051903,0.7890484420091273,0.9886486094765885,1.2947949927556113,0.33645052946548004,0.028818800235434712,0.45755174277570215,0.4033948680065102,-0.7185904658509952,-0.14301778190117578,0.49939261098211063,-0.31973829505756884,-0.36290300495597105,-0.13822334563476985,-0.03840405622470198,-0.7164150510106749,-0.5363186515394539,-0.13347826762803575,-0.947976783508084,-0.5779159892095082,0.16464304482543682,-0.3886924952116628,1.4282057926258915,-0.2341802488840367,1.4649136785146353,-0.020005739518340067,0.048372117363316175,0.26133684456965633,0.3199884876878857,-0.39203487278353394,1.1117712070060533,0.14956900169766862,0.921862678930899,-0.5187581467623447,-0.1579662745794099,0.22265534499064485,0.181655902947927,0.5229020104748745,0.04362969972079497,0.39862790452167,-0.13415281808301302,0.08809874821838487,0.17711710083246887,0.043660035845029165,-1.3948520853481459,-0.3102204982594524,-1.0545566235819681,-0.31356040588368966,-1.18698408322535,-0.015429740054106463,-0.10194312964458425,-0.32935980758992534,0.4123348487913874,-0.5356436847886412,-0.7263229812770243,0.765483185883267,0.443835533658418,-0.1796520023453102,-0.5137714862350735,-0.08722728976238689,-0.7905903265406868,-1.5689588180341458,1.4850368629365907,0.37357751537030115,-0.21843264331238646,-0.08835344760572657,0.38215162933727703,0.32066558369051096,0.3436808653526837,0.5443864214604631,0.8148538117755985,0.15906300053890482,0.21338819638119721,-0.17380372137125363,-0.03057629581718652,-0.07475209183653315,0.2833843653185189,0.5468425386714559,-0.15169815085389604,0.5125896893066081,-0.02774856346896232,-0.38750692734035,0.5091078225924334,-0.2172140329870363,0.18661418325582751,-0.1557581035110268,0.41442988587057583,0.1127119682108534,-0.35876100039479597,0.2948517217036151,-1.1511711513467775,-0.2502447910969061,-0.0311623432289624,-0.3034269484084273,0.8302464063386726,0.0585883124840351,0.04646438136922062,0.5339436790424961,0.22538523222967477,-0.09201711683986274,0.7207865612449607,0.5362817621429459,0.7384581310901492,-0.3615194894944883,0.17536200512854797,0.5402247017049376,0.8784055956972477,0.8143395772719427,0.2425276064797466,-0.00671879023367851,-0.7029331572521546,-0.7031711059588903,-1.581808911159717,-0.38917623044903044,-1.2815352376507443,-0.2879198721535361]},{"n":16,"d":16,"w":[0.27631804177097236,-0.5107522868358326,-3.5598547341469766,0.624298447132407,-0.15624971384286349,-0.2805761445859783,-0.2953962217086143,-0.1513673013007996,-0.3210406924121706,0.014204198071174068,-0.14467378187281446,0.349250198601528,0.12144394574266049,-0.4992662395634025,-0.0035141532207764556,-0.0990478623947912,0.9668634456603605,0.207235857559641,-0.2461802768481752,0.2333795090704763,-0.3242480720762804,0.29690235838079937,-0.030451411810836593,0.21675269904463942,-1.3187584805812327,-0.5176396955437021,-0.5939466422682078,-2.2628317527103508,0.7177436552339409,0.15854410505305686,0.6872759282554024,-0.5171269927853471,1.4312692950722032,0.8525249963268202,-0.1851070843257843,-0.11817036901702037,-0.060803683296955485,-0.8577922643856593,-0.19491357474278614,0.5781254662036799,-0.04008618701169453,-0.13369373150707345,0.28870137588084077,-0.4437957426711862,-0.24576040613908304,0.022533271035601387,0.8019688481888552,0.7219808985865039,0.38600237538814336,0.31150861101785715,-0.04013553395937807,-0.10096736972976235,1.1313925055409648,-0.38390832640109274,-0.13241997000678682,-0.32623364765119506,-0.591739110362195,0.21829605229398902,-0.7426256589075164,0.4888047975410357,2.522695143248282,0.16115855395260695,-0.02843536859636146,1.266973807896217,-1.1022560793014726,-0.26687167491896896,0.39960541941332967,0.6435615152718952,-0.9417619444445382,1.8070694082102137,0.2968702108097085,0.09309826940156792,0.42821206091408087,0.013377506107366668,1.2504494050381745,0.4747901416572156,0.08830472016202999,-0.15287818517104085,-1.1976405685289855,-0.8292265176558353,-0.3357225654684046,-0.37439791077064805,0.5447939068310839,-0.1479448553752852,-0.0685699413500463,0.16240224452188134,-1.0545049159383366,0.23779807683014065,0.7105464149841102,0.011187102829381016,-0.3517968090725996,0.7166750695419669,0.017830047704709688,0.39304240196824536,0.178457188379219,0.09171194907654168,0.29355447184809735,0.024151177869791228,0.9108056575760347,-0.34600219070950383,-0.17842939070629682,0.6784155220853959,-0.20755894758068283,-1.0875364892598502,0.7122797963244218,0.2569339060201874,2.12006645559491,-0.1749695332380008,-0.49417511142353004,0.4022210178532977,-0.7779297887065009,-1.2888818503714037,0.06668991693349201,0.19651631475148063,0.04917930046970936,-0.47478583724653745,-0.17495541256095187,-0.22720416996217888,-0.2108582389720176,-0.346880867205284,0.8799371132161082,-0.2154659307164045,-0.3038050596882007,1.6866948878015506,-0.00489455658255755,0.2695115921329206,-0.5392934971690981,-0.18950774287490846,-0.3279016137572734,-1.5607673393194563,-0.9034326446295156,-0.46722283613383153,1.5421552831165783,-0.14328599000883466,0.16246772680302612,0.8273196044730033,0.06928508588396529,0.32035227904755953,-0.608056755611304,-0.14558993760007866,0.47277318409473806,-2.331615963390087,-0.30814680964930874,-0.2162916162938144,0.2660455953810545,0.8995310843470394,-0.09537754861651897,0.5895461895327001,-1.0491619993671768,0.3746824349169343,-0.7506153328586777,-0.28644439441145125,0.12206496879800441,0.17142420458999139,-0.11436338081266585,0.0941221108634466,-0.28377330652827804,3.0021480745007505,-0.6952069021191132,0.4215235271021928,0.46429923720874794,0.0587426026100533,-0.10859690298420634,-0.19004010920903136,-0.3659261247180218,-0.7493030836959417,2.024485293987836,0.38742101698334025,-0.21038712207681354,-0.09457647838068259,-2.2957104313311896,0.2649246046314396,0.24654521849135586,-0.18516475530377213,0.14425089112308012,-0.48524810269529733,0.4020100164508814,0.009075522383920207,0.12526266747210374,0.1717704887266353,-0.0073738563666999575,-0.3054586711174532,0.268737014619111,-0.10249634800496989,0.22403829873088946,-0.0003918861082304451,-0.41382924609419763,-0.023171410971741257,0.1333280511566075,-0.8420562262436257,-0.28102761329752074,2.051783343659532,-0.21131778874263585,-0.17895784653906327,0.049928233822413716,-0.1540106441695322,1.958228413003896,0.11411299749148417,-0.5035068167097074,-0.8436343481361243,0.22799595115283824,0.5531422015827503,-1.0582608141185388,-0.5982133400177817,1.4355293193198502,-1.83361695031805,-0.630020657077725,1.8859859792150124,-0.5552650240524473,-0.012200415343995042,0.4054347357540492,0.07614620705419681,0.4126268815680574,-0.17457298269734578,0.18313823811223479,-0.4123980335058799,0.027801205759455702,0.1073764714762296,0.42996632149165004,-0.43951488746289974,0.0037686939715078503,-0.2707514858105706,-0.26123384327168164,-1.7607414311408431,-0.18130483341171147,-0.5536525495875272,-3.2491586258922607,-0.30774379350919623,-0.7961263439683148,-0.38322372935253884,0.4014071805287172,0.34852503180788297,-0.7360705359638836,1.2407727625216707,-0.35776642944176107,0.17107826729608822,-0.2784501958669764,-0.07984486258694552,0.2867416312043282,1.141866911385312,-1.0830321906042555,0.5045192221207938,0.08322446912689879,0.37441482652851765,0.0742849248709878,0.35009756879809856,-0.47428270495807295,0.25464484822402356,-0.5925403087630612,-0.8777231313632013,2.697662513115668,0.11150367909650782,-0.5957236121555199,0.5376942017017217,-0.13755053860167246,0.28414366830087334]},{"n":10,"d":16,"w":[-1.3346934175463578,3.838500176311213,-0.3403287503049883,-0.1889126103585089,0.05681465868182794,0.02334355950968754,1.0695836584239475,-2.445395403197035,-0.4439577816293252,-0.29637588442186197,0.4119581718828187,-0.31617726660186074,-0.14624591729449604,0.19974122356141813,-3.4330282970618557,-0.16570557027779598,-2.886470958604735,0.31380513212876426,0.47285211532741306,0.27812412852829366,-0.5088642696525417,-0.42580212716015203,-0.5624977217828168,-0.2382911989074676,0.5353802981600955,-0.5742527130663339,0.45402099651526123,0.14341753287830553,-0.49168444624923713,-0.2371206046253754,-2.4735689567096033,-0.5221144608437124,-1.0236677651379122,0.03524434472048192,-0.6643131798100337,0.013119290255944278,-0.15322471696788953,-0.2606322403755288,-0.3703100058011811,-0.06770674576055632,0.012027600169437179,0.013102257753494868,1.311726008530546,-0.3285974518054241,-0.34910014337639605,-0.24331558799399786,0.06225125846302266,1.6772861516865731,-3.2256345940308964,0.5317498187874408,0.4012572147664713,0.4874391923093133,-0.5828723280537954,-0.5620051157044937,-0.5726247053188591,-0.2886581631670875,0.3695976760881596,-0.2889777244091669,-1.1017991525749489,0.40585726494457947,0.5965506013913894,-0.16876299699157532,-3.340164064521921,-0.459241156771077,-0.13583538051830502,-0.2548643701609318,0.7832670562582527,-0.014897875428953206,1.4643153899327954,-0.3905378092338251,3.8138751453456474,0.17568418904471383,1.416290515841655,-1.6438465541983183,0.18574866426955897,-0.4569311520141849,-0.5904788895440288,0.1851258156964702,-1.2600446159963794,-2.727089707449333,-4.034053154201273,0.5694132433836112,0.5319737180180533,0.4241022270972386,-2.719391499959527,-0.5354382511916423,-0.3847741425255942,-0.461185825630647,0.29699183953443525,2.313088821548902,0.617404266663497,-1.154135549572925,-0.010137285800268242,0.07073222350358267,0.03373367760658226,-0.6292170672670959,-0.6460626862295267,-2.5991852446466592,-0.8116584060661208,3.101641760510023,0.8935383189460074,1.1000198067116622,0.68007680659312,1.1439122730983635,-0.8009529077419603,0.07898380320941104,-0.5750663674861735,3.591006083196745,3.1152289164588454,-1.7477433783327536,-0.2365295576958978,1.4260793715090183,-0.5046001028484778,-1.3094881725938108,0.5785294616303294,-0.26825988021794567,0.9450421920621195,-0.41277842421230926,-0.8695896717765236,0.25069716686655535,-3.101180178409974,1.703735111310621,3.8059498182544287,0.19622999066117067,-0.12454517483251282,-0.3091109488543047,-0.1923882765208613,-1.2988089240459753,1.148279795877568,1.3951848978734287,1.409299339805399,1.1361204992139031,-1.5155577176261938,-1.6043489490498004,-1.4674822725431558,-1.1415841252490957,-4.646920756812951,4.5779920354927786,1.4462522525915693,0.4564073168448525,-3.2486983167606427,-0.0456776002400802,-3.1480254212301486,-1.2935712033480238,-0.12079327747206037,-0.23117488513974288,0.20758705384986587,-0.035196332477361286,-0.0377441901954986,-0.028900247746401635,-0.06071038935699641,0.17104818182181417,0.21989960804697747,0.18501736109747877,-1.0034078735535419,0.11203845516891334,-0.0499335430238005,0.018106803764401526,0.056874114178208035,0.4618070951266525]}],"biases":[{"n":16,"d":1,"w":[-2.597313434382551,1.068118391802939,3.5892817772184413,-0.4882469546190625,-0.9748699512179163,1.351993448648402,-2.7166325072902557,-2.445316409793058,1.8951464736117247,-0.15591357753430876,3.3047547052092296,2.401155240154945,-1.581600890278844,2.987412154843964,-1.322558170799518,-3.4364908404155066]},{"n":16,"d":1,"w":[-0.5843051702643789,-0.5008686222157218,-0.6179164834764299,-0.4765646859910018,0.09148144313939838,0.22058649012088816,0.34777955438651226,0.5935385166017361,0.2566309817422562,0.44539433252894844,0.5264174411373501,0.9725045206927566,-0.21870114125138884,-0.32247987765827346,0.6051013340527758,0.47487387739983866]},{"n":10,"d":1,"w":[-0.7438827302824426,-0.9358199467824908,-1.8765195417419878,-2.3802696038566684,-1.5422326717417543,-0.7143520939304617,0.1292352278055914,-1.2869643952927026,-1.9205694370117745,-1.8963389957235166]}],"std":0.01}}