{"gamma":0.75,"epsilon":0.1,"alpha":0.01,"experienceAddEvery":25,"experienceSize":5000,"learningStepsPerIteration":10,"tdErrorClamp":1,"hiddenLayers":[16,16],"inputSize":20,"outputSize":36,"activation":"tanh","net":{"inputSize":20,"hiddenLayers":[16,16],"outputSize":36,"weights":[{"n":16,"d":20,"w":[-0.018438358292489167,-0.03898948997843174,0.00936704070902385,0.06639855266259355,0.04346638411014761,0.062194466985102795,0.03951553213157938,0.049458643580999884,0.0695181178432927,0.09186242740616686,0.03606694785858865,-0.0678779557076882,0.08035950422096522,0.026884890542291227,0.060483720584997354,0.13623503380659008,-0.02858273356559867,0.003921122514339024,0.014047155447337237,-0.013979862352314455,-0.028629312996336993,0.02404178586276918,-0.001626564696723099,-0.044811881345734106,-0.04748046031112721,-0.05073718215081951,-0.006389584270625518,-0.023495159397113125,-0.06003702352342058,-0.09053239616825916,-0.023269269108763296,0.018700923226733626,-0.03806734817958766,-0.03404980607606668,-0.031166236671330026,-0.0930559118374885,0.025210711398615072,0.002258082433562636,-0.013437520088890166,0.005220585969167446,0.026582062371675343,0.0027193651536385533,-0.023118472299454566,-0.031955810303793804,-0.021025994470769627,-0.0368847331477993,-0.02510468899364029,-0.023740461164521696,-0.027714716997089106,-0.030357295924485616,0.01220275443784508,0.01091063866108146,-0.04749475311727091,-0.005432736238882576,-0.014719454470824579,-0.05101991803689742,-0.0024197804904816603,-0.022952997511882033,-0.04181949878016369,0.0008895184134490148,-0.039982194093416,-0.04188324918133749,-0.009957585375850274,-0.027003872659720072,-0.00976814877281215,0.004095636724049326,0.028876041223875458,-0.0074245169084368075,-0.006931436735313832,-0.010070562954965124,-0.024446584606856957,-0.019954011970248934,-0.012412534705365432,-0.017005331188292873,0.002461526624170241,-0.013108734467105563,0.014574988895452645,0.009974910096111884,-0.02328548395093728,0.019633973365925678,0.01586640152700165,0.07038367466844302,-0.030532051938790546,-0.03561737994083089,-0.05467472881490675,-0.08171576754432579,-0.06465631802553086,-0.05163549657522434,-0.08970823617213551,-0.08449702483709778,-0.0429451037387558,0.07178525548865987,-0.07900673505962558,0.0029395608609422306,-0.04454429870485471,-0.13551838475220285,0.02430958275895193,-0.022960468047288494,0.016513131524233768,-0.04361621055776219,0.028253565076985038,0.013085815841035228,0.013709447286092764,0.05103117287564419,0.05243511172104646,0.036085547881405056,-0.018726289291373304,0.020367556881645817,0.05638248031314695,0.05136440192215779,0.028406961714278423,-0.018893241835070188,0.05628171756739911,0.024955118656936583,0.017485417730967318,0.07822715938201871,-0.023139928186473306,-0.010035335658837833,0.01367459327266438,-0.021055257941779752,0.017124594102683507,-0.06741552841005398,0.06362139911432978,0.12638544791006096,0.15212730996167909,0.11081282804126102,0.03253674017509085,0.10564565467911004,0.1384098954019822,0.19833384765270168,0.054616371217833665,-0.143056297714769,0.19050002865518015,0.028597896449965753,0.09068209507542933,0.27531363839880113,-0.1188549828133185,0.0076830648740760935,0.020827300255402918,-0.03568991634670126,-0.023743783638873868,-0.04145223812326653,0.01847786356539138,0.008967716087460102,-0.001990744583151548,0.035041370713178706,0.04869737137295334,0.016571846102690847,0.032371022791658086,0.029260268251741543,0.008299841666486594,-0.03417031571544862,0.04074301698208983,0.00591422251623165,0.04339160202370596,0.049924718451139584,0.007416383374603831,0.024741473249597745,0.013375080075807615,0.00024502218255610355,0.008520392338983458,0.07660791473387775,-0.05972204801386071,-0.08482382189639147,-0.10089161859514537,-0.10094926321388083,-0.03759789886071264,-0.07562574882481296,-0.11005540506651372,-0.17240711329454927,-0.04164850363249699,0.1380504146425169,-0.1250959597032722,-0.014536020411866638,-0.075250886679414,-0.19761461428569074,0.07477668120266626,-0.0035306720729438566,-0.02683577612434251,0.007073169492382791,-0.06351716039274989,-0.06678652603864854,0.014220514572280024,-0.01645375580425299,0.01530386112746129,0.024103453534698192,0.022054952801234904,0.03679524244114465,0.029780600674766455,0.03562144163800136,0.010343312241987626,-0.036054619665005685,0.05782954982907458,-0.008091612303576294,0.054096144126962134,0.02921551208486726,0.00545308078555667,0.016587104534172212,0.025377259483901595,0.04367854333507195,-0.016577081594312097,-0.0380751310150273,0.02330219988338869,0.03390642924507432,0.06531537602463514,0.05046662359543735,0.024676903207411525,0.04770474838048898,0.07011599092811155,0.09121722793850427,0.0196062699379542,-0.062195945524186926,0.05704523543126389,-0.0025888192148756316,0.022829559455603485,0.08682390003467153,-0.02437531342728847,0.019585019407977647,0.03338688478470159,0.010412481107281477,-0.03288780779102558,-0.015367110643219708,0.004434322567040563,-0.012422646489239133,-0.018933119316185857,0.0011404998134200324,0.022850282038873775,-0.007795690324605335,0.0003936414423465631,-0.012212438725490576,0.011748521631150984,0.0001016514204163975,0.012361765945123972,0.000248817271193236,0.009314997472788522,-0.010503001380377238,0.014942192902391198,0.01416492886335091,-0.003468567834356054,-0.005323420566742236,-0.007791020125527996,0.029485627735292837,-0.03724398054668726,-0.07138026655971623,-0.0785463679963159,-0.07300350811686503,-0.00817487174356867,-0.07593965483088433,-0.10201683233370547,-0.11416756082927604,-0.0332525149838764,0.08495074841494452,-0.09792197284757273,-0.028101741763839404,-0.06313975473942722,-0.15070078803041484,0.04474783784262303,-0.009247007001870155,-0.04684772575606942,-0.006299102385721516,-0.02895184037151483,-0.042298118973875205,0.03529899320026701,0.015012772138400705,0.024228779073916167,0.039284431023698226,0.05575038356480657,0.036040413460783786,0.06343858641137508,0.05371026006931287,0.028394664050403928,-0.04919401397906847,0.05537000728480211,-0.0018816165433571007,0.03270326445872495,0.054313088701752235,-0.0030800168494017808,0.0021809598838973235,-0.0032644414525159556,0.02135373654812396,0.004344832313722123,-0.01250776792367877,0.014868292304780551,0.0053851250480527494,0.021183648440204653,0.04084763040071412,0.04022916651368524,0.027916778450841416,0.027071120048993563,0.040028758371511555,0.005181486538941006,-0.02374871032759199,0.0519552637228931,0.01729648375264987,0.019898322168599963,0.05225053083723276,-0.02271484171092093,0.000014889368391895906,0.022303784918716377,0.007482183082765635,0.0026796300096093174,-0.058600346425624,0.06112931863860091,0.11497373428320937,0.1265108480237846,0.09865841156919304,0.017715773146027965,0.0798130754361773,0.10808884311659728,0.16796037668693198,0.03960025400520445,-0.1194842157572559,0.15532962940115122,0.025321943200494797,0.0819154004073061,0.20332598464657586,-0.0792103102348795,0.00681049815050237,0.038707249578647976,-0.02136336239416789]},{"n":16,"d":16,"w":[-0.03188519186092218,0.013371660030199455,-0.0014476317803224978,-0.02278279007113288,0.09016299261786731,-0.012083660612654376,-0.05574704227163468,-0.015020139740189118,0.053727319716598276,-0.030899217980037974,-0.04013278829625291,-0.0010929981677845779,0.03159108849755346,-0.03931135251719575,-0.006022174735100521,-0.037117095857315624,0.05120225110768104,-0.055616784461376086,-0.045678706845989035,-0.01679595419191196,-0.03102615762250704,0.04438398212311112,0.11713760322848682,0.012312954161823934,-0.08090667613142025,-0.0012880729894021018,0.032457078642408994,-0.009146650478351349,-0.07934833801308093,0.005111964601553994,0.012363195165276921,0.09936781999924722,-0.011680924851672981,0.023946496389334878,0.00022731061156236132,0.014474163146528487,0.0059526402423116164,-0.008740543238452362,-0.04985822099161647,0.018002148279645625,0.041924105277856845,-0.013492797489824489,-0.02084654855401597,0.012317732930909743,0.03852581413290576,-0.025717370415718904,-0.0063979374544955335,-0.04771286635513124,-0.147427933989046,0.11103984064391537,0.05963512928563061,0.028950918345104354,0.1549598655202657,-0.10203155922867904,-0.39021541346543875,-0.05161471981227544,0.26212453842414724,-0.06182190286044459,-0.12647454870473454,0.020941262147552545,0.20402862423324764,-0.07678212347786077,-0.07587163309380568,-0.3044481860596593,-0.039967848613332344,0.024659761302215713,0.025808058253413365,0.00384638299609018,0.033332622180088055,-0.020306454178985956,-0.09752446986535065,-0.038414473030839745,0.0616088005136552,-0.02520611290051884,-0.014898561337055485,-0.01650653004650198,0.06169196230492516,-0.023818370855408635,-0.04204910620100744,-0.08767718385181324,-0.08062801276124884,0.06599303491490732,0.022320070014344984,0.0008353858149901987,0.089392815867594,-0.051787534913512144,-0.21081976114893955,-0.017439709332579,0.15124367999544275,-0.012750098726895467,-0.050232818038298176,0.007571716438459473,0.11077783248525692,-0.047203457317429275,-0.019937261282137506,-0.14892210679168663,0.08337127142467637,-0.045274081011728654,-0.017705728594386853,0.0026199516452986445,-0.06766162177133778,0.02976208424548236,0.15237814204003453,0.028673034576817254,-0.12183788213499046,0.0159157484111839,0.053007767527546074,-0.0007641129761602592,-0.056638691635401146,0.03086796507568972,0.03145199242964907,0.1029411232983162,-0.05779058732442879,0.029044901165139986,0.012372621752373953,-0.04756712282811744,0.07664926905680453,-0.002275737636335125,-0.1063641670006785,-0.05616832300849186,0.10756411017950229,-0.057241460164621775,-0.06544396261619817,-0.02143240676104844,0.05077649865632522,-0.04881336276144601,-0.029385323375838147,-0.07448329084540958,0.0462329108969615,-0.02644208312691974,-0.03948627273947512,-0.013526538107495718,-0.05614012627635854,0.016523023127209657,0.11372064323804873,0.04264607601072048,-0.09015019738510592,0.027953908002193016,0.03606861726335833,0.009435155888226892,-0.08908013128115141,0.05772179300224901,0.03562112060382073,0.09581670237022893,0.07891099295041844,-0.039825248494583236,-0.03678343416784254,-0.0006403504904972704,-0.07278768438245135,0.015724917798359578,0.17309203197113257,0.049435430845237376,-0.13615808318288705,0.0695353789663806,0.0638676889908738,0.009311754221360952,-0.09431781850822483,0.04401654923733898,0.036419305388057446,0.12831060998498314,0.04211076780569335,-0.050218932559734135,0.0009417856000598104,-0.05277100612342297,-0.016362617972412927,0.06446425960497362,0.13946627905897435,-0.0072771741138992815,-0.09126933123670868,-0.03212162379520057,0.04469997031765923,-0.03125317752246344,-0.07802938273695705,-0.009056606859997545,0.01617622786365821,0.10922951500832401,-0.026366157344796935,0.0064164443089529555,0.01152751442345295,-0.020364824086579362,0.05917756185606134,-0.005361225095096692,-0.039220650250937676,-0.030451527676887635,0.05785731336756217,-0.02327659999823499,-0.017809346499916286,-0.020902128404642853,0.013264506998663965,-0.06662772945876125,-0.0036114940255226177,-0.04316137585541194,-0.06920215472885201,0.03076885926707938,0.045016051056138685,-0.011114812552402303,0.0763381825667353,-0.027535155061170293,-0.1075548732597701,-0.024697212721214466,0.08171288841864045,-0.05626252666489479,-0.06423847834961843,-0.002009226426906206,0.06450302577829958,-0.05370799470626836,-0.020591862116114603,-0.08379083235874293,-0.02757521845218991,0.009472615566408256,-0.00921919576949423,-0.01953737131037448,0.04903034128754554,-0.020076782626023616,-0.0564255238978452,-0.010972495617572393,0.04889490676874889,0.0034501635127756774,-0.010184688948279213,-0.0006731982779346937,0.03639095203708637,-0.025470303474133326,-0.01439466318311566,-0.04731015744490868,0.0023340430268629403,-0.008224912502468453,0.022871898827763297,0.0018529338581078658,0.005255710850190846,0.009169480060452755,-0.00419205171283228,-0.018493853661923323,0.007778204201828073,-0.029793370479978768,-0.01715407941107134,-0.026046475004090863,0.01166402675941352,-0.00906360724686165,-0.006326967014207888,-0.013095387295490842,-0.04910741926592878,0.046956640417816914,0.005751408794252595,0.028558742675789468,0.023225564590869125,-0.05703372944128101,-0.08455857609149013,0.01286307996691151,0.04850917894881183,0.03620423844689354,-0.02259436979560676,0.0011436224160427506,0.03351440932155091,-0.013448382431483165,-0.005020173926225588,-0.06211703846543832]},{"n":36,"d":16,"w":[0.057570355008503174,-0.08193619898984088,0.037591369664780654,0.24892367841436866,0.07130320996061454,0.15224231332187863,-0.10532305666648317,0.07652505592931062,-0.0645724179387782,-0.09545981824930368,-0.10447223458306376,0.02614968529517965,0.07742245132375063,0.05000864512586013,0.01224206058682026,0.07501163769025591,0.0250537412250695,-0.029259444523434125,-0.0016817094448911426,0.06343487700228276,0.005353531807375292,0.022432407341182067,-0.011830610532611214,0.026782166226963323,-0.01569997838204753,-0.017622135850650724,-0.03196861159107168,-0.011037886342121508,0.005609513223752206,0.008103262152706922,-0.00291881047198089,0.012206934220772589,0.025196121129204874,-0.020636521445710848,0.01730032058752799,0.12503087195637103,0.02178045230100703,0.05227325778189773,-0.043519719957689704,0.02105196496085506,-0.032537015926898546,-0.04685299866842807,-0.032447811892977435,0.025747053568330687,0.03347278134903505,0.031231230249443423,0.0067207402046023474,0.01971836786648528,0.005900255756495271,-0.016304846173798973,0.010018502916986468,0.043103261122730344,0.010779839694548148,0.04628524101614925,-0.005026711493333835,-0.0008060237676632415,-0.012524582716579167,-0.004535455276050501,-0.007407025017912136,0.004724847285633646,0.028792995575323194,0.008999724548681358,-0.0014770592438836637,0.013802033210644772,0.026328053582742726,-0.02919508590039256,0.007891148731586067,0.06830743230848466,-0.005379746263059753,0.042450577653582754,-0.02220089796967867,0.021117777820654778,-0.021307177622740526,0.004518223925387671,-0.06984404014664197,-0.008765839590623225,0.012500783300803503,0.032262171958370965,-0.013746234683744215,0.026742664787725842,0.033231456152629395,-0.03718583058949767,0.020504823444318813,0.16407144613784938,0.03452623564224959,0.07020345029285821,-0.06346676378686092,0.06526852749958406,-0.03660317305825438,-0.06502339179659089,-0.057657813442906714,0.031073224320272715,0.04386873610992866,0.028778843473356883,-0.008141577174858897,0.046770702074254926,0.008540265697526509,-0.030398936392044024,0.0025265012055402446,0.03791317684711099,0.02170716806991597,0.0334553466153727,-0.040402811965734815,0.019763546996758818,0.01096088034588798,-0.0068204860657890085,-0.038059770874037294,0.004989077798503289,-0.013258196439794152,0.009170538237932594,-0.014762605081552187,0.03794468694454096,0.019636212940779253,-0.02284527611996569,0.02472237399495549,0.05903145806668119,0.001950858513013176,0.04323121903737258,-0.02741025576656805,0.0249179473630082,-0.004664014514745576,-0.03225334451056896,-0.03675880079848734,-0.000751239667509812,0.022921427663571525,0.006846578770324368,0.010234371094632008,0.057237510445247,0.007347803741009315,-0.022840985483491165,0.015228571843530433,0.10353834489530427,0.013793834833301004,0.07600075335239545,-0.025877643436222602,0.03557122707158145,-0.022229798175256214,-0.02427727415167434,-0.07302737431782509,0.021864971629489745,0.021587454779798815,0.054635277717160174,-0.02054254149387411,0.04835979655624351,0.023508509363723493,-0.05726324906152681,0.01867943708298943,0.12538637401489516,0.033021444284713125,0.08468949092462155,-0.03692876057353375,0.046545268837835364,-0.04154024004071877,-0.04021499036170706,-0.05365656134220443,-0.0013505219223549892,0.015333227588960165,0.02807740800819667,-0.01833645294511651,0.03259373843475789,0.010163670291915564,-0.010139591811931054,0.013493793138214416,0.03478860647231622,0.018467202540916994,0.039537208163950566,-0.03274707136044469,0.025782369588387744,-0.016255272306054776,-0.01251542991638501,-0.013673751755875999,0.04531552140632142,0.010303003702691056,0.007906518943002695,-0.0055240155960769805,0.02123444920451813,0.032750008595574594,-0.03300149079619674,0.007042293256689038,0.14217660189103967,0.007989885518108647,0.0901293947136364,-0.05191575643837059,0.055524100985529436,-0.058593022576245525,-0.09051361155842302,-0.0326730261572314,0.03618738207362984,0.03992670522418754,0.02093702800130569,0.007549687281958014,0.03277251611185419,-0.01272666238594698,-0.0734116657689661,0.01704448723014145,0.17771484405445687,0.07055067514594959,0.07078248486997275,-0.07288612886292306,0.02306923499183243,-0.044307782019076626,-0.06074330821004321,-0.06233525180078939,0.011203375599944004,0.048613201971184614,-0.0018366348411028475,0.02162422800776637,0.032762292229243394,0.031882624294813214,-0.02089892849408477,0.009230424340309374,0.0918458831720235,0.028200124907797,0.06883907578172938,-0.02711977950429213,0.054493033779070936,-0.013316130972382594,-0.033424209121137506,-0.03632071230446684,0.018385062255557087,0.014654925163683767,0.0013305944513494316,-0.02023437921787903,0.03551528735534678,0.01916890484209361,-0.03950011492866379,0.026957771069539515,0.12497136285314966,0.026832684499863237,0.04980634534889703,-0.04300703005964365,0.03508251197999907,-0.021807089066378373,-0.04669390733430309,-0.0666000972215712,0.017356328470865413,0.022098799789222672,0.03513033240823569,-0.01819302928070885,0.05814405266292443,0.031126922176074746,-0.04069206321880717,0.015527996401198226,0.1510443414317301,0.013673760661775647,0.07798768846742007,-0.037625850065505395,0.030424961289750075,-0.01980136991453538,-0.05473469584046131,-0.044514855099955335,0.019095475250550796,0.04150196913949537,0.029202033537514313,-0.008301887770429233,0.02715299838279048,0.008619583068532513,-0.05469310148222898,0.0020888721007144727,0.10315979654419652,0.029675906306039126,0.027152689794324534,-0.032434737150962574,0.005035506808442212,-0.06225979772423944,-0.04065964781799702,-0.0382645592489686,0.03760020568366154,0.01343426840925799,-0.0014436190567004648,-0.005752884208037326,0.020141065071169348,-0.005263805991195782,-0.032928384476900316,-0.001266009368960084,0.061252830514803125,0.009405055213068322,0.03221446284957296,-0.02992936150127325,0.028061768348106593,-0.0026743513066522845,-0.035221299685306684,-0.05067046566229962,0.005505795417773864,0.008495569375513282,-0.011355692863375661,-0.01214563901010543,0.01464879258416765,-0.0016043552346915611,-0.05776466506397459,0.027785835408030833,0.16617423843423956,0.052554223710227166,0.058017913358144095,-0.04381722141951065,0.02027027371233906,-0.07792776358920703,-0.10300831945302619,-0.04219441140444821,0.0006737080732829438,0.056766913467592356,-0.013033548903412937,0.0323563134642171,0.01908439088931217,-0.0028221022688068053,-0.031900459319249036,0.02556709169809177,0.0755347235674228,0.008546631424547207,0.03953987872943013,-0.004180619075311521,0.0013015236410622818,-0.006023268710607211,-0.016087305298137226,-0.059075557771025064,-0.0192361598945736,-0.010126719044101434,0.006388760359184536,-0.0283071332772086,0.03381981187335854,0.03848030372448849,-0.04241699990923086,0.039655056403000155,0.16752605889382832,0.04026556355544,0.09986167500883954,-0.07199884922946798,0.03744309370324903,-0.053896513652776,-0.06114503838380565,-0.046637287321773975,0.006296569937459019,0.0479506567570673,0.02893682307957312,-0.01889880653166367,0.030638033204118002,0.06060505396429486,-0.01446658676232294,0.007962653481055133,0.07013767582810237,0.05087495072957661,0.019319521229782567,-0.04175503154019626,0.10112108488278043,-0.06253656271344223,-0.10839666135078507,0.05588345906372677,0.06979030326103354,0.09588462525541513,0.01037863000525375,0.04062925760373418,-0.04972292526316514,0.01954771707963681,-0.03729016315321057,0.01654251145664874,0.09747622979609125,0.01499581643454128,0.08068114698940555,-0.027968313946581207,0.012600123996650362,-0.00817199572928821,-0.02725565347350388,-0.058686314273002825,0.011638321337173688,0.008393719220525977,0.014780574251225349,-0.01535595820820473,0.03336020421917045,0.025657342123261647,-0.05754243867356575,0.031985525856984436,0.23112132870893234,0.052044503209008525,0.10608740120758217,-0.09611530019560832,0.07103089622198176,-0.10140565581549528,-0.10155089839533453,-0.05638040081148017,0.020096607530611914,0.09587842539818417,0.0434890348006507,0.03309553301139169,0.03401951652968219,0.004545153081998719,-0.02748184208882674,0.01930250449409943,0.04785618970975362,0.013848038132992894,0.05277854748392933,-0.04025221119458871,0.04745428518539695,-0.010784980582315615,-0.012626101813383344,-0.041074493248744536,-0.0026579001403749993,0.017518228339117446,0.006408910109996177,0.0010948061034403973,0.02335250399572359,0.031095384667601134,-0.04703956871944046,0.040466044510126524,0.1770464994573133,0.03682284489571345,0.09823414928993679,-0.07062761138858847,0.035949906625433056,-0.06966810001100557,-0.09219146733326114,-0.06592409687802248,0.027887978616563135,0.08025900723070038,0.014144499018596263,0.03242243040908078,0.03326724188419467,0.0055840399060475355,-0.024236519346846647,0.012010708406631073,0.07971083633437498,0.0023417627666252536,0.047473051171127933,-0.02763593699376155,0.02596048923654442,0.003636626250123543,-0.005350279837666438,-0.03496848803924416,-0.009297610973816362,0.011836675747076236,0.02604894819559836,-0.02843023625293953,0.03409029763090059,-0.029363472921744318,0.00473872026915922,0.01836931314401982,0.06991135136287292,0.012541400646630469,0.0538613387613393,-0.02209549420059424,0.023601247981474775,-0.02142520269466401,-0.026859248834746084,-0.04404963412995225,0.003683061654105521,-0.01200526013595076,0.02101224484136569,-0.008346707033203109,0.009396925798945136,0.04023016889969857,-0.06762958626895678,0.004781983372775446,0.16776214843707035,0.047659398435221635,0.07586567975002738,-0.06552182488234297,0.04934424689119602,-0.05673098195062518,-0.11182847025773676,-0.034051171630072465,0.028153402951149264,0.07336919435751109,0.03478115154804691,0.008587161630903754,0.03193815325664661,0.035006025568900694,-0.025180389391130358,0.0064274029040716045,0.08814211358872867,0.026741577072941707,0.05047705812164099,-0.035982053405467986,0.04251923720836861,-0.0346608092814535,-0.018099869369894623,-0.021034181588817227,0.03339396623784505,0.012893255255841944,0.029117738626654587,0.006637259120266857,0.01324473144877049,0.0038737261132782085,-0.0054959531584940005,0.02628695741267739,0.12196051188218923,0.030516718029006434,0.037487912350620954,-0.01886749585389443,0.024210696982101043,-0.02801534752784667,-0.04492940959718675,-0.021581276192414144,0.035999139892299525,0.023913400596857863,0.00783784706766262,0.023199053780529166,-0.003667638393091835,0.035498884972419174,-0.041749064096874525,0.015061064316217253,0.14987258447063156,0.032136430785218446,0.06925000915401432,-0.042264522340455,0.036368341691123844,-0.02913991620533103,-0.056664383843142194,-0.05533386714788409,0.026692934975243037,0.04163627642189576,0.03035528303382037,-0.0195306333371706,0.0412791711219155,0.02722947195473063,-0.04556836253046255,0.0075792986440417634,0.12041206778449069,0.011535953168496881,0.05778046877605739,-0.031339288801466095,0.045115996984585245,-0.02846329521165418,-0.05172891516869852,-0.045019662061430425,0.005311316214482153,0.01555372415222314,0.012609945962751461,-0.008973393623232517,0.02574475410125939,0.03630960467664872,-0.017759785141353682,-0.004056579582327951,0.09924228962433135,0.03736144362139163,0.045547608022485246,-0.05499681527181434,0.06182886703568331,-0.04875738877519848,-0.06224977974820248,0.015318498711821437,0.0398630013970998,0.03569736000511859,0.021617515383844998,-0.005956094154923008,0.013931897925158504,0.010056783633887118,-0.017591705796388524,0.009753912475540989,0.07119173210969558,0.01284983919894145,0.041038316752491207,-0.024258970440621048,0.02747612726923873,-0.01319993757024686,-0.022492627686000643,-0.0441629192436763,0.01598335135844698,0.0005835910126335615,0.008113324196224956,0.009842924131098826,0.027990616694613647,0.032671519230006794,-0.04565897531865383,0.011789661042836031,0.17858018004124251,0.04590774885393658,0.09744398089419808,-0.07543811196190485,0.06869605236646859,-0.048791125365116456,-0.060818776691919825,-0.06082259137976628,0.01776447921908711,0.03798621367706211,0.04689156932841567,-0.016505213493667768,0.02721581730236384]}],"biases":[{"n":16,"d":1,"w":[-0.016741449197807085,0.009399177058420395,0.0015704824217974553,-0.0022585602803136253,0.022781479685133374,-0.008037787760318799,-0.14215468664874406,-0.0029815846941656306,0.06031054312474918,-0.006939477616276047,-0.01335497544776217,-0.0000071064091232445075,0.03379619072114857,-0.00818122329387691,-0.00735925266560469,-0.0731316784151975]},{"n":16,"d":1,"w":[0.01740991459040609,-0.034505659508579006,0.0139615463675256,0.21068209049621692,0.019813804777674315,0.07293984346846581,-0.039605701342591795,0.03724841042669397,-0.022833368779998864,-0.039310089963069256,-0.05367710727270091,0.009518840805720501,0.016291096181885498,0.02422282603084999,-0.01749993278936324,0.03903771632722166]},{"n":36,"d":1,"w":[0.23619725985131537,0.41666278516098276,0.40656277778367134,0.405230903968015,0.4168577724640947,0.3479927324383695,0.4014118094404482,0.4196211119783058,0.39154292535707064,0.3890981403243885,0.42305564066699786,0.39097067436624044,0.37248100041443805,0.3646502711486351,0.3889202960729601,0.3892876507742347,0.40312226725913686,0.41820377123228775,0.3832835317207065,0.3989403834996004,0.3639072976604181,0.4107794479257339,0.4137569074262507,0.32034266976519876,0.420824010999836,0.352717072816762,0.4119497054368646,0.41366224336074564,0.368887165558883,0.4047034257027917,0.4116722802863598,0.39227813499904707,0.3776067938941746,0.41028624471627523,0.4016309370362714,0.36200750307011975]}],"std":0.01}}